	Component_1	Component_2	Component_3	Component_4	Component_5	Component_6	Component_7	Component_8	Component_9	Component_10	Component_11	Component_12	Component_13	Component_14	Component_15	Component_16	Component_17	Component_18	Component_19	Component_20	Component_21	Component_22	Component_23	Component_24	Component_25	Component_26	Component_27	Component_28	Component_29	Component_30	Component_31	Component_32	Component_33	Component_34	Component_35	Component_36	Component_37	Component_38	Component_39	Component_40	Component_41	Component_42	Component_43	Component_44	Component_45	Component_46	Component_47	Component_48	Component_49	Component_50	Component_51	Component_52	Component_53	Component_54	Component_55	Component_56	Component_57	Component_58	Component_59	Component_60	Component_61	Component_62	Component_63	Component_64	Component_65	Component_66	Component_67	Component_68	Component_69	Component_70	Component_71	Component_72	Component_73	Component_74	Component_75	Component_76	Component_77	Component_78	Component_79	Component_80	Component_81	Component_82	Component_83	Component_84	Component_85	Component_86	Component_87	Component_88	Component_89	Component_90	Component_91	Component_92	Component_93	Component_94	Component_95	Component_96	Component_97	Component_98	Component_99	Component_100	Component_101	Component_102	Component_103	Component_104	Component_105	Component_106	Component_107	Component_108	Component_109	Component_110	Component_111	Component_112	Component_113	Component_114	Component_115	Component_116	Component_117	Component_118	Component_119	Component_120	Component_121	Component_122	Component_123	Component_124	Component_125	Component_126	Component_127	Component_128	label
GSM3068464	0.48768744	-0.5604877	0.1904846	0.14633784	-0.62108415	0.43215433	0.644456	0.26105648	0.4213946	-0.68198246	-0.23251341	0.07580373	0.4861863	0.5234795	0.06655533	-0.19109899	0.2555001	0.3837344	-0.2383799	0.79553056	0.023103455	0.06150672	-0.08701747	0.23622054	-0.8259431	0.15087143	0.22570439	0.590788	-1.185238	2.210497	-0.14019336	0.8967935	-0.0641364	0.2684716	-0.09287939	-0.93376803	-0.14230311	-0.06440851	0.013274042	0.11137552	0.97334707	-0.5699192	-0.327461	0.2637019	-0.26089764	0.5139313	-1.7112865	-0.76458913	0.14721324	0.0032206478	2.7217393	0.102669425	0.37222838	0.2464265	-0.5139381	-0.16346307	1.0414876	1.1738154	-0.6619111	0.17949925	-0.1180227	0.8923115	-0.85390955	0.20833653	0.64429754	-1.9441049	1.0929143	-0.47324124	-0.49990773	-0.9375099	0.32855067	-0.72578704	0.061910246	0.34656757	0.41109917	0.05528787	0.20639266	-0.24133569	0.69666654	1.2828712	-0.23655458	-0.011038151	-0.24059899	-0.09861956	-0.41321576	-0.13599938	0.48289827	0.74799204	0.27120787	0.18535534	0.03473946	0.28848976	-1.9138011	0.9090311	1.3287778	-1.0713687	0.60461175	0.15930821	1.1274333	-0.8963059	-0.24340993	0.19959585	0.3831314	0.0780696	-0.561391	-0.016952116	0.2809475	-0.4077761	-0.16638553	0.08442098	-0.13607173	0.2303434	0.35440114	0.61795217	-0.10130667	-0.24150197	0.23173119	0.95333457	-0.81286657	-0.44542664	-0.91562307	0.19222961	-1.3997824	-0.78259224	0.20107815	0.55103004	0.26343688	0.0810764	0.0
GSM3068465	0.0058113732	0.061110873	0.25727007	-0.044457704	-0.2649306	0.31353876	0.376573	0.26135516	0.4877322	-0.58763176	-0.06241975	0.17143427	0.06106309	-0.071327515	-0.09764974	0.012629739	-0.04970123	0.12459038	0.28005034	-0.105871305	-0.026964504	0.025784735	0.35708028	0.1509112	-0.75432277	0.15295465	-0.037431993	-0.02640373	-1.2919147	2.5820422	-0.05548293	0.2759706	0.033405412	0.19115312	-0.14361824	-0.97760737	0.09605773	0.33637676	0.033862095	-0.045620665	1.127156	-0.5119073	-0.11182725	0.25689033	0.20744672	0.007810291	-1.4377418	-0.5925326	-0.12686664	0.026629623	2.9443915	0.18379255	-0.096443355	-0.67899144	-0.3944474	-0.013107572	1.1078033	1.3625056	0.07473678	-0.03557521	0.0071068686	0.46563378	-0.6161148	0.45297933	0.6248639	-2.0456097	0.9117417	-0.5781312	-0.36814237	0.0651611	0.5036305	-0.5822801	-0.09325	0.47829175	-0.18271446	-0.064797215	0.26692486	-0.4896356	0.51173973	1.1603135	-0.10252051	0.0013460913	0.1336499	-0.08514831	-0.24890837	0.0070881797	0.6305712	0.8007948	0.45354363	0.14181454	0.351922	0.16888402	-1.816605	0.83463305	1.4815899	-0.9118796	0.5297258	0.057814743	0.71669984	-0.64800614	-0.12026903	0.22781393	0.28986606	0.12079143	-0.54647297	-0.17358264	-0.17056389	0.106993094	-0.21848951	-0.07808668	0.08757061	-0.1903143	-0.02110862	0.10013733	-0.25788057	-0.0658011	0.26651546	0.7098546	-0.3113864	0.16903569	-0.686017	0.12679507	-1.5252324	-0.4455395	0.16487893	0.19473334	0.07036477	0.33208227	0.0
GSM3068466	0.4003307	-0.7722971	0.23271324	-0.40146333	-0.37161896	0.34534833	0.4918025	0.22047754	0.6881624	-0.7229749	-0.2477725	0.013481642	0.19241549	0.32185808	-0.062272325	-0.10606108	0.3685645	0.04509616	-0.088518105	0.55352265	-0.053748727	0.38623926	-0.054682437	0.26646727	-0.89049774	0.14836352	0.02323196	0.23729445	-1.1808741	2.1565182	-0.21976367	0.44870406	-0.079247706	0.35311675	0.06637873	-0.6976645	0.065915816	0.13872777	-0.04598642	0.22551626	1.1312944	-0.63560474	-0.2520162	0.23586509	-0.07140431	0.38473618	-1.6115512	-0.4575957	0.05771834	-0.015292411	2.7401507	0.091933265	0.39620283	0.37411904	-0.59197515	-0.19564097	1.0000774	0.9200177	-0.50935733	0.31561908	0.25897497	0.37645778	-0.60025644	0.22527428	0.62711054	-2.068738	1.1120238	-0.45820898	-0.33099708	-0.6841133	0.33451068	-0.37136102	0.08519413	0.06506742	0.38710937	0.13911091	-0.28991178	-0.54805917	0.68901914	1.3148624	-0.048387647	-0.19716537	-0.35126314	0.0027677778	-0.43913668	-0.22708586	0.42619357	0.4813269	0.17553824	0.014532596	0.088091046	0.48590517	-2.1346798	0.7803942	1.1178564	-1.0485237	0.569808	0.21106872	0.94094306	-0.88246864	0.15173277	0.089872636	0.28719085	0.17413124	-0.67245847	0.06482398	0.46751454	-0.05790746	-0.2349223	-0.16011412	-0.5181879	0.19833252	0.2688776	-0.05203862	-0.24628398	-0.29927456	0.36941862	0.8101357	-0.3985176	0.23131892	-1.1170899	0.11651893	-1.3827456	-0.6455477	0.04206855	0.24724	0.31205142	0.23807639	0.0
GSM3068467	-0.6592885	0.46197152	-0.5506395	-0.7058528	-0.47192088	0.034656093	0.5418062	0.28597704	0.81377566	-1.3116528	-0.4243686	0.0063280347	-0.55531704	-0.55707395	-0.16685419	-0.2923679	-0.65387243	-0.19565584	-0.106739804	-0.1830128	0.52575094	0.27660254	0.17835616	0.14760377	-0.7239323	0.38412553	-0.18662591	-0.05125469	-1.2765962	2.2971478	0.6676868	-0.081844926	-0.33092782	0.23194306	-0.013607566	-0.88859904	-0.29011026	-0.13971457	0.037933037	0.45071977	0.80102444	-0.72522163	-0.46977484	0.2921869	0.0751846	-0.3976748	-1.7509295	-0.5243094	0.16921677	-0.007865671	3.0290694	-0.058672093	-0.77070403	-0.025087573	-0.34808153	-0.11469392	1.0734249	0.8880959	1.1098399	-0.11732625	-0.43658176	-0.7395066	-1.0152502	0.30421355	0.65882164	-1.870705	0.9605701	-0.41461128	0.5778818	0.0057081184	0.57623255	-0.44730303	-0.05132772	0.1954065	-0.15475306	-0.028771523	-0.4251495	-0.01343885	0.6378257	1.4286218	-0.23882152	-0.093466125	0.15506269	0.11122733	0.75507814	0.124274276	0.6813598	0.5567148	0.33328074	0.33605993	0.20821907	0.2638772	-2.159738	0.766839	1.1864935	-0.53334814	0.73273075	0.29998496	0.966294	-0.80701923	0.037058577	-0.20876646	-0.07923487	0.19243535	-0.56938636	-0.019737067	-0.84419465	0.067218795	-0.11551844	0.114801	0.2033951	-0.47635674	-0.43460178	-0.13020352	-0.16922769	0.088409804	-0.050839055	1.0975996	0.50009257	-0.23939596	-0.78424984	-0.16243963	-1.734086	-0.83540875	0.23259228	0.42336553	-0.0833625	-0.048932314	0.0
GSM3068468	-0.16491172	-0.14710094	-1.0309701	-1.5119722	-0.2421365	0.061706327	0.5198142	0.16013978	0.5589028	-0.76774746	-0.27840167	-0.023060799	-1.1310354	-0.30562615	0.60272443	-0.05604167	0.25647426	0.48621207	0.21584964	-0.0056667714	0.1953415	0.38113576	-0.6982219	-0.04046304	-0.38246927	0.10209452	-0.041037343	-0.47034892	-1.2022661	2.2136874	0.58872974	-0.7452494	-0.18142131	0.13885793	-0.23390181	-0.73974246	-0.7006632	-0.7034284	-0.068711266	0.25738928	1.1399679	-0.37246424	-0.21597077	0.25562102	0.5257389	-0.5361282	-2.0221546	-0.47457367	-0.09371752	0.25407133	2.8457513	-0.14193732	-0.47886458	-0.40598798	-0.34984526	-0.3748749	1.4480789	1.2848006	0.8538746	-0.3881975	0.5137485	-0.52111983	-0.6722508	0.2333821	0.7713159	-2.0042255	1.1384966	-0.33199316	0.21647067	-0.2219156	0.4119374	-0.4856065	-0.03559526	0.30769736	0.3616461	-0.21146838	-1.8483603	0.74294895	0.47277942	1.2975497	0.32889363	-0.73442	0.058573026	0.051840294	0.8673417	0.11146861	0.36388272	0.29784074	0.082802095	0.12371384	0.18739586	0.10558246	-1.7094725	1.0198584	1.4498403	-0.554634	0.525154	-0.036202572	0.48158297	-0.68870175	0.38945708	-0.2518586	0.5766589	0.17562197	-0.34011427	0.1528493	0.3669322	0.34273535	-0.1138841	0.1288706	-0.40178618	0.11962032	-1.2531759	-1.1771995	0.65615004	0.4112066	-0.34544763	1.3447754	0.60488045	0.2283712	-0.9435639	-0.018388065	-1.5416379	-0.69496113	0.32557642	0.16760756	-0.029217746	0.15904474	0.0
GSM3068469	-0.4866336	0.44515383	0.19696984	0.28796417	-0.43237826	0.26729968	0.6073518	0.14329162	0.4791873	-0.7009583	-0.43286058	-0.042285122	-0.0019718106	-0.4869823	-0.11558586	0.037642326	-0.39127955	-0.14702515	-0.14840087	-0.4747445	0.19995609	-0.07741042	0.1667045	0.0657692	-0.77235425	0.22748575	0.122267194	0.0021044845	-1.1857877	2.3255548	0.18030353	0.05266027	0.16014811	-0.049856585	0.017011633	-0.87791824	0.49977672	-0.059654634	0.3210486	-0.04462256	1.2511158	-0.6552409	-0.34747735	0.38422093	0.12765597	-0.17549704	-1.5566531	-0.7735745	0.13971569	0.026525695	2.9754415	-0.04817443	-0.15524298	-0.33594018	-0.32650074	-0.14984031	0.9675674	1.0491196	0.18038413	-0.17060849	0.10495797	-0.15280706	-0.51241785	0.217969	0.81683624	-2.0376585	1.0940608	-0.52177054	0.3854265	0.2714685	0.5799321	-0.60610616	-0.22045465	0.04874311	-0.14461064	0.23779221	0.4306596	0.025699157	0.5715599	1.4270996	0.1195128	-0.30585617	-0.06525225	0.14330731	0.13215935	0.2926437	0.4488897	0.666996	0.39756653	0.007719465	0.27485153	0.23737393	-2.227334	0.7925707	0.9620812	-0.8893236	0.77008384	0.4546322	0.8230899	-0.92136854	0.03211858	-0.2125113	-0.37305456	-0.24835739	-0.4326252	-0.18851031	-0.3941124	-0.10496977	-0.24843861	0.08227591	0.4744523	-0.009215196	0.1855133	0.06066578	0.027789542	-0.06808003	0.4806155	1.1346048	0.19500138	-0.4331652	-0.9182204	0.2187119	-1.6322172	-0.67751586	-0.020347951	0.41483718	0.11161391	0.096393846	0.0
GSM3068470	-0.18579705	0.30506474	0.32160518	0.41815758	-0.36597085	0.19185801	0.6308847	0.3754251	0.40660566	-0.600272	-0.46489725	-0.075625494	0.2828702	-0.34607786	-0.30842552	0.31927422	-0.31012464	-0.39304888	-0.20439821	0.03251745	-0.0040105386	-0.06213142	0.4300626	0.05009448	-0.82861686	0.35097253	-0.31186563	0.31269377	-0.988188	2.2889261	-0.039087936	0.36594924	-0.08212338	0.022108326	-0.10487727	-0.9032004	-0.24675383	0.28226897	0.2745248	0.16385038	1.1201216	-0.33180952	-0.40710348	0.37302643	-0.33798945	0.021890614	-1.4845783	-0.5792539	-0.039430577	-0.0154532185	2.9867837	0.046704642	-0.3295327	0.07393102	-0.34306136	-0.1038883	0.9362557	1.1838487	0.029267082	0.3577188	-0.7361908	0.13161609	-0.49000272	0.16674282	0.6701603	-1.9858811	1.1127537	-0.36260098	0.21496044	0.2902629	0.60153437	-0.63122606	-0.061516907	0.16868557	-0.20161562	-0.14360674	0.971522	-0.51222175	0.52620965	1.2892609	-0.43676	0.34769177	-0.16867225	0.032251794	0.044587098	0.020923832	0.6195383	0.63408756	0.36423275	0.37221298	0.27743483	0.35599828	-1.6390287	1.0331447	1.0515486	-0.662773	0.8731446	0.23793079	0.84688073	-0.88557506	-0.32159075	-0.11624129	-0.17087363	0.16299142	-0.6589746	0.069522575	-0.70509017	-0.39395818	0.018498316	0.11817127	0.17399515	-0.5466355	0.1501401	0.7729882	-0.2776655	-0.1317086	0.14573084	1.0042796	-0.069641635	-0.044671588	-0.7421543	-0.0041322084	-1.6451644	-0.7151772	0.19127914	0.29435363	-0.03027359	0.17040426	0.0
GSM3068471	-0.3950156	0.045506142	-0.83218855	-0.75691956	-0.38296598	0.30049047	0.87679785	0.38766804	0.9352262	-0.98482025	-0.3161734	0.23570266	-0.13593124	-0.031103687	-0.26014966	-0.30052012	0.07403653	-0.055987433	-0.19250494	0.31666285	0.18890966	-0.113826916	-0.23241705	0.09854304	-0.7888185	0.20663053	-0.04094146	-0.05386344	-0.9798938	2.4959822	0.6617686	-0.3076362	-0.25662473	0.33333784	-0.20724054	-1.0106436	-0.53206575	-0.43656945	0.26784196	0.5539655	1.2057734	-0.75853014	-0.29175976	0.36058575	-0.039533444	-0.16940123	-1.6448456	-0.5015638	-0.19899184	-0.053579077	2.954336	0.1253524	-0.11766072	0.1599192	-0.3630749	-0.30187905	0.73685545	0.99462247	0.40170664	0.07284658	0.02793567	-0.3316313	-0.7606944	0.5099764	0.5528711	-1.9065015	1.0287243	-0.20887586	0.6624689	-0.55739856	0.5950987	-0.7033491	-0.2218192	0.25698796	0.3475474	0.280182	-0.72744364	0.36604545	0.6742214	1.2968279	0.29572156	-0.6194501	-0.041821938	0.14815933	0.30975002	-0.33654246	0.6742742	0.65013224	0.49399722	0.3974583	0.24444048	0.4534029	-1.6381109	0.86551464	1.0566201	-0.6083764	0.80551976	0.20416054	1.0524251	-0.91760886	0.10163292	0.11233866	0.26644522	0.100473784	-0.5538714	0.07077427	-0.054179072	0.21483523	0.09270589	-0.03501238	-0.3826951	-0.021705844	-0.36818004	-0.48437244	0.0399177	-0.111760795	0.20648307	1.0900028	0.17220883	-0.39534712	-0.9506198	-0.19725673	-1.5523186	-0.6448815	0.14645235	0.41688564	0.2586124	0.19365327	0.0
GSM3068472	0.56077087	0.23155579	0.46753776	0.8331344	-0.35115734	0.07804541	0.31482098	0.16068436	0.26144198	-0.37047657	-0.5594272	-0.19920665	0.30075485	0.6595539	0.4389016	-0.4366343	0.34086114	0.74171346	0.25346842	-0.38990924	-0.013281469	0.44959304	-0.37465075	0.28176647	-0.9323792	0.21509837	0.31108528	0.16411225	-1.410458	1.9416767	0.03409311	-0.24801405	0.36076465	-0.06766559	0.089247346	-0.94092333	0.71925837	0.31743032	-0.8305715	-0.52927774	1.1390378	-0.70383537	-0.2485056	0.38352573	0.28254464	0.78238904	-1.8921514	-0.68591535	-0.22268537	0.22594614	2.6629002	0.12631615	0.8424843	0.2693561	-0.26968604	-0.2781169	1.2037078	1.1055025	-0.9019222	-0.34953603	0.48246628	-0.26036632	-0.43067393	-0.11574581	0.71350515	-1.827635	1.2640386	-0.41953745	0.11223509	0.21266487	0.64478076	-0.38756195	-0.04259007	0.00086801604	-0.2871515	0.56522506	-0.17511715	0.38630068	0.5084627	1.3885758	1.002023	0.09019837	0.043596163	-0.4839421	-0.29509002	-0.66358936	0.2283916	0.6414164	0.29399133	0.3069779	0.19617562	0.13691172	-1.9522859	1.0804443	1.2053812	-1.053145	0.71417475	0.12225364	0.8190605	-0.8200998	-0.19115509	0.3731603	-0.0049930546	-0.09885662	-0.64576215	-0.12105797	0.36207053	0.15403439	-0.2675145	0.32071707	-0.2724652	0.39063162	0.76473963	-0.112407565	0.5007526	0.057867225	0.4089488	0.90572613	-0.32319722	-0.019094642	-1.0728501	0.119598806	-1.7453957	-0.8100702	0.1639035	0.35233197	0.03296566	0.14789373	0.0
GSM3068473	-0.19009335	0.1617282	-0.46743843	-0.49555197	-0.6217492	0.35922736	0.6388351	0.56087625	0.52219194	-0.9395169	-0.24425569	-0.014910201	-0.20181365	-0.2363285	-0.24174874	-0.16799696	-0.36374885	-0.012824377	-0.16189186	-0.07098742	0.36000094	-0.010669904	-0.05952427	-0.13714965	-0.92686224	0.18439873	-0.13911545	0.21226153	-1.1623688	2.09186	0.50153	-0.22266401	-0.36252275	0.2024714	0.1363197	-1.117414	-0.52899724	-0.4044333	0.14555709	0.2535856	1.1511297	-0.49263448	-0.56145734	0.63757455	-0.3323938	-0.4458724	-1.7134012	-0.72355056	-0.20398648	-0.1226583	2.9348655	0.012639311	-0.22769111	0.3758748	-0.36974776	-0.26237988	0.97939587	0.9345429	0.5910164	0.17863157	-0.01477855	-0.73140585	-0.5935405	0.39444208	0.6048025	-1.8605722	1.051088	-0.21693408	0.6442018	-0.16230793	0.6805111	-0.53635734	-0.17810902	0.5354012	0.15771356	0.26779512	-0.20167673	0.5446949	0.26369396	0.98635536	0.060515124	-0.13197297	0.31897253	0.40877137	0.531865	-0.10226777	0.8348255	0.7164584	0.3878283	0.34925357	0.17372833	0.40833586	-1.6196325	0.6061386	1.2204891	-0.53596556	1.0146469	0.28961918	1.1198632	-1.0966513	0.18829064	-0.14882739	-0.17796361	-0.16068873	-0.9056077	-0.0036547475	-0.36452326	-0.0062575215	0.012102674	-0.49918777	-0.008775546	-0.11075424	-0.13557465	-0.35625547	-0.23220687	-0.08942783	0.020609898	1.1437005	0.58825463	-0.41764992	-0.700704	-0.20309238	-1.4992821	-0.5634791	0.4230282	0.43636394	0.15977606	0.14080155	0.0
GSM3068474	-0.7898955	1.0273435	-0.19103326	0.17525107	-0.3289847	0.15501411	0.5956825	0.17635566	0.4215483	-0.5787221	-0.42654052	-0.05645402	0.018522076	-0.37346756	-0.11993455	0.24629156	-0.343734	-0.66156787	-0.61621207	-0.16002552	-0.052080113	0.26811448	0.3715269	-0.5252987	-0.69658	0.14459093	-0.29199174	0.59098846	-1.2643824	2.065157	1.0846854	-0.59452695	-0.25758472	0.029067658	0.14367172	-0.8488929	-0.23978828	-0.20095074	0.8418821	0.5474619	1.3792889	-0.70915	-0.23948266	0.43902892	-0.5984112	-0.4408738	-1.9185109	-0.5450342	-0.13842157	-0.0166702	2.8731918	-0.064645134	-0.48105597	-0.0334638	-0.41261202	-0.12547693	1.1062819	1.1641839	0.52143896	0.29226398	-0.07800878	-1.0760655	-0.34908268	0.26458904	0.80691093	-2.1267018	1.2515919	-0.40915054	1.0824808	0.347611	0.5073858	-0.47089714	-0.19013974	0.22069895	0.44842348	0.33907312	0.42673188	0.52152365	0.47816798	1.5489509	-0.020835476	-0.6778126	0.35388756	-0.002768211	0.6988321	-0.2171949	0.30068612	0.53508407	0.18225461	0.2501296	-0.022136651	0.17986168	-2.050493	0.68240637	1.0682471	-1.08073	0.6785218	0.1470918	0.796284	-0.8128021	0.20403273	-0.14503446	-0.111058846	-0.3926681	-0.47173738	-0.004941341	-1.184466	-0.35505688	0.17473245	-0.18367343	0.25578502	-0.49111527	-0.018268252	-0.12775478	-0.41547135	-0.16499113	0.12574255	1.0331259	0.56244373	-1.1779752	-1.0412724	0.18045032	-1.4139608	-0.594894	0.13698998	0.3230319	0.10360235	-0.007751833	0.0
GSM3068475	0.24985136	-0.66495377	0.35474676	0.020916238	-0.28438076	0.3979293	0.5034862	0.14358196	0.4440098	-0.50253963	-0.41474366	-0.03726285	0.27185002	0.4655525	-0.041221105	0.015037321	0.253961	-0.0391698	-0.0118006775	0.7051187	0.27377453	0.16513099	-0.15943268	-0.0149689885	-0.99382234	0.038954344	0.20192984	-0.08511225	-1.1935152	2.1234238	-0.47026837	0.50757426	-0.089218706	-0.04991536	-0.13214134	-0.94956315	0.22327031	0.11917901	-0.2169773	0.286526	1.3286006	-0.88946664	-0.25630888	0.41626343	-0.27357042	0.08956548	-1.756	-0.5709572	0.13412875	0.034744512	2.6999695	0.2266533	0.66072863	0.37341332	-0.30090854	-0.23807733	1.0333549	0.9453933	-0.38356918	0.23473918	-0.18541722	0.8108609	-0.38747087	0.29394373	0.63057816	-2.0078132	1.2744799	-0.23090042	-0.28387007	-0.6172105	0.55204564	-0.75809693	-0.1303564	-0.077903785	0.2555772	-0.20190303	0.2693514	-0.671284	0.60605824	1.2466042	-0.20590599	6.4594184e-05	-0.28868335	0.014640497	-0.49440885	0.1694983	0.2669738	0.5305463	0.26809853	0.19380987	0.306132	0.06348741	-1.88579	1.019838	1.0690627	-0.93832815	0.6531836	0.3649515	0.86366856	-0.8474026	-0.17477041	0.12241558	-0.06964838	0.33795136	-0.6330558	-0.008713688	0.03081199	-0.25293776	-0.32509115	0.00610741	-0.4054307	0.42102745	0.10445994	0.39069176	-0.30178526	-0.17508416	0.081254154	1.015286	-0.51654994	0.14424615	-0.8345751	0.38966867	-1.4151255	-0.8121348	0.09052834	0.24408971	-0.140749	0.29777128	0.0
GSM3068476	0.40450436	-0.30533665	0.2554008	-0.008836891	-0.29490402	0.3305243	0.5464592	0.16299154	0.22409089	-0.3999646	-0.47269258	-0.004251538	-0.07284337	0.3736216	-0.29568163	-0.08484855	-0.30761117	0.51088655	-0.23478736	0.67090815	0.09918032	0.10413378	-0.18794394	0.551644	-0.8574499	0.11331999	0.16048416	0.23391473	-1.0518209	2.3009648	0.12947717	0.71912557	0.22115667	0.09611848	-0.034266002	-0.786863	-0.22684279	-0.21187235	-0.41635653	-0.13897882	1.5523423	-0.7946692	-0.12206171	0.486121	0.0068844464	0.42858955	-1.5943946	-0.8354036	0.4119235	-0.14156324	2.7221384	0.3148117	0.5319867	-0.019256452	-0.42642888	-0.004705116	1.0051327	0.96907586	-0.7423728	-0.35999367	-0.4616376	0.6448998	-0.46819866	0.52526045	0.9007493	-2.1722262	0.85796493	-0.1878336	-0.29477274	-0.3137974	0.77597874	-0.69594884	-0.17252858	0.2576067	0.11809204	-0.11511225	-0.07444474	-0.2003058	0.50603145	1.5019219	0.30188248	0.3218609	-0.29313198	0.020385945	-0.10600888	-0.13513799	0.5267393	0.5607491	0.3202368	0.21786006	0.14268564	0.116925634	-1.6964679	0.95305544	1.0236162	-0.9821204	0.7240921	0.582219	0.8133157	-0.7222543	-0.18918383	0.23515907	0.07498549	-0.39280257	-0.43085742	-0.008840693	0.04631206	-0.25564492	-0.15673278	-0.09271381	-0.12534876	-0.12904562	-0.01720477	0.4158274	0.08925906	-0.008576486	0.45547104	0.9616096	-0.36722106	-0.21497831	-0.9826182	0.1299464	-1.8042852	-0.37614226	0.34766144	0.33836448	-0.0056361803	0.09102587	0.0
GSM3068477	0.08839872	0.0099074	0.091269344	-0.5912312	-0.7602045	0.22995912	0.6811869	0.18326536	0.7861741	-1.1206297	-0.2867203	-0.037519366	-0.06345976	-0.0019211692	-0.043224327	-0.17843997	0.047634073	0.27991927	0.10880124	-0.2801006	0.22554834	-0.051616006	0.29337204	-0.19007458	-0.9484189	0.37980083	0.28499848	-0.28841123	-1.2660384	2.6046457	0.14592457	0.2685901	-0.013572506	0.49731848	0.17562804	-1.1058431	0.26155344	-0.10134894	0.0492757	-0.11530263	1.3172486	-0.7156953	-0.27434418	0.41421095	0.17979847	0.005259786	-1.4566561	-1.1681582	0.11718301	0.10063501	3.2643402	-0.08292784	-0.046964772	0.11400051	-0.26703763	-0.1331249	0.77462834	1.1593227	-0.08852783	0.062439132	0.19289649	0.03577082	-0.73394823	0.34228867	0.86205816	-1.6878345	0.985972	-0.42519915	0.16020189	-0.33683085	0.6121031	-0.48398852	-0.33806863	0.20222467	-0.10854232	0.047959004	-0.27501234	0.21794178	0.72670984	1.5756091	0.30367866	0.14516716	-0.26936704	0.158882	0.21877927	0.07823326	0.76793456	0.7141756	0.38525727	0.55709714	0.10087605	0.4349769	-2.026115	0.8491744	1.0240496	-0.7187875	0.8713972	0.28044766	0.8299321	-0.91328055	0.21836378	-0.020665564	0.08761467	0.29791296	-0.8248465	-0.09544137	0.48014426	0.3483416	0.03756276	-0.5516009	-0.04016483	0.29236302	0.054954287	-0.02455375	-0.25531006	-0.06901706	0.6487316	0.6743647	-0.06355482	0.098734796	-0.7712444	0.041946564	-1.7316912	-0.76080114	0.15016921	0.216693	0.43660372	0.15400499	0.0
GSM3068478	-0.39537388	0.3771352	-0.047365516	-0.16981861	-0.65778846	0.16777349	0.611488	0.20147121	0.13397963	-0.7246682	-0.096692726	-0.12239962	-0.24925551	0.07206063	-0.054399952	-0.10590891	0.14607748	-0.5048235	0.5864731	-0.50709015	0.26974857	0.17383346	-0.093520105	-0.16245255	-0.801216	0.3050163	0.07804116	-0.30362085	-1.3732622	2.3373196	0.621799	-0.35223302	0.20776992	-0.045080267	0.10596984	-0.953783	0.58578795	-0.47538397	0.39017677	0.39836383	1.3723397	-0.31160253	-0.25752935	0.5626311	-0.16781247	-0.46343628	-2.092036	-0.596637	-0.3679354	0.12209592	2.8795073	0.2856641	-0.11263179	0.17729433	-0.219275	0.09381538	1.2276278	1.2655176	0.39488506	0.063897796	0.4898846	-0.87792283	-0.40292943	0.5364807	0.71596843	-2.2066689	1.1618364	-0.08160639	0.7381352	-0.10550379	0.39436224	-0.5295265	-0.18534987	0.3321402	0.46424037	0.32820112	-0.19171317	0.49327677	0.6931967	1.0105444	0.7027045	-0.34371093	0.465303	-0.048054803	0.48951408	-0.109360434	0.48138362	0.7641674	-0.010002412	-0.114506	0.42052004	0.1652917	-1.9191964	0.79364294	1.2236928	-1.0123223	0.5784154	0.13023125	0.65325373	-0.88411707	0.47924584	0.041271046	0.12584081	0.20411058	-0.364511	-0.18234667	-0.19212404	0.614804	0.36495584	0.2547558	0.16122209	0.44378102	0.11900828	-0.8675283	-0.38655055	-0.079366975	0.27438113	1.0206501	0.08563277	-0.5201615	-0.94779915	0.23011078	-1.8289138	-0.77692807	0.43215343	0.11476853	0.039823372	0.24777508	0.0
GSM3068479	-0.38540938	0.13003662	-0.29799175	-0.07459609	-0.3897489	0.39063692	0.6299899	0.45531562	0.28240046	-0.61239475	-0.4950393	-0.06091353	-0.0062081856	0.5937229	0.0010534097	-0.2193923	-0.04028008	-0.025123645	0.38494083	0.08551059	0.19084938	0.05126343	-0.21695144	0.08151341	-0.9506424	0.363701	-0.35137898	0.2051309	-1.121416	2.696926	0.6700602	0.22353286	-0.20148037	0.38991004	0.11512922	-0.98825306	-0.036487956	-0.33061934	0.26842934	0.22604963	1.3539484	-0.73528385	0.095139146	0.123039685	-0.1816104	0.31321228	-1.9885328	-0.8355247	-0.17892796	0.16009311	2.8150203	-0.06709901	0.075154305	0.7395382	-0.13014995	-0.35229754	1.0185903	1.2304763	-0.035889726	0.17680423	0.013857603	-0.76259476	-0.8246238	0.28716052	0.4599614	-2.109741	0.7375015	-0.2882688	0.9330504	-0.5563353	0.48726147	-0.5262402	-0.14040376	0.1127986	0.5689913	0.6323745	-0.49809435	0.15114145	0.7579295	1.3465621	0.89788264	-0.59784526	-0.035853013	-0.20095706	0.2737329	-0.5269107	0.6022564	0.5919425	0.10503091	0.22880654	0.25662798	0.15955989	-2.102341	0.9123119	1.3229848	-0.702626	0.8711134	0.06485471	0.92725664	-0.933074	0.3784319	-0.15287782	0.24483751	-0.011895617	-0.64272237	0.20491864	0.1206521	0.3222599	0.06462964	0.32771242	-0.41731113	0.18415733	0.18531257	-0.41084108	-0.4463936	0.08322098	0.050292287	0.9227706	-0.2089861	-0.8036774	-0.91388977	-0.033353604	-1.6249554	-0.68498516	0.1980516	0.2940291	-0.15823932	0.23769632	0.0
GSM3068480	0.055807415	0.20869093	-0.23147923	-0.4935295	-0.35556793	0.030953588	0.39258248	-0.0035163483	0.5608196	-0.7621466	-0.5492085	-0.04841715	-0.5177705	-0.5147091	0.077388056	0.151748	-0.27601507	0.07150731	0.20191379	-0.115492165	0.14827648	0.24295011	0.09096597	-0.044877347	-0.6874699	0.42096096	0.049846668	-0.3114244	-1.2224818	2.2227561	-0.29434407	0.18858813	0.4013845	0.13313997	-0.055173423	-0.74722934	-0.0010264511	0.011893076	-0.06343013	0.02076937	1.3105382	-0.83706486	-0.40558958	0.5309595	0.49799022	-0.41590577	-1.8226448	-0.57098424	0.036960933	-0.19260892	2.609416	0.042137492	0.044627603	-0.5678668	-0.4076869	-0.13841484	1.183543	1.2442716	0.50820214	-0.42553717	-0.103300974	0.47043163	-0.7256842	0.23759474	0.5463593	-1.724009	1.2527602	-0.35395712	-0.387499	0.40793943	0.61014384	-0.566613	-0.022208296	-0.023777338	-0.49457482	-0.4350792	-0.17529881	-0.2730484	0.6241062	1.421958	-0.57858574	0.32105306	-0.038023707	-0.021996602	0.054239742	0.23903883	0.53516954	0.4431762	0.60014886	0.37279534	0.27164146	0.30701074	-1.9922699	0.81468546	1.3153505	-1.1636935	0.7428586	0.42448962	0.652519	-0.75273985	-0.2932788	-0.13256638	-0.029155988	0.1856596	-0.70887876	-0.14684498	0.1393881	0.12789378	0.068078764	0.20146929	0.31015772	-0.10690895	-0.3334269	-0.15629695	0.25327477	0.13481633	0.28843278	0.9577713	0.37622854	0.6979866	-0.8912794	0.12096051	-1.4516234	-0.7734112	0.0702208	0.32221347	-0.032683868	0.083373	0.0
GSM3068481	0.018714905	-0.267336	0.25373855	0.28845802	-0.4417148	0.16767335	0.6897562	0.45560324	0.5997715	-0.9906927	-0.4567859	0.06442444	0.7410024	0.14197111	-0.13781823	-0.06676023	0.02436728	-0.3504593	-0.54280597	0.2975886	0.33831328	0.19119813	0.38147417	0.1914281	-0.7219187	0.25450408	0.030400664	0.6592324	-0.9749349	2.7060719	-0.35838097	0.55256367	-0.26392978	0.18812473	-0.021012528	-0.8074308	-0.14185241	-0.0026577977	0.2782487	0.0071189213	0.9906288	-0.59168345	-0.23587857	0.36816427	-0.5646185	0.2594947	-1.8277252	-0.73371875	-0.19252966	-0.019099178	2.8361084	0.06782388	0.2395554	0.401889	-0.16248754	-0.19888479	0.9627219	1.044387	-0.53596914	0.5549871	-0.53226733	0.48075914	-0.8429826	0.3047913	0.8852829	-1.9004718	1.0611334	-0.259621	-0.14948456	-0.31863418	0.4986208	-0.45927715	-0.15384568	0.34012926	0.3374895	0.2007886	0.8066639	-0.4626481	0.6275257	1.431228	-0.4651062	0.2386142	0.09567881	0.19910753	-0.5457332	0.026755923	0.5953204	0.6252868	0.4039963	0.34538203	0.010568273	0.3193529	-1.6935061	1.3002809	1.3194423	-0.50065285	0.6121238	0.18851477	0.771122	-0.89550877	-0.13692145	0.24217953	-0.026367009	-0.17897908	-0.6662449	0.084798485	-0.17572848	-0.7443588	0.20690706	0.09697342	-0.0860675	-0.052389387	0.66791767	0.8407832	-0.49830386	-0.605215	-0.047412872	1.0900723	-0.29167005	-0.33314565	-0.82588637	-0.081412	-1.8686659	-0.61955786	0.24514677	0.2868585	0.09890432	0.010706697	0.0
GSM3068482	-0.20070092	0.5514174	0.5801294	1.1282378	-0.3133914	0.12758698	0.53667015	0.2759151	0.8717601	-0.72703284	-0.41723186	0.14858007	0.5236292	0.4773843	0.0694432	-0.4128636	-0.15852547	-0.047015805	0.31674683	-0.4508963	0.18547027	0.35545033	0.16670889	0.09458434	-0.8079208	0.4477163	-0.16954808	0.11234496	-1.0493194	2.1153507	-0.2987454	0.042192664	0.53650194	-0.1611937	0.107674524	-0.95447993	0.68716633	0.0891805	-0.3312899	-0.013879976	1.4310378	-0.6823197	-0.07940872	0.38531825	0.004743877	0.63191	-1.9297634	-0.5077031	-0.18297473	-0.028416028	2.764584	0.31454325	0.37296247	0.42245075	-0.29630023	-0.0062779114	1.358417	1.2789482	-0.4746256	0.11268551	-0.06350316	-0.5442089	-1.0517199	0.13260807	0.7018575	-2.0234482	1.1926932	-0.296	0.33161786	0.81577593	0.22997753	-0.3855566	-0.053625554	0.12889317	-0.5262022	0.73356014	1.2015214	-0.069654554	0.5253403	1.3732548	0.52189434	0.5266918	0.15157776	-0.3510594	0.13812791	-0.6110566	0.6330318	0.5223226	0.33933792	0.45449543	0.11654843	0.04001522	-1.9383332	0.847088	1.3653835	-1.2937238	0.4455548	0.0014147465	0.7677142	-0.4940851	-0.51530886	0.19232967	0.01413249	0.26330298	-0.7670516	0.08201382	-0.13479598	0.4258268	-0.28049266	0.48770446	0.41636267	0.15484461	1.1750618	0.061395507	-0.22986239	-0.22076197	0.062037367	1.1231593	-0.22757149	-0.19103523	-0.94368905	-0.065176435	-1.597889	-0.94509006	-0.020465594	0.3439159	-0.04337394	0.28784454	0.0
GSM3068483	-0.06832148	-0.012743855	-0.28318983	-0.45438743	-0.6431388	0.5181919	0.50047135	0.2648979	0.6557935	-0.92382324	-0.14640342	0.12633497	-0.22845699	-0.2891998	-0.02482339	-0.5114735	0.20642334	0.022615658	-0.11855134	-0.043471806	0.48701096	-0.18368083	0.16238151	0.16524594	-1.2371927	0.19997607	0.11777548	-0.32569054	-1.187561	2.2388902	-0.20051356	-0.47666693	0.12554462	0.6186125	0.10778599	-1.0899336	-0.22426224	-0.30764946	0.457493	-0.06996375	1.0359533	-0.43541142	-0.511132	0.6485146	-0.028948423	-0.5189492	-1.4241569	-1.1208802	-0.049004745	-0.030327013	3.1228077	0.0032619846	0.23392302	-0.07672459	-0.31477773	0.07448761	0.7010635	0.980992	0.119855426	-0.090052046	0.4701612	0.31162524	-0.61674213	0.3209942	0.89061254	-2.291604	0.98531646	-0.191559	-0.024437882	-0.44784442	0.6541619	-0.61121666	-0.17173487	0.07329001	0.30618712	0.17798622	-0.37797165	0.24460426	0.6125286	1.0134331	0.2701722	-0.68141747	-0.25289932	0.4482437	-0.11693214	0.06947055	0.4590776	0.64398324	0.26321808	0.10196045	0.06435106	0.49039108	-1.8267968	0.8868444	0.9309669	-0.68467116	0.77316546	0.33354914	0.90539825	-0.8898593	0.19621648	-0.40211424	0.14982595	-0.051570814	-0.6427984	-0.1824452	-0.1293359	0.06212952	-0.17179707	-0.15936425	-0.39288586	0.34735137	-0.25440842	-0.40813553	-0.2799474	0.22428213	0.42201266	0.7465723	-0.07456373	-0.43826663	-0.4848282	0.11881124	-1.8788557	-0.90220624	0.05996782	0.5119655	0.14846194	0.018888332	0.0
GSM3068484	-0.027926007	0.13610736	-0.30645424	0.0055123926	-0.4236045	0.2555524	0.36387998	0.34880105	0.57049054	-0.85281104	-0.31739482	0.32814118	0.39986944	0.50884116	0.42607805	-0.4254364	0.35631454	-0.069447584	0.13412611	0.051114727	0.19793622	0.24703373	-0.117989585	0.025779966	-0.9489824	0.22412515	-0.019069878	0.55805314	-0.65627325	2.1475189	-0.053383484	-0.12798826	-0.3102192	0.18969336	0.18478015	-0.88898146	0.06309564	-0.22145605	0.28260353	0.3450581	1.2454829	-1.0470706	-0.121622294	0.35006526	-0.85359186	0.43140894	-1.9394503	-0.64647347	0.2317739	-0.038144704	2.8961515	-0.3043538	-0.19098195	0.5149347	-0.29892853	-0.44563115	0.8704446	0.8502268	-0.29890668	0.5735843	0.50136894	-0.20294438	-0.747912	0.3971543	0.62332153	-2.1962125	1.0101203	-0.2663925	-0.13911276	-0.61104655	0.7905387	-0.47526243	-0.1669007	0.26119274	0.5623572	0.0938097	0.021718407	0.4311546	0.9275195	1.6384991	0.23595119	-0.44975308	0.3765309	0.5518391	-0.28822333	-0.5371521	0.41665995	0.64588046	0.097262606	0.1290301	0.22792812	0.28197962	-1.8756354	1.1126908	0.8585766	-0.8197644	0.7474447	0.105722286	1.0194067	-0.8723976	0.5053867	0.023036888	0.3365347	-0.047947533	-0.732215	0.016258221	0.2755736	0.04338081	0.108699515	-0.15948771	-0.60384405	0.264806	0.43786842	-0.6260714	-0.30921304	-0.5186361	-0.13915811	0.7239519	-0.0711908	-0.44967145	-0.7328607	-0.0060474393	-1.5100371	-0.81742543	0.17777304	0.24545571	-0.022422291	0.06414685	0.0
GSM3068485	-0.057096984	-0.44284695	0.34479445	0.17206734	-0.5215888	0.0014526751	0.5841748	0.3483558	0.114740625	-0.58148676	-0.41236854	0.053319894	0.004312776	-0.22010179	-0.30523047	-0.29713684	-0.005848558	-0.17624617	0.057594102	-0.28554076	-0.28288025	0.02170607	0.3239964	-0.044609427	-0.8023706	0.23814237	0.04204878	-0.046876203	-1.0567867	2.194536	-0.17739435	-0.09960928	0.06388013	0.045629125	0.005509093	-1.0607638	0.28339526	0.39392188	-0.34433615	-0.14023189	1.3939143	-0.8623867	-0.3086843	0.092649765	0.159053	-0.22670935	-1.765731	-1.1257426	0.34421274	0.050399262	2.9802775	-0.23611222	0.0025751765	-0.13715935	-0.4466328	-0.2495704	0.95456874	1.2526723	-0.0025282563	-0.025998434	-0.10503357	0.40801147	-0.52771425	0.3318376	0.58815914	-2.22087	1.05296	0.33169693	-0.2108847	0.012051797	0.5257336	-0.35549557	-0.14068662	0.03162723	-0.11421716	-0.305888	0.39114338	-0.08168347	0.5626313	1.1671419	-0.1635768	0.36090258	-0.24704474	0.044146523	-0.34507927	0.28610003	0.6016611	0.4888856	0.46409005	0.33564502	0.06568172	0.16874188	-2.037876	1.2486535	1.1027162	-0.5525518	0.6929954	0.1874721	0.8754793	-0.8743718	-0.08201104	0.30708706	0.2624387	0.20275472	-0.61052597	0.22160912	-0.08686612	-0.19258484	-0.072635286	-0.25577945	0.49376756	-0.0065888427	-0.024792705	0.4077841	0.19135158	0.2861818	0.5885729	0.82225716	0.019795325	-0.015485553	-1.1806383	0.08001516	-1.7058663	-0.4651191	0.051720403	0.5075033	0.032487433	0.081063524	0.0
GSM3068486	0.20213652	-0.35790232	0.3475099	0.41968963	-0.08688845	0.14321634	0.59033036	0.18278857	0.32649478	-0.6261182	-0.73746926	-0.13821618	0.43828914	0.8439027	0.37404674	-0.57752216	0.8523815	0.1647857	0.43661788	-0.35869548	0.40692842	0.35157067	-0.4250421	-0.08341991	-0.5992768	0.20764361	0.3377129	0.0037961223	-1.3023441	2.3326836	-0.62623066	-0.015965823	0.15440966	0.19085114	-0.0633954	-0.7430322	0.5538074	0.03976952	-0.32206902	-0.32167128	0.9805153	-0.7177791	-0.35075647	0.43349168	-0.20971489	0.39401713	-1.8534726	-0.650295	-0.10096382	-0.07854151	2.7062354	0.18792774	0.6555671	0.7869562	-0.2758021	-0.3088693	1.1848012	1.228554	-1.0082927	0.06464017	1.0854112	0.073282726	-0.67001987	0.43944234	0.94303674	-1.7939667	1.3297195	-0.46193758	-0.29399025	-0.02065341	0.5963968	-0.5331438	-0.06734014	0.042341728	-0.123705395	0.44660476	-0.11686565	0.55605716	0.4547755	1.646281	0.8575841	-0.2865671	-0.041028436	-0.14181677	-0.7280282	-0.46443984	0.32106236	0.59851724	0.31900594	0.18535423	0.24617383	0.27490836	-2.0167334	0.93052256	1.421111	-1.1231891	0.84075814	0.08965282	0.57179445	-0.7533901	0.20922233	0.35887328	0.36068252	0.13440803	-0.69565284	-0.020008069	1.1505924	0.4152939	-0.55165124	0.5506334	-0.9690386	1.2986163	0.8855885	-0.44028163	-0.08924076	-0.46657342	0.24370885	0.6364232	-0.5867056	0.08592236	-0.8111716	-0.18122712	-1.7931598	-0.8328581	0.12890527	0.30039242	-0.19719036	0.17658472	0.0
GSM3068487	-0.50873303	0.31068242	0.07438913	0.046619173	-0.28881207	0.3580357	0.6044039	0.46965435	0.43682063	-0.77358323	-0.38518026	0.15318741	0.088596985	-0.090703286	-0.4127001	0.090700984	-0.1692932	-0.21852578	-0.20847502	-0.15842928	0.13140053	0.45886675	0.13276498	-0.19735412	-0.62399834	0.30613372	0.0026841448	0.5825161	-0.8443377	2.2011192	0.7141207	-0.15187801	-0.36318332	-0.18711075	0.106398635	-0.86763924	-0.28516328	0.03496322	0.4655966	0.29642364	1.0424105	-0.55316514	-0.2260496	0.1589698	-0.47672343	0.18558843	-1.7878348	-0.5454268	-0.1657488	-0.016663965	2.7652352	0.109636925	-0.55265576	0.25768134	-0.32251182	-0.18275696	0.9883585	0.8923331	0.21023996	0.5962731	-0.04018237	-0.7242706	-0.6486451	0.4572053	0.8169314	-2.1505046	1.1217974	-0.47971815	0.64804983	0.06575213	0.49602944	-0.44225824	0.23017709	-0.057706397	0.2667866	0.4442809	0.19274412	0.21603605	0.61116046	1.2660899	0.12440262	-0.3127651	0.10661603	0.39752775	0.28814813	-0.18749711	0.62869537	0.44937375	0.16063613	0.24867599	0.004470242	0.22324546	-2.196696	0.9891533	1.0743828	-0.9530318	0.67612195	0.10094488	0.87790453	-0.78626287	0.16698258	-0.0208732	-0.05975941	-0.075844385	-0.58933204	0.07165025	-0.4959459	-0.3682507	0.15054779	-0.22422569	-0.08650188	-0.46423382	0.3270472	0.22550836	-0.43611157	-0.35553056	0.051284615	1.1219476	0.15651055	-0.76789534	-0.8839253	-0.0531678	-1.6018163	-0.64945674	0.16921313	0.3635431	0.06672468	-0.13583703	0.0
GSM3068488	-0.23330417	0.3432779	0.04490426	-0.14920527	-0.48232588	0.54918057	0.6852475	0.41912672	0.4208542	-0.54217046	-0.5893454	-0.18232112	-0.24488929	0.00062300044	-0.24938597	-0.20205332	-0.108760566	-0.1616661	0.061277457	-0.308378	0.32163364	-0.010707124	0.24522588	-0.051911514	-1.0404829	0.107352085	-0.1882744	0.13382217	-1.0977916	2.073675	0.52107036	0.06410286	-0.15845446	0.12894157	-0.1265733	-0.94518596	0.16731666	-0.20193964	0.25970152	0.19845808	1.2557828	-0.70360154	-0.30002826	0.56119174	0.0063640573	-0.21767266	-1.5494407	-1.0032641	-0.010795073	-0.2280187	2.9561145	0.35610256	-0.2767859	0.27077818	-0.28304565	0.081083	0.7690795	0.9906963	0.27508178	0.2779323	-0.071508385	-0.64527833	-0.6446609	0.59690183	0.73061395	-1.9595311	1.0135728	-0.36015412	0.8739972	0.17674695	0.53743905	-0.8299648	-0.2060089	0.14540099	-0.0076260483	0.12615056	0.15162182	0.36070243	0.367625	1.4229242	0.597517	-0.1287602	-0.04644009	0.0032504008	0.4174787	-0.21258111	0.66472405	0.88330597	0.4259659	0.38562667	0.28986302	0.45647743	-1.5325536	0.94740933	0.9359197	-0.77805215	1.0127912	0.2654167	1.0964881	-1.0906659	0.041674774	-0.10846368	-0.18853459	0.07861221	-0.7667401	0.06611887	-0.26354107	0.26148543	-0.018070765	-0.16517921	-0.013575002	0.07571177	0.14328341	-0.3322875	-0.07394842	-0.018099956	0.2055702	1.0770555	0.2513134	-0.47427258	-0.5346475	-0.0041273143	-1.8745979	-0.62155837	0.11902981	0.4911587	0.18909146	0.20377645	0.0
GSM3068489	0.22132249	-0.9787754	0.5159976	0.6253322	-0.25015587	0.27230787	0.4448011	0.33567458	0.60693073	-0.7915932	-0.15786399	0.12747197	0.839586	0.7131338	0.08616274	-0.13199101	0.36961982	0.33305898	-0.0325036	0.4272045	0.22679947	0.36918205	-0.25143284	0.3921315	-0.68651235	0.10053546	0.2441153	0.3511532	-0.7889653	2.452353	-0.5758471	0.902441	-0.11364954	-0.10402554	-0.031246997	-0.68074584	0.036558736	-0.08183661	-0.23768033	-0.23199968	1.1211206	-0.53408134	-0.21417005	0.36252993	-0.06641046	0.90251875	-1.8141676	-0.45221603	0.011626444	0.056344837	2.9532323	-0.054207064	0.7182776	0.49515224	-0.41879377	0.036873993	1.2749128	1.3286963	-1.1260563	-0.060904577	-0.038759146	0.73125565	-0.63527435	0.44437063	0.6710318	-2.1422434	1.0810648	-0.42196408	-0.39225894	-0.4647727	0.61773545	-0.55026805	-0.13893342	0.37558356	0.10647688	0.12219754	0.4047664	-0.5521521	0.4968771	1.478768	0.32108054	0.29262853	-0.011868907	-0.25172234	-0.8535123	-0.35829607	0.42654604	0.5524731	0.3409985	0.24082978	0.22517216	0.051367663	-1.7017475	0.79588753	1.2062904	-0.70752573	0.6432715	0.11058206	0.6867389	-0.7966365	-0.05709113	0.44378686	0.14175506	-0.10908182	-0.5163582	-0.10980557	0.58454853	-0.31335393	-0.09407441	0.20055209	-0.53921103	0.30858797	0.81234	0.6495126	-0.1895012	-0.25803092	0.009847654	1.2358605	-0.91917866	-0.15233003	-0.92019445	-0.024493968	-1.8348647	-0.635341	0.120157935	0.24858122	0.15883166	0.07168088	0.0
GSM3068490	-0.27874136	0.2981007	0.001585829	0.36293927	-0.4163314	0.37264785	0.5472622	0.41146216	0.413291	-0.43916556	-0.38441283	-0.0015718694	0.05836048	-0.10401678	-0.11360517	-0.03684818	-0.26487976	-0.37133533	-0.12591456	0.069742955	-0.06337858	0.1048413	0.32782775	0.008037413	-1.1506006	0.2906709	-0.28403753	-0.13150156	-1.010552	2.255683	-0.07906586	0.14376919	7.468845e-05	0.33456728	0.34368843	-1.0332735	0.121195935	0.22018419	-0.11272256	0.1742976	1.0577881	-0.8634484	-0.082877465	0.6524947	0.104844384	0.20557961	-1.5576346	-0.9220336	-0.008519475	-0.2975681	2.8459003	-0.031402435	-0.24971814	-0.09525669	-0.46437526	0.19528908	0.7872905	1.2025287	0.34743536	-0.037953697	-0.35845667	0.30657008	-0.5062159	0.05276714	0.2980818	-2.0646822	0.7929785	-0.609963	-0.3538291	0.31327802	1.026053	-0.43009162	-0.22427547	0.11077159	-0.19471069	-0.12950669	0.567497	-0.25844035	0.6341354	1.4092094	-0.41235065	0.33088198	0.1666589	0.043377716	-0.20862055	-0.027005639	0.37146276	0.7363945	0.1229642	0.10850739	-0.049744215	0.04387437	-2.0320911	1.0921531	1.0453472	-1.1244848	0.68712646	0.24819775	1.0186427	-0.9502087	-0.4924547	0.02277259	0.16008538	-0.1871441	-0.5538513	-0.04148275	-0.37830582	-0.1970535	-0.11287233	-0.12776683	0.2098662	-0.32756194	0.28474748	0.29775184	-0.13741955	0.07754852	0.14601062	0.7437537	0.092852764	-0.12935662	-1.0013486	0.070913576	-1.6588886	-0.64763916	-0.024999442	0.4686541	0.25479126	0.30453837	0.0
GSM3068491	-0.18608378	0.39706594	0.024871912	0.039619256	-0.4042148	0.10717907	0.637853	0.19584292	0.49777633	-0.8025709	-0.3835423	-0.05660371	0.1516961	-0.39780483	-0.26720807	0.26942974	-0.33670068	-0.1527208	-0.36114043	-0.07949078	0.24995193	-0.08210918	0.46839306	0.0391384	-0.9403474	0.3311703	-0.12400114	0.27410543	-0.9550964	2.163953	0.18845865	-0.013874102	-0.053255886	0.1944895	-0.01632108	-0.84649765	-0.32705545	0.05264302	0.48187906	0.21338171	1.2481389	-0.5094704	-0.44342574	0.42253536	-0.38427582	-0.20652775	-1.5843059	-0.74572784	-0.011949171	0.11189384	3.065495	-0.24874574	-0.42035648	0.07878774	-0.26370674	-0.07294597	0.8293698	1.1015292	0.2991035	0.122131646	-0.49651003	-0.3719374	-0.9540754	0.27833387	0.81967586	-1.9277517	1.103489	-0.17122681	0.4285475	0.35308635	0.4811453	-0.5265917	-0.093093075	0.06546149	-0.13745023	-0.079330854	0.30279616	0.004666525	0.48255962	1.3218668	0.013770182	0.0144732455	0.09308884	-0.09311013	0.27788198	0.12501982	0.6837149	0.51051706	0.28080952	0.21039002	0.20670414	0.4006923	-1.722395	0.8902944	0.9825128	-0.878608	0.922329	0.3789415	1.0303868	-0.97846484	-0.07622497	-0.32586125	-0.22791886	-0.17276944	-0.7641257	0.049451932	-0.7911668	-0.110170014	0.30006686	-0.12647276	0.4157037	-0.78253406	-0.08550067	0.68847436	-0.45921615	-0.38545257	0.3157968	0.94200814	0.4046357	-0.42225045	-0.77756274	-0.36329004	-1.7173208	-0.8225943	-0.03227227	0.3410879	0.19872546	0.059695467	0.0
GSM3068492	-0.5851493	0.5690778	0.1449342	0.4537699	-0.40041634	0.32651874	0.69435495	0.45871207	0.40059897	-0.56853044	-0.37577593	0.07363806	0.23700455	-0.045636334	-0.09024208	0.025026381	-0.353544	-0.19266209	-0.15887687	0.016733304	0.16948931	0.24043216	0.27502173	-0.45057544	-0.74515927	0.39019248	0.12143515	0.6437747	-1.0957549	2.013721	0.7129506	-0.2903838	-0.4492726	-0.27359226	-0.2344006	-1.0508895	0.34085372	0.009244513	0.41567025	0.24431525	0.9163679	-0.7008068	-0.23186971	0.20479985	-0.45690972	-0.23708187	-1.6617104	-0.17820054	-0.123891555	0.21188438	3.267586	0.065360926	0.026192358	0.007263588	-0.32468855	-0.10388498	1.0404267	1.0435774	-0.30665097	0.5140881	0.09919238	-0.3744581	-0.6678457	0.4594221	0.60406494	-1.9986132	1.2202077	-0.3517887	0.6059834	-0.21132515	0.6238939	-0.84478575	-0.12585178	0.077389814	0.430238	0.29781494	0.3327164	0.35061234	0.5807923	1.342531	0.17756629	-0.41014397	0.18998271	-0.0073583755	0.072563544	0.11925861	0.4915007	0.7996294	0.44680613	0.13739654	0.31427	0.529483	-2.1661167	0.9232704	0.9845978	-0.6616058	0.97921556	0.272167	0.9133552	-0.9967769	0.27963674	-0.1259659	0.07879472	-0.2141222	-0.7108511	0.0064896387	-0.39969298	-0.0100556975	-0.31043324	-0.074431874	-0.17748225	0.075640246	0.17748871	-0.29631436	-0.35883993	-0.02166571	0.03313516	1.1935602	-0.09670678	-0.8807344	-0.89388937	0.30928418	-1.5329914	-0.933576	0.029794322	0.4174914	0.124322176	0.24371956	0.0
GSM3068493	0.42129076	-0.9005158	0.3115685	0.26065984	-0.316109	0.36755043	0.6324121	0.4115169	0.49154866	-0.7351451	-0.41334277	0.03127988	0.59168184	0.84873456	0.012686692	-0.23924936	0.38192785	0.3169059	0.22002363	0.5596872	0.078158624	0.14904165	-0.37382668	0.18976995	-0.6679357	0.1559814	0.4357135	0.29351655	-1.3437803	2.1101522	-0.5996347	0.3146058	0.11896326	0.1701599	0.0027356374	-0.835369	0.4362031	-0.08429191	-0.09985893	-0.043430373	1.3998616	-0.92731625	-0.3024945	0.25604808	-0.36973765	0.6760306	-2.0887105	-0.5604762	-0.13130157	0.0018661424	3.0719645	0.12687033	0.7869786	0.63904494	-0.42740926	-0.14839657	1.1706038	1.0460371	-0.9522239	0.33780378	0.35252845	0.5679263	-0.90302426	0.29974076	0.7064891	-1.902433	1.1264623	-0.43806762	-0.5413775	-0.9388076	0.39789414	-0.6917816	-0.07178929	0.012496236	0.63448155	0.013899775	0.0039700354	-0.58345556	0.5586338	1.4157351	0.3001699	0.02309137	-0.37116784	-0.00015334076	-0.61568844	-0.4264852	0.47583902	0.48918682	0.3258621	0.33060622	0.16475788	0.3255018	-1.9662753	0.9073421	1.1472703	-0.7912408	0.5943272	0.24048871	0.9456949	-0.81428736	0.11345779	0.6099572	0.20409755	0.30678096	-0.45081028	0.008104383	0.685614	-0.16893211	-0.46237755	0.11463295	-0.75983	0.6650508	0.523187	0.09295211	-0.065284766	-0.18046366	0.2750674	1.0061833	-1.0071222	-0.06248668	-0.726253	0.07354819	-1.4629722	-0.5031167	0.2417647	0.4040119	0.13820262	0.24646275	0.0
GSM3068494	-0.2606895	-0.5809128	0.13024797	0.5537663	-0.3184076	0.11646203	0.3544441	0.36132982	0.54643446	-0.66764516	-0.5236741	-0.031386286	0.6265565	0.17954059	-0.05715123	0.01669291	0.12308169	-0.67626065	-0.44981566	0.34708673	-0.07038488	0.13514876	0.24422598	0.18166672	-0.7250407	0.22689497	-0.29832292	0.36101174	-1.231703	2.3511302	-0.35191336	0.78867054	-0.15643688	0.14602956	-0.015703406	-0.9791765	-0.019280262	0.28106084	0.1257342	0.14978684	1.2664258	-0.9336982	-0.35279453	0.48779774	-0.20125456	0.2991557	-1.9485126	-0.57478493	-0.11315499	-0.112912074	2.5598502	-0.017459491	0.064388186	0.64252526	-0.37871993	-0.1264386	0.9268552	1.1042039	-0.07621226	0.37423867	-0.589854	0.26363266	-0.23077552	0.2853431	0.63914186	-2.046021	1.0755746	-0.4491785	-0.21862571	-0.08136281	0.6863721	-0.62719816	-0.08585392	0.082643904	0.16809437	-0.19226092	1.1065327	-0.6119166	0.33983755	1.3120178	-0.3738511	0.3896046	-0.008704876	0.15812215	-0.58448046	0.15724674	0.31215173	0.5953657	0.45312512	0.377554	0.23093618	0.22036092	-1.6317568	1.1057866	1.0968906	-0.8475009	0.74925554	0.029340055	0.7666065	-0.7605905	-0.04295286	0.2199622	-0.13457409	-0.16060802	-0.49075848	-0.024247654	-0.23071203	-0.15588734	-0.040935583	0.22049937	0.118299	0.17285326	0.55080944	0.8915102	-0.48670426	-0.40407115	0.22412823	1.0938908	-0.43787912	0.13874282	-0.8469435	0.050876845	-1.3442825	-0.59873104	0.21441305	0.45131573	-0.18670028	0.29812616	0.0
GSM3068495	0.06776066	-0.47581714	0.102999955	0.35098755	-0.23422186	0.052772418	0.5836897	0.14899078	0.34943253	-0.54826975	-0.39899364	0.030137016	0.3934373	0.08667224	-0.13353091	0.055395477	-0.10816193	-0.2793806	-0.41869423	0.56442696	0.092876285	0.2948207	-0.12626976	-0.33201423	-0.6954854	0.3126494	-0.14718278	0.42201158	-1.38181	2.3032944	-0.47977063	0.67643327	-0.40016356	0.122557886	0.10471167	-0.82622665	-0.58396643	0.22858585	0.25368205	0.32559055	1.2486533	-0.46131855	-0.3152388	0.36593142	-0.583125	0.2761871	-1.6020349	-0.49925223	0.054932203	0.012537451	2.9697	0.03464485	-0.050187323	0.35151547	-0.3220667	-0.056483597	1.26143	1.2459519	-0.18650435	0.5631406	-0.68542844	0.6589112	-0.59227854	0.019852294	0.6306508	-2.186057	1.222782	-0.59251	-0.383541	-0.4095603	0.44134027	-0.5401203	-0.014925668	0.20424473	0.29549125	-0.087736696	0.8671885	-0.9867441	0.6276172	1.3370787	-0.7805461	0.24943608	-0.010974738	0.22052431	-0.44375587	-0.0872707	0.28708306	0.54547226	0.29256758	0.08731988	0.26414785	0.27577016	-2.0662146	0.7921698	1.2266005	-0.73537385	0.5884069	0.18413822	0.76952153	-0.6373805	-0.2728557	-0.16136241	0.16158098	-0.09317072	-0.35095924	-0.16356997	-0.35658196	-0.67353755	0.022109227	-0.011345535	-0.27311084	-0.30124646	0.25860986	0.960358	-0.4983173	-0.0784619	-0.09280999	1.1597743	-0.34321472	-0.17393538	-0.97593236	-0.045326866	-1.6376827	-0.8556698	0.25392145	0.2888201	0.019311255	-0.0056388206	0.0
GSM3068496	0.57816714	-0.82785285	0.35042396	-0.22894526	-0.40985748	0.34615624	0.47526348	0.01247745	0.54235697	-0.53803355	-0.13966063	-0.1093378	0.30526373	0.39436835	-0.1701609	-0.17037536	-0.09931386	0.5283903	-0.077039175	0.783167	0.012384847	0.18468136	-0.3578228	0.06998476	-0.7772417	0.05685803	-0.0439332	0.16540273	-1.277448	2.2822711	-0.47528994	0.6811333	-0.28148013	0.11501405	-0.07734678	-0.93106276	-0.123040885	0.46097922	-0.37045148	-0.07258912	1.014331	-0.47573897	-0.23084868	0.33565742	0.0009948153	0.495571	-1.634643	-0.6399889	0.017393893	0.085254185	3.0758743	-0.0129918335	0.62852174	0.48168835	-0.25455403	-0.1449139	1.2413915	1.3958446	-0.67232877	0.22968127	-0.44126564	0.52264833	-0.7209881	0.07453655	0.5174018	-2.0919378	0.84324354	-0.20858893	-0.2636772	-0.5265221	0.48366225	-0.6519867	-0.06996573	0.30017635	0.10108823	0.010655881	-0.12385076	-0.6301428	0.36403853	1.3347534	-0.19114985	0.45911458	-0.29206577	-0.20895949	-0.44912922	-0.30182433	0.34196913	0.6004385	0.40458	0.14576784	0.25460428	0.29087397	-2.139104	0.91617763	1.3358524	-0.68941045	0.8043288	0.16936481	0.9518167	-0.83636755	-0.38104543	0.21657181	0.025524536	0.124982744	-0.58918387	0.074482895	0.015186904	-0.7037668	0.08267917	0.18529768	-0.023292614	0.0716128	0.39715916	0.6715757	-0.07149845	-0.18854785	0.26574853	1.2031726	-0.15039325	0.22553122	-0.75051755	-0.001996903	-1.6011869	-0.6473148	0.17181	0.36870942	0.04110078	-0.017699992	0.0
GSM3068497	-0.32574588	-0.026454914	-0.60698086	-1.1008457	-0.17702776	-0.00048410022	0.45490247	0.17200932	0.606225	-0.9086969	-0.29875028	-0.05904668	-1.1211619	-0.6993278	0.40907547	0.14281672	0.0699357	0.117812485	0.074326456	-0.44110912	0.4072344	0.4881499	-0.46957323	-0.13103308	-0.3630076	0.31844863	-0.07631685	-0.7770518	-1.1462477	2.3955543	0.5261069	-0.8559121	0.16633056	-0.076538965	-0.22893812	-0.7828573	-0.12081091	-0.64348257	0.09325423	-0.039101508	1.1733879	-0.25529453	-0.2479785	0.43703017	0.40575653	-0.8605242	-2.1576111	-0.43028137	0.08050888	0.23700224	2.5289068	-0.2351762	-0.9889975	-0.7542642	-0.3039583	-0.27582803	1.6105145	1.4913292	0.8471109	-0.44403693	0.49965662	-0.46238813	-0.63297856	0.14599489	0.71870655	-2.1488626	1.1524758	-0.33813712	0.02811983	0.17433144	0.46811044	-0.6033999	-0.110932104	0.22432752	0.13278772	-0.5101996	-1.1226523	0.66946805	0.5971539	1.188325	0.011026994	-0.44467512	0.094036154	-0.19625677	0.86796564	0.471889	0.15565525	0.39809024	0.2700972	0.07422051	0.30349228	0.007156997	-1.7829037	1.0550224	1.5170852	-0.75372666	0.59065694	0.18149832	0.4265109	-0.8375718	0.51689905	-0.25450054	0.21483624	0.04448715	-0.46238756	0.21746424	0.055431504	0.57642096	0.03860253	0.40239078	0.2417406	-0.061881356	-1.3096813	-0.9872009	0.7799973	0.39065796	-0.3017527	1.3376918	0.6882403	0.37365416	-0.8491861	-0.076798	-1.6711051	-0.71854633	0.47196394	0.08214396	-0.35388663	0.089662015	0.0
GSM3068498	-0.28569442	0.46578836	-0.10708225	-0.009277373	-0.7387811	0.36116746	0.81533927	0.27107048	0.528421	-0.70415336	-0.28063262	-0.13768554	-0.30032697	-0.77398205	-0.51090044	0.10018718	-0.6347595	-0.4274112	0.02476482	-0.0978057	0.07720645	-0.00010790536	0.16770884	-0.13019803	-1.0253412	0.22867471	-0.14272648	-0.018741984	-0.8790343	2.4241126	0.1667994	0.24487826	-0.14348052	0.280928	-0.08159299	-0.8169898	-0.37574342	0.29646826	0.31562406	0.16892989	1.189338	-0.7375375	-0.20602809	0.26969162	0.006788855	-0.21104051	-1.4449576	-0.8349356	0.11848072	0.30063897	3.1530266	0.20949078	-0.6791864	-0.36308885	-0.43599677	-0.06284308	0.96661323	1.2718798	0.6226478	0.13837054	-0.53149474	-0.040247794	-0.9578015	0.46205145	0.6912478	-2.1321578	0.8852391	-0.21202561	0.035750587	0.30267456	0.49669042	-0.83390534	0.06517837	0.27304852	-0.15391065	-0.34059313	0.55415094	-0.4490593	0.4761225	1.4487172	-0.4838303	0.20525004	-0.12952	0.21227828	0.31728348	0.3623017	0.6801301	0.7672873	0.2866872	0.4603784	0.248543	0.25447378	-1.9217514	0.99912417	1.1857544	-0.43361965	0.6450889	0.06691489	1.0100155	-0.97055686	-0.3393002	-0.4719109	-0.15597452	0.20812273	-0.64852726	-0.13298082	-0.6622165	-0.22802576	0.1413775	0.032328833	0.6131124	-0.97052574	-0.2017982	0.3969513	-0.07031321	0.11571563	0.06396917	1.0589226	0.7159073	0.12596913	-0.68094444	-0.070056304	-1.6977775	-0.6349748	0.372717	0.37198997	0.4512985	0.36416295	0.0
GSM3068499	0.15999165	0.21185796	0.271285	0.8237828	-0.4108446	0.11076416	0.57103485	0.20836997	0.5484383	-0.5223905	-0.51535445	0.09592701	0.54248327	0.29256734	0.43179137	-0.37135768	1.0569344	0.35503748	0.18424924	-0.59227246	-0.05152582	0.14311345	-0.47968525	-0.4257921	-0.8777031	0.28355062	0.9333545	-0.13785377	-1.5423914	2.2098985	-0.71597207	-0.5590897	0.34924284	0.08650508	-0.092556916	-0.9072899	0.7116371	-0.45875698	-0.054617245	-0.3954667	1.3630353	-0.8488966	-0.30396348	0.18240277	-0.7052608	0.26888958	-1.4516795	-0.81997555	0.2530302	0.22264278	3.0685172	-0.25215483	0.60921085	-0.2837743	-0.26750785	-0.116136834	1.0691465	1.0946479	-1.2325221	-0.54703903	1.1886646	0.083710976	-0.30611232	0.08959326	0.6332538	-2.0284727	1.225945	-0.43888864	-0.27775243	-0.1562213	0.32498425	-0.38537034	0.10974507	-0.05411369	0.24782006	0.31032565	-0.13598756	0.70453084	0.66995126	1.6360523	0.764822	-0.3896836	-0.3765657	-0.108869895	-0.6726567	-0.40290913	0.3317695	0.75140536	0.3000014	0.3357595	0.17868242	0.2578141	-2.1335766	1.2435284	1.1347951	-1.1753639	0.55946946	0.25234452	0.8578043	-0.7130893	0.5782292	0.5443981	0.38606077	-0.32014295	-0.7838215	-0.14181663	1.0559453	0.024107922	-0.51360536	0.20527974	-0.83516467	0.7922841	0.11770129	-0.70386815	0.27156755	-0.25977877	0.7214805	0.7599488	-0.9789252	-0.28556278	-1.0804137	0.3261681	-1.4727042	-0.6735094	-0.061702397	0.24806756	0.11841606	0.13123757	0.0
GSM3068500	0.33409476	0.041951213	0.048491374	0.2575564	-0.55369043	0.32175824	0.6514836	0.42779255	0.6886992	-0.7294518	-0.41178212	0.017984783	-0.04608862	-0.3671952	-0.10547382	-0.2659248	0.011143719	0.3109973	0.010528162	0.08765997	0.35065222	0.3717264	0.39122444	0.30521795	-1.0967363	0.25620672	0.010603229	-0.1434882	-0.9613178	2.2800043	-0.38193083	-0.4788635	0.1061365	-0.018091815	0.22961809	-1.0475333	0.29780248	0.056683302	-0.21171181	-0.32540563	1.2906846	-0.50113326	-0.46516633	0.31531632	0.40154076	-0.01050194	-1.4871842	-0.94366974	0.5806741	-0.08083852	2.8254232	0.19744417	0.38466084	-0.3686478	-0.5347307	-0.076411135	0.84805316	1.0797884	-0.01322745	-0.5538121	0.1164734	0.2812174	-0.8415026	0.5947537	0.70153373	-1.7716475	0.9584541	-0.06321598	-0.13977611	0.35041103	0.80702263	-0.7958989	-0.03378572	0.2716825	-0.14435942	-0.21732953	-0.59271145	0.043344706	0.3279876	1.3218832	0.067019016	0.18167514	0.14897846	0.031232534	-0.23301232	0.1499525	0.6300256	0.85995275	0.17496412	0.49821937	0.026256124	0.4274869	-1.8082563	0.8580728	1.0299392	-0.9875039	0.7008443	0.38208565	1.2404662	-1.2208897	-0.106254354	0.050643746	0.0023112623	0.025863998	-0.6933602	0.21175303	0.051557742	-0.037245054	0.43053982	-0.15999761	0.5575209	-0.45297348	-0.2933015	0.43423867	0.59190387	0.40692955	0.080300346	0.9509353	0.45660335	-0.10227792	-0.46595684	-0.15106253	-1.8555644	-0.4391642	0.16702624	0.6919291	0.0999006	0.019363368	0.0
GSM3068501	0.41500133	-0.6537315	0.37298608	0.3531338	-0.22033313	0.2067923	0.59734875	0.22007816	0.45761502	-0.68095285	-0.29245728	0.0009807214	0.6360786	0.44780448	-0.22165188	-0.105959795	0.13594048	0.08322257	-0.01695792	0.3313	0.37158784	0.14297234	0.09428102	0.27602085	-0.74376404	0.01287077	0.20087168	0.0019581066	-1.2829012	2.3112566	-0.71378887	0.50697255	0.37496313	0.0030886016	0.045541316	-0.80033225	0.50553155	0.11062269	-0.33512813	-0.074049346	1.1207863	-0.7214092	-0.28444463	0.415884	-0.09083063	0.35741368	-1.9153132	-0.67269	0.06316367	-0.022188617	2.9394097	0.17130741	0.5689257	0.41385272	-0.36576805	-0.2253392	1.0701934	0.91936773	-0.8108284	0.25963882	-0.04741808	0.5463139	-0.5114784	0.24224995	0.6448601	-1.9383125	1.2394158	-0.40557027	-0.4543154	-0.64704895	0.45952487	-0.5329608	0.008453706	0.064032644	0.24089438	-0.19017203	0.58192676	-0.59260327	0.60356283	1.179403	-0.13865177	0.35555124	-0.047719426	0.058869302	-0.5036172	-0.12611292	0.42759517	0.6219539	0.33664325	0.22957209	0.084987424	0.2226937	-1.9328145	1.0663495	1.2264379	-0.93163526	0.7547728	0.12789272	0.672117	-0.69318074	-0.19554725	0.3721091	0.083876334	0.0876516	-0.58692	0.08437288	0.021477873	-0.024488358	-0.03270428	-0.008066019	-0.039043445	0.44817415	0.657177	0.5090456	-0.35892802	-0.17446154	0.27963564	1.0203544	-0.8546195	0.073138036	-0.85091984	0.16663992	-1.448213	-0.7029826	0.23217314	0.13994472	0.0026895585	0.16681299	0.0
GSM3068502	0.22377905	-0.3487085	0.24979284	0.22868496	-0.39736968	0.15384077	0.5922319	0.14191197	0.55308783	-0.64860475	-0.33420706	-0.053198982	0.7727156	0.358628	-0.003512068	0.050293025	0.19465457	-0.1375822	-0.11096443	0.40916705	0.3234614	0.29966524	0.05783386	-0.29180706	-0.6055381	0.13038912	0.15831314	0.4115256	-0.9594444	2.2668245	-0.4164228	0.43543303	-0.17382124	0.023941638	-0.04067976	-0.6794121	-0.11449475	0.07405861	0.09547632	0.029191911	1.0594562	-0.6969762	-0.4111576	0.62315845	-0.6233631	0.07158837	-1.6832381	-0.55145377	-0.18153238	0.18982524	2.7939296	0.041348357	0.071915306	0.24641547	-0.31888056	-0.044439316	1.2245651	1.1309637	-0.60432047	0.37549496	-0.17235795	0.36612582	-0.54274946	0.29777107	0.60853356	-2.1447666	1.22612	-0.57817787	-0.4426428	-0.40075532	0.5211468	-0.6311555	-0.11726625	0.09462233	0.23134793	0.14693844	0.60825944	-0.31600776	0.70953155	1.282537	-0.45944944	0.23749395	-0.0819419	0.08981646	-0.40496185	-0.07551044	0.32850206	0.5028178	0.31129965	0.17452188	0.19586019	0.14279157	-1.8391361	0.8731518	1.206313	-0.66609067	0.5794729	0.1557257	0.5961625	-0.75020653	-0.013071038	0.39090738	0.077979006	-0.0589886	-0.6215532	-0.031155713	-0.018560639	-0.5963744	-0.12467487	-0.20524502	-0.34854305	0.07537944	0.37074342	0.6091983	-0.3858627	-0.13303445	-0.014933824	1.1610312	-0.60118663	-0.35848752	-0.8056172	0.10777959	-1.5910712	-0.7213171	0.25379243	0.13056804	0.14662595	0.24697724	0.0
GSM3068503	0.15288264	0.17460647	-0.14333196	0.23739353	-0.63466215	0.35982388	0.7205264	0.15967046	0.42050245	-0.8124368	-0.2551475	0.021808038	0.039938234	-0.25761834	-0.52187115	0.15112841	-0.40566048	-0.09918154	-0.13642763	0.13991646	0.004548284	0.2652541	0.3910739	0.05921634	-0.7186172	0.14879912	-0.3732591	-0.042648017	-1.0870363	2.1771684	-0.34555322	0.060563494	0.46430188	0.14073274	0.16934843	-0.7414905	-0.70352817	0.124916114	-0.06194328	0.0666534	1.0840993	-0.9543063	-0.5742534	0.46129766	0.040851418	-0.0784721	-1.5806603	-0.6893125	0.35486424	0.21139261	3.0451336	0.2849889	-0.057195973	-0.4170891	-0.61817497	-0.27159637	0.86250854	0.8429882	0.3381411	0.15746742	-0.6397737	-0.06146476	-0.56644803	0.38668808	0.5837097	-1.929332	1.1747581	-0.24372025	0.022269366	0.3950659	0.60719997	-0.48815402	-0.0423082	0.09559773	-0.32539594	-0.2785015	0.552081	-0.5674325	0.46662375	1.256424	-0.46531498	0.6603034	0.15009809	0.1631042	0.21336399	0.1313168	0.50201136	0.64150363	0.2376833	0.35225266	0.2983052	0.33227703	-1.6688622	0.8581643	1.5219641	-0.76944166	0.70656335	0.25390342	0.90181184	-0.98021764	-0.028743207	-0.20487607	-0.17273118	-0.36707836	-0.66545063	0.05471511	-0.7644482	-0.34039477	0.4265346	-0.2417592	0.5553238	-0.7989213	-0.029459784	0.80532485	0.09855339	0.50284827	0.45791775	0.90238607	0.61397564	0.3326327	-0.9240266	0.25040695	-1.3159455	-0.67938966	0.19719292	0.3155893	0.20375267	0.2544388	0.0
GSM3068504	0.7569762	-1.0908267	0.40989038	-0.082656555	-0.3677374	-0.034716003	0.4340879	0.2790239	0.28376094	-0.6431507	-0.37441954	-0.004472766	0.44600898	0.7355578	0.13649389	-0.045507967	0.4930219	0.7370269	0.046264768	0.5699886	0.020250551	0.100398004	-0.4201844	0.33218843	-0.6548701	0.32603595	0.3017409	0.13889721	-1.0367811	2.4004612	-0.6098698	0.93616927	0.022139035	0.3737877	0.04436789	-0.8399376	0.11463755	0.09144238	-0.5304117	-0.24593289	1.1886259	-0.6969673	-0.21473384	0.37113616	0.17934814	0.90246046	-1.80659	-0.5472915	0.054267902	-0.043959558	2.6264372	-0.16623941	0.7077256	0.5011043	-0.29248556	-0.20817254	1.0999415	1.1134075	-1.1580712	0.08061572	0.0067755925	0.74420494	-0.5058196	-0.017639982	0.5662352	-2.2625866	1.2710912	-0.6429272	-0.48569503	-1.0237168	0.66445494	-0.56509346	-0.04385454	0.13096528	0.33956254	0.051667545	-0.4405757	-0.27717862	0.9096997	1.2785594	0.20346957	0.11268964	-0.34910142	-0.034651693	-0.7537601	-0.36753783	0.2172967	0.40253988	0.39019492	0.2165835	0.22533181	0.14843945	-2.1698632	1.1528693	1.0061258	-0.78203154	0.7012076	0.18700399	0.66727644	-0.9365403	-0.02953105	0.45973197	0.34571522	0.24032599	-0.31681502	-0.03628564	0.88633794	-0.1711075	-0.21465252	0.18550493	-0.8084591	0.61040515	0.2918729	0.4139525	-0.0062925406	-0.45168188	0.11520586	1.095032	-0.90806305	0.4425396	-1.1118945	0.014067171	-1.4018742	-0.705649	0.20899291	0.36045203	-0.14013539	0.06879743	0.0
GSM3068505	-0.119104825	0.4071385	0.06812721	0.49069086	-0.23167959	0.23273191	0.51544946	0.16008437	0.77155674	-0.85297894	-0.43731406	0.14921041	-0.1371996	0.20320289	-0.25904822	0.0132032	-0.2689239	-0.1831072	0.26713318	-0.3817274	0.24479198	0.35787427	0.18160397	-0.093982205	-0.80047613	0.2819281	-0.24928024	-0.016566312	-0.94067085	2.0190637	-0.1617696	-0.2438867	0.28817934	0.05275094	-0.15407678	-0.96626526	0.14763857	0.24403025	-0.18236738	-0.16678838	1.1254263	-0.6648552	-0.31998956	0.29347584	-0.15844247	0.059944335	-1.4944984	-0.77252597	-0.047142763	0.09099506	2.7978528	0.12149108	0.040794425	0.64575756	-0.38146478	-0.24590074	1.1676577	1.127458	0.39794618	0.14012678	-0.13771853	-1.0632571	-0.89026713	0.45423725	0.8812432	-2.3079262	0.9549793	-0.6085073	0.5218342	0.5612884	0.73378193	-0.46957195	-0.11117121	0.016029097	-0.4178892	0.33656904	0.3495345	0.101310916	0.5765115	1.2931854	0.5199201	0.42055324	0.3280625	-0.2992262	0.063030444	-0.34704247	0.62020254	0.61934894	0.48147985	0.16218245	0.09981672	0.27886963	-1.7292638	0.92496836	1.1420753	-0.6720488	0.78501534	0.36852202	0.8509877	-0.88431454	-0.10008304	-0.18455245	-0.06393352	-0.13495687	-0.7765122	0.002269791	-0.5853326	0.36628821	-0.23768385	0.3504955	0.27646732	0.0039331536	0.54317045	-0.044919204	-0.4105186	0.043722767	0.12061894	0.972488	0.54631144	-0.1306868	-0.6989974	0.023357455	-1.9211081	-0.96184766	0.23911223	0.18685217	0.07434559	0.07942325	0.0
GSM3068506	-0.10519266	0.34884754	-0.08408915	0.105740875	-0.46716556	0.12376436	0.5439759	0.2677766	0.2347832	-0.6736149	-0.70870835	-0.14007728	0.22227967	0.16427363	-0.079463236	-0.0078347605	0.26555014	-0.5108201	-0.08978927	-0.11905105	0.024919571	0.6000382	-0.27822867	-0.15380423	-0.8706131	0.21032149	0.12009945	0.75118685	-1.3565087	2.2680283	0.46970835	-0.3004234	-0.36831516	0.17548077	-0.03418945	-0.8932482	-0.07664765	-0.18994343	0.29684177	0.21950978	1.2051127	-0.9007325	-0.39579922	0.4810662	-0.74383813	-0.010662221	-1.6658787	-0.6352664	-0.11770849	0.12148411	2.7669804	0.03376156	-0.31152448	0.36696407	-0.40969238	-0.16106854	0.8232648	1.1413273	0.0031318173	0.115028426	0.26318094	-0.47391012	-0.5066344	-0.023447478	0.5430304	-2.0363424	1.1829252	-0.42270294	0.5689937	-0.22018737	0.6087461	-0.5683735	0.017518252	-0.08650833	0.260162	0.21809229	-0.21778171	0.40425372	0.7938335	1.4786247	0.28483713	-0.4012686	0.15694222	0.067304716	0.26567516	-0.3795697	0.4491027	0.58268493	0.30390534	0.12750098	0.16170548	0.070807286	-1.9852369	1.1708417	1.0173155	-0.93205214	0.67582417	0.1297135	0.7855304	-0.875322	0.48027763	0.2388516	0.33084613	0.05846868	-0.55043554	-0.039874885	-0.06859108	-0.3736176	0.056897637	-0.11045905	-0.51553124	-0.27776772	-0.14524183	-0.20678715	-0.38404417	-0.4153619	0.26529464	0.8651411	-0.08078052	-0.8353252	-1.0589406	0.1311814	-1.5496234	-0.5415885	0.032111105	0.34737432	-0.18141414	0.12605429	0.0
GSM3068507	-0.31164023	0.68948114	-0.10470148	0.27598986	-0.29697475	0.03155068	0.4306403	0.2952874	0.4261154	-0.48177123	-0.28324726	-0.0060256557	-0.40013283	-0.20353892	-0.09949871	0.036390115	-0.4729391	-0.025726037	0.062984824	-0.65756685	-0.014999025	0.3887576	0.075705215	-0.2520095	-1.0097898	-0.0023678073	-0.10571107	0.33732358	-1.0641272	1.9491441	0.75843513	-0.162217	0.062076263	-0.18654802	0.14730863	-0.9572589	-0.113171205	0.09211138	0.05343991	-0.27228135	1.2262514	-0.5872079	-0.3524572	0.3794873	0.34199315	0.06649279	-1.9415929	-0.64244056	-0.092677966	0.16086039	2.749082	0.11176762	0.052292798	-0.2606567	-0.24517311	-4.4912153e-06	1.1208167	0.98592913	0.2148251	0.027799647	0.0044782613	-0.93456286	-0.6998765	0.01019805	0.36025423	-1.9649165	1.4305342	-0.57245314	0.6917938	0.85512245	0.2798685	-0.5352567	-0.14194435	0.0069315583	-0.44794476	0.3900147	-0.080339886	0.64621776	0.62990135	1.3015511	0.6817123	-0.11181712	0.09975407	-0.35849723	0.5321099	-0.21019001	0.3181741	0.88924336	0.3183409	0.11476664	0.13497184	0.32517788	-1.7641665	0.8108338	1.1340611	-0.934283	0.5455014	0.047565248	1.0174222	-0.7876741	0.017027894	-0.44407195	-0.10147269	-0.16613698	-0.5798844	-0.20443949	-0.35473385	0.28206542	0.08060216	-0.11638405	0.14046806	-0.46564388	0.28845745	-0.2753385	0.39899096	0.28913128	0.20375283	1.1524544	0.4435457	-0.27862602	-0.8933053	0.28380805	-1.5508419	-0.89413995	0.17959471	0.36188278	0.00962243	0.034751717	0.0
GSM3068508	-0.19433302	0.31098917	0.35732841	0.736528	-0.48383233	0.16512369	0.56060636	0.105055615	0.8298198	-0.7955633	-0.30459252	-0.06610729	0.41348472	-0.12179824	-0.4268001	0.0538083	-0.28422782	-0.25479898	0.13858896	0.09576191	0.14873153	0.34905675	0.30218962	-0.34229645	-0.69600517	0.3468533	-0.47169518	0.16841316	-1.2599255	2.2783856	-0.06897196	0.29120627	-0.24160215	0.18120286	-0.14076738	-0.76936954	-0.069742285	0.6659244	0.13825338	0.0010933715	1.2908921	-0.53549886	-0.2710644	0.24334714	-0.23725697	0.0119546475	-1.8761545	-0.6763229	-0.2610735	0.0071103713	2.9222643	0.4105048	0.015468277	0.46327195	-0.20213306	-0.02659231	1.3181908	1.2280575	0.06737529	0.5384381	-0.6272541	-0.18613866	-0.68890214	0.46613696	0.6790911	-1.9641621	1.0964731	-0.27505818	0.23013517	0.24618225	0.3496803	-0.58975744	-0.14937674	0.24197415	-0.024340397	0.11520507	1.2332999	-0.3824354	0.5201039	1.5898627	-0.4981205	0.20175119	0.14237498	0.33837032	-0.25969082	0.034266137	0.46986902	0.5488004	0.4662525	0.24513704	0.3739831	0.25662583	-1.7904967	1.021409	1.4151344	-1.0342473	0.67679745	0.13444148	0.7416625	-0.8910577	-0.30854914	-0.22113931	0.26139936	-0.041367106	-0.47383705	-0.38765007	-0.8726955	-0.5869507	0.31789264	0.25969312	0.5103105	-0.2572724	0.5144577	0.6764384	-0.46944207	0.1327992	0.25987688	1.1059308	0.26463744	-0.20724382	-0.8220021	-0.22613312	-1.7458642	-0.89546645	0.14124607	0.3110563	0.07072009	0.27795446	0.0
GSM3068509	-0.35304922	0.28236997	-0.2258389	-0.109053195	-0.485722	0.23847257	0.70571494	0.1272072	0.36857522	-0.6704088	-0.3222202	-0.02816948	-0.39204696	0.17959847	-0.17065173	-0.067396544	-0.12259304	0.15691818	0.38549197	-0.53295654	0.09961233	0.049826413	0.06766981	0.07013114	-0.8918987	0.14930066	-0.06269368	0.029595664	-1.2673066	2.0857222	1.0001483	-0.26411933	0.1394047	0.16649094	-0.045111742	-0.78314805	0.28130415	-0.5591407	0.2042399	0.0826847	0.91863436	-0.7127137	-0.25241902	0.29479706	0.33355138	-0.04745469	-1.3692003	-0.63761806	-0.08577094	-0.044463363	3.2024827	-0.001928991	-0.22199096	0.21435684	-0.4072498	0.029929092	0.8507638	0.9333299	0.20303102	0.059012435	0.16005237	-1.1225648	-0.55148983	0.45498627	0.77324575	-1.8295963	1.148871	-0.50385153	0.94612145	0.20320612	0.40023968	-0.6135215	0.030645506	0.24652027	0.071049824	0.52201456	-0.6184062	0.68518686	0.67579335	0.9058943	1.0318025	-0.26949552	-0.147047	-0.23029862	0.7694056	-0.24783123	0.6962247	0.70751977	0.2614065	0.25822923	0.1890932	0.22261336	-2.0223565	0.90003175	1.2019062	-0.7430607	1.0162054	0.39478925	0.7230046	-0.8301239	0.1629706	-0.3610952	-0.08347148	-0.15837969	-0.66461736	0.056184307	-0.35474834	0.6612873	-0.13475496	0.18348373	0.28056553	-0.025069004	-0.17228767	-0.62148094	0.0961305	-0.043401785	0.09129999	1.189215	0.21212913	-0.24679902	-0.743358	0.069264874	-1.5651877	-0.9084627	0.4119483	0.30779007	0.21339953	-0.026912982	0.0
GSM3068510	0.21998705	-0.038139135	0.43609944	0.56521577	-0.42162895	0.3440313	0.776018	0.19731703	0.54163635	-0.6587538	-0.3773751	0.10679997	0.31812164	-0.11705002	-0.21776077	0.07525855	0.28795415	-0.18504156	-0.21056229	0.21543472	0.40215653	0.21911246	0.11916048	-0.3276467	-0.8903997	0.16609123	0.09401186	-0.021857724	-1.1677505	2.2107728	-0.45292702	-0.0717006	-0.1631245	0.0076872217	-0.2718439	-0.8905339	0.07092866	0.31582797	-0.01881593	-0.30227935	1.2670245	-0.9144445	-0.4454892	0.29897273	-0.5447367	0.25722075	-1.4396544	-0.79907465	0.12553303	-0.012197777	2.899074	0.49092734	0.2650727	0.25549802	-0.41174692	-0.3350213	0.9061853	0.77111995	-0.38346168	-0.0024755977	-0.053507533	0.25822031	-0.706266	0.65360105	0.988408	-2.1438198	1.323142	-0.28751278	-0.3546312	0.22430933	0.34237966	-0.62608236	-0.07644804	0.24137506	-0.09592197	-0.23138748	0.36030212	-0.40662953	0.43191117	1.177656	-0.16872717	0.3074174	-0.091215886	-0.11596142	-0.23299818	0.15990171	0.6124876	0.69052964	0.4323439	0.2550863	0.18040475	0.24629617	-1.6290653	0.8979524	1.1321923	-0.25122264	0.66958845	0.30021504	0.89866364	-0.7702001	-0.006869882	0.07325093	-0.25852346	0.22853711	-0.47123632	-0.068215705	0.16880631	-0.5173367	0.29659942	-0.3607387	0.051043715	-0.27418372	0.1568191	0.65559655	-0.08028155	-0.042194143	-0.056767385	1.0786841	-0.12800694	-0.13172866	-0.70022374	-0.15287837	-1.5270212	-0.826207	0.21983232	0.6137406	0.24616885	-0.011649853	0.0
GSM3068511	0.34619945	0.23316807	0.14947222	-0.43669406	-0.2570662	0.19874269	0.48601988	0.49903446	0.44490522	-0.67662954	-0.43825975	-0.039639454	-0.5232906	-0.5840743	-0.18294698	0.12734538	-0.36833698	0.33358088	0.04683634	-0.43865064	0.115632266	0.52278054	-0.10172781	0.23623371	-0.82524246	0.37761858	0.24974272	-0.66987234	-0.9330195	2.1238437	0.24532957	-0.08497436	0.20460428	-0.0050274236	0.04105703	-0.75874096	-0.3750924	-0.33339986	-0.14124626	-0.40803844	1.4185472	-0.85559934	-0.27152586	0.4410415	0.5913709	-0.21765436	-1.8218331	-0.342149	0.20137602	0.049441103	2.9281876	-0.17609695	-0.33083203	-1.2316759	-0.48885375	-0.049994744	0.96439177	1.2517942	0.28036612	-0.7817743	0.113578625	0.47507372	-0.35012695	0.2902743	0.73253965	-1.81236	1.1797199	-0.09251091	-0.2663261	0.5201915	0.519963	-0.58791375	0.16004679	-0.06784288	-0.43903348	-0.5282966	-0.31290862	0.052207194	0.8989157	1.7683547	-0.18084249	0.31813672	-0.16560817	0.089185156	0.38241845	0.3699892	0.25820565	0.6046966	0.35018706	0.3470288	0.1326744	0.20538852	-1.6408136	0.8309452	1.1850182	-0.99409145	0.6966702	0.23488444	0.82831126	-0.83359647	-0.44497073	-0.29877216	0.009304228	0.08301665	-0.6328168	0.04890955	-0.010059665	0.16489787	-0.06344763	0.30675477	0.046928108	-0.3580758	-0.6315712	-0.33203587	0.52274084	0.65702844	0.25016603	0.93532866	0.4271596	0.43953615	-0.95598394	-0.13688757	-1.4674643	-0.50701094	0.3663454	0.30390054	-0.21494047	0.19377694	0.0
GSM3068512	-0.29776895	0.38817605	0.040056363	0.3806726	-0.6018408	0.51153135	0.39182934	0.3053558	0.74505746	-0.7426962	-0.27249372	-0.009940906	0.20892493	-0.3520737	-0.21239184	-0.03302194	0.099793844	-0.32644668	-0.18493037	-0.4454424	0.11880049	0.040733065	0.48369431	-0.17587128	-0.9310347	0.20495385	0.29451567	-0.118478395	-1.2143302	2.3295343	-0.16968732	-0.50560874	-0.055242095	0.33327645	0.16916841	-0.76035285	-0.13355902	-0.12715393	0.13928348	-0.21394095	1.2614485	-0.818066	0.07937114	0.45275298	-0.42291996	-0.3639628	-1.8968854	-0.721888	-0.12185858	-0.065574035	3.0725465	-0.13429622	-0.4560812	-0.55038756	-0.41057137	-0.04974266	0.904482	1.1095197	-0.0052712467	-0.044748023	0.34433457	0.04798535	-0.66932523	0.27166995	0.47690675	-2.0067747	0.9389655	-0.1947155	-0.4213561	0.37264156	0.50006527	-0.545531	-0.16542658	-0.002898413	-0.3039935	-0.16151844	0.030795895	0.11757028	0.24226339	1.4749635	-0.4950179	0.00041199388	0.0075195977	0.10863165	-0.0015071848	0.42576307	0.32214248	0.567509	0.22091305	0.21281505	0.24824142	0.19510879	-2.1125736	0.91198057	1.3510467	-0.911418	0.65568	0.29192722	0.9993755	-0.8294276	0.29862034	0.060592055	-0.15480164	-0.36546826	-0.6608505	-0.14299725	0.24714746	-0.25021747	0.0034668448	0.07200658	0.13664828	-0.27740672	-0.072261676	-0.23085634	-0.057939388	0.07422211	0.34891063	0.7335771	0.13243815	-0.0036230527	-0.83279413	0.11128697	-1.2785742	-0.453854	0.19927694	0.49544477	0.27389997	0.11975083	0.0
GSM3068513	-0.18712544	0.39594504	-0.43266726	-0.14008836	-0.68021023	0.29696527	0.83823615	0.033600427	0.23253305	-0.83288234	-0.36640933	-0.05544366	-0.07310716	-0.28625622	-0.4947779	0.096443646	-0.5237987	-0.24923798	-0.25858247	0.31024596	0.2741563	0.12257108	0.06777679	0.10729909	-1.0329487	0.3920605	-0.2146381	0.30634364	-1.2698584	2.137978	0.31621867	-0.013770391	-0.24266982	0.010819376	0.08403981	-0.80643	-0.36093792	-0.21604243	0.25146517	0.2036081	1.2652708	-0.6951526	-0.3629936	0.30538422	-0.40006155	-0.4098055	-1.4194269	-0.83213586	-0.12455626	-0.34535038	3.0107396	-0.06029742	-0.46555483	-0.038382404	-0.44701666	-0.33819547	0.9014389	0.9838381	0.70574194	0.32062182	-0.49599746	-0.25974992	-0.2350054	0.24160239	0.5637905	-2.1177864	1.1436512	-0.28514245	-0.092035785	-0.06007939	0.54839754	-0.57885045	-0.11158889	0.14420506	-0.23702048	-0.068259895	0.29880512	0.07268431	0.61727923	1.1045972	-0.29275194	0.023792438	-0.13212234	0.1335417	0.2328971	0.2341233	0.683115	0.7253693	0.4763273	0.56300694	0.07941121	0.19304644	-1.9006228	0.76637655	1.1822037	-0.57038516	0.5520872	0.5284996	0.86018974	-0.87959117	-0.056885157	-0.24840865	0.03386952	-0.4937132	-0.6131681	-0.19178805	-0.47506797	0.025865685	0.101308584	-0.24055937	0.18163843	-0.35384792	-0.20174323	-0.028966323	-0.34885314	-0.33112302	0.43118638	0.8655483	0.37991062	-0.15768132	-0.82041216	0.12775816	-1.8207605	-0.84197855	0.16325592	0.6848497	0.036736175	0.10768125	0.0
GSM3068514	-0.19745663	0.188085	-0.35503677	-0.97488886	-0.14205545	0.017594675	0.62003434	0.16043262	0.69516736	-0.77262557	-0.20924175	0.019045755	-1.1401824	-0.86397755	0.5210629	0.15379214	-0.066753455	0.3254547	-0.031990103	-0.6527263	0.37102646	0.39183292	-0.12818742	0.06862306	-0.40608874	0.26049542	-0.06352523	-0.89530873	-1.0544704	2.402534	0.7742102	-0.7579989	0.33090794	-0.08711089	-0.2692817	-0.66862094	-0.27183187	-0.38557842	0.07976586	-0.3916693	1.0359486	-0.4330942	-0.24471661	0.38541275	0.71919316	-0.75016695	-2.1765068	-0.3666664	0.10309873	0.31540003	2.5985293	0.08068566	-0.9962339	-1.1703476	-0.19480456	-0.18669303	1.6361392	1.3564103	0.7793988	-0.6681672	0.37715185	-0.16298486	-0.8797521	0.36392304	0.72972924	-1.9121655	1.2158875	-0.3183608	0.04127703	0.71101415	0.46464604	-0.51599485	-0.17789115	0.26359922	-0.32305157	-0.59266365	-1.0096132	0.5042058	0.5100017	1.2911732	-0.26145115	-0.20523551	0.11444105	-0.13769354	0.91466314	0.49478635	0.21554539	0.5171954	0.16832305	0.07654874	0.29111415	0.25098762	-1.6895921	1.0866116	1.678474	-0.71842724	0.6516586	0.30429843	0.5265079	-0.8532695	0.32175887	-0.47325456	0.06870757	-0.18499163	-0.46466118	0.20522934	-0.06508797	0.24813071	0.18024857	0.5841904	0.42736465	-0.5965343	-1.2259821	-0.8474746	0.95467854	0.7176295	-0.4006499	1.1684961	0.9695928	0.6086901	-0.94987535	-0.23822036	-1.4555409	-0.6948095	0.49858853	0.24783748	-0.2528124	0.24455354	0.0
GSM3068515	0.06404657	0.065462545	0.030919017	0.21968174	-0.41421774	0.5026956	0.7251638	0.3400134	0.48202366	-0.88615936	-0.37025574	0.10963177	-0.03332947	-0.24467106	-0.36565787	0.064674765	-0.3779216	-0.18607874	-0.15233806	-0.09434262	0.09466274	-0.13464832	0.028873987	-0.07315623	-1.0031894	0.25355414	-0.23055798	-0.03380425	-1.1761653	2.111412	0.10398781	0.03255604	0.029473113	0.14189076	0.14890532	-0.8637554	-0.27546555	0.4973146	-0.06508861	0.0566957	1.1602817	-1.0044764	-0.21288756	0.439858	-0.12955953	-0.19358863	-1.5942664	-0.6064286	0.20036143	-0.08638232	3.0071032	0.053360075	-0.45382088	-0.37879238	-0.3370231	-0.0866189	0.8178037	0.9671751	0.2994949	0.08555101	-0.63344324	0.21339296	-0.7091584	0.23085439	0.5742607	-1.8744863	1.1841671	-0.21625832	0.029840486	0.63188577	0.653567	-0.42650065	0.0033219445	0.13239563	-0.25265774	-0.18373334	0.2923471	-0.35813546	0.7643207	1.4624667	-0.6707563	0.61707646	-0.20253846	0.1716542	0.2308344	0.2381179	0.6534675	0.6289291	0.1760568	0.3791823	0.03364477	0.4111185	-2.0109215	0.8893584	0.8825617	-0.52194756	0.7922069	0.31449214	1.0999681	-0.92573243	-0.22694704	-0.045999475	-0.11622335	-0.032946452	-0.6901174	0.19839194	0.036586598	-0.38099605	0.25692296	-0.20251359	0.8453605	-0.964287	-0.015412489	0.52538383	-0.1456117	0.043837517	0.47111756	0.94485533	0.22974949	0.28422838	-0.75993687	0.107931234	-1.3477286	-0.6851474	0.14784119	0.43741095	0.20603724	0.09461822	0.0
GSM3068516	-0.080229625	-0.20716473	0.27469113	0.27141866	-0.7232513	0.6471672	0.65610695	0.38392285	0.57959545	-0.8666875	-0.08651841	0.2952993	0.2551888	0.3873807	-0.18657368	-0.2315451	0.38130626	-0.24126424	0.07025288	0.45793504	0.24187395	0.2342897	-0.14809489	0.34381032	-1.0170275	0.15695988	-0.10713081	0.45952013	-0.91876525	2.2268672	-0.006991302	0.16316836	-0.12503715	-0.017122056	0.0974486	-0.8065534	0.07230646	0.38477913	-0.035775483	0.4811471	1.1299247	-0.7773708	-0.41266054	0.31671658	-0.2598954	0.24771655	-1.4651992	-1.022806	0.010306865	-0.17751998	3.0192919	-0.13882299	0.402878	0.27141383	-0.25934508	-0.12583052	0.7260194	0.5632124	-0.6464711	0.014949389	-0.039825745	0.5489517	-0.5210069	0.30180025	0.616303	-2.2579563	1.169071	-0.20654953	-0.35194117	-0.5387181	0.6258539	-0.6365171	-0.25640613	0.06294462	-0.009916344	-0.24855112	0.37216792	-0.2639882	0.7047394	1.1599985	-0.115313694	0.014639933	-0.49918386	0.038881745	-0.17800052	-0.30398864	0.69430274	0.60627866	0.38293836	0.14439915	0.10457135	0.33035502	-1.9792103	0.97023904	1.1183703	-0.5891641	0.4440824	0.07546504	1.165465	-0.8952333	-0.29068142	0.3164748	0.26174527	0.036334157	-0.53448695	0.1081165	0.121034935	-0.46371183	0.08271287	-0.29373443	-0.22218773	-0.1508002	0.17218922	0.21680886	0.17181522	-0.20402226	0.38566113	1.1193852	-0.20378365	-0.041539576	-0.87031376	-0.041389056	-1.551698	-0.76224643	0.009390319	0.71631676	0.3555543	0.088186696	0.0
GSM3068517	-0.8593983	0.92711985	-0.120891444	-0.41057175	-0.30944034	0.17641562	0.52340066	0.15978329	0.38077968	-0.85796475	-0.26739603	-0.10409285	-0.48927072	-0.61147714	0.049821857	-0.05445171	-0.19729905	-0.38023022	-0.08936357	-0.68703496	-0.034889508	0.23991697	0.014171113	-0.3246552	-0.4230663	0.21035233	-0.03530819	-0.11767695	-1.0566962	2.0826592	0.95589215	-0.48036847	-0.2773566	-0.15632696	-0.13166696	-0.61650914	0.05485045	-0.22562428	0.51753414	0.16928405	1.1024202	-0.47394693	-0.33645952	0.31723824	-0.1377428	-0.94479704	-1.817384	-0.28057212	0.050795123	0.008134609	2.9074016	0.036040694	-0.980083	-0.7625896	-0.31459245	-0.20481575	1.1180397	1.074545	0.9119934	0.035837706	0.22784612	-0.55925804	-0.65326035	0.3064101	0.81852025	-2.0722358	1.1293024	-0.35752064	0.516205	0.49986625	0.50726074	-0.5368346	-0.11660275	0.23432842	-0.22194795	-0.1758237	-0.23220441	0.6469787	0.36922425	1.2765187	-0.075714335	-0.363657	0.15792908	0.21609953	0.60579073	0.38667935	0.2420576	0.47585556	0.27441606	0.21468346	0.22150363	0.3976301	-1.9220387	0.87887853	1.2336836	-0.7576365	0.67183596	0.18827587	0.6100248	-0.7851338	0.18401456	-0.45079798	0.0055714515	-0.142214	-0.46788988	0.07047744	-0.6102209	0.2736874	0.039711546	0.20239677	0.38198048	-0.4279223	-0.48899335	-0.6578055	0.23359264	0.027141608	0.021616494	1.3079914	0.738333	-0.30424318	-0.9439636	0.040281847	-1.3540761	-0.74195445	0.22116798	0.21197595	0.1196639	-0.05362788	0.0
GSM3068518	-0.70247084	0.3568866	-0.1664119	0.023239024	-0.31631112	-0.09356559	0.47150573	0.19841692	0.15226875	-0.50668347	-0.5802922	-0.15723059	0.17432746	-0.2750845	-0.15423635	0.05865706	-0.4269745	-1.285562	-0.20975648	-0.27213675	0.12988213	0.075878195	0.11164519	-0.6126991	-1.0386254	0.2781924	-0.059063286	0.17713349	-1.4808835	1.9959666	-0.064420775	0.082089305	0.080978625	-0.19834836	0.42140737	-0.7847183	-0.090579	0.058476813	0.67728716	0.7022083	1.3450426	-0.8991631	-0.033809073	0.43626803	-0.41158268	-0.3970187	-1.87023	-0.68759394	-0.16536279	-0.04767662	2.6560524	-0.105013676	-0.6504339	-0.124633454	-0.18999842	-0.1405745	1.039615	1.1763698	0.8920553	0.41404828	-0.33275345	-0.25049776	-0.21224856	0.04036694	0.58688617	-1.9356613	1.1732203	-0.4078507	0.1768877	0.27137762	0.49355844	-0.46768284	-0.0036662328	-0.15684944	-0.2138833	-0.07323686	0.99343944	-0.14037518	0.96006894	1.5824847	-0.59614706	-0.017475301	0.16056079	0.011502036	0.023242338	0.23388825	0.43804488	0.59258187	0.17109184	0.318902	-0.018480616	0.21781677	-2.2812903	1.0147071	1.072872	-1.1630975	0.582021	0.15842894	0.5572532	-0.710317	-0.16916281	-0.0856385	0.086307354	-0.19229594	-0.5074887	-0.23776841	-0.8247796	0.36723357	0.013875371	0.00617622	0.2502007	0.39447686	0.12689458	-0.18599871	-0.88021976	-0.4646567	0.3752949	0.85759395	0.30932266	-0.15695798	-0.9396329	0.1709087	-1.6330607	-0.71680593	0.14775573	0.26125276	-0.09638327	0.21204174	0.0
GSM3068519	-0.49380007	0.06138223	0.09846232	0.4217658	-0.35571724	0.25211775	0.57375777	0.21011037	0.062908925	-0.48279047	-0.49981794	-0.1282215	0.44433194	0.8408076	-0.108913794	-0.71730185	0.36045215	-0.38414204	0.16060372	-0.29623365	0.20130973	-0.058141492	-0.19632773	-0.4710105	-1.2292879	0.13311304	-0.22064406	0.13303146	-0.9828672	2.1800096	-0.30289334	-0.06669704	0.015679495	0.12523536	0.25206926	-1.0175991	0.08393406	-0.25582236	-0.21454223	0.050834235	1.0331717	-0.92462385	-0.21827672	0.3720397	-0.074180916	0.41135553	-1.644507	-0.92541754	0.04665367	-0.1283748	3.0604353	0.36912698	0.48329416	0.7221429	-0.26800928	-0.11119902	1.1921469	1.2124704	-0.18531002	0.264188	0.34822562	-0.5273964	-0.5948894	0.27122998	0.5502636	-2.0624175	1.1801068	-0.24359177	0.13187471	0.2580356	0.47992674	-0.6297113	0.244669	-0.052432876	-0.11114314	0.5361065	0.15722843	0.51850456	0.76697487	0.74057686	0.6118911	-0.09100359	0.23640846	0.25209716	-0.43417132	-0.68977535	0.69615674	0.7162319	0.29173583	0.4825637	0.24716745	0.11678078	-1.7362052	1.2801	1.3383592	-0.38169023	0.95587295	0.35402167	0.77487326	-0.78748477	0.05182091	0.41970077	0.3930764	0.17567722	-0.8366066	-0.015394354	0.059386406	0.5815725	-0.08228184	0.090868436	-0.38163668	0.37779155	0.9084365	-0.2965453	-0.3866403	-0.3510084	0.4561613	1.002233	-0.3319696	-0.33999446	-1.0152935	0.03912322	-1.8957634	-0.78565633	0.2998809	0.04124102	0.07585436	0.36394083	0.0
GSM3068520	0.12989096	-0.38064054	-0.9650426	-1.551898	-0.42311063	-0.08623317	0.42078102	0.2011441	0.51684064	-0.66314137	-0.35817418	-0.052090183	-1.0565304	-0.06230544	0.6136565	-0.022230374	0.2798688	0.72691065	0.2776621	0.26072106	0.22348528	0.36224365	-0.88882005	0.15080903	-0.5959477	0.26876047	-0.12917629	-0.4297231	-1.2959787	2.2451856	0.39606655	-0.6001476	0.006812533	-0.026304333	-0.09015584	-0.827568	-0.35129067	-0.6068027	-0.30417618	0.36095917	1.1032509	-0.6324724	-0.32822993	0.33345923	0.3822115	-0.3905283	-1.9543582	-0.4384834	-0.0138073275	0.30334017	2.4821067	-0.077592656	-0.35076046	-0.10635952	-0.24048327	-0.4386028	1.4553674	1.2384955	0.56599283	-0.33338732	0.5137932	-0.2320012	-0.4887367	0.15398407	0.8513214	-2.1728272	1.1130953	-0.56813323	-0.02852857	-0.62407035	0.37909678	-0.4628862	-0.2745727	0.1589176	0.49113423	-0.21075301	-1.6712792	0.47675303	0.8089849	1.1509079	0.2570695	-0.73726124	-0.062385615	-0.18561588	0.6277794	0.15758167	0.27767703	0.44082803	0.1799367	0.16796309	0.31400687	0.07366368	-1.8653909	1.1817088	1.2399359	-0.70637417	0.5462558	0.021320526	0.43575782	-0.6821819	0.44087538	0.07652651	0.6246509	0.09313041	-0.38872087	0.060311068	0.6212054	0.20815994	-0.036278844	0.48660767	-0.28984442	0.3644911	-1.2254148	-0.99910545	0.8610313	0.27367565	-0.3221523	1.1649766	0.52862453	0.2194102	-1.1216745	-0.021951444	-1.6741794	-0.96120155	0.2659866	0.14146927	-0.23797928	0.31750268	0.0
GSM3068521	0.1084321	-0.1872977	0.50812846	0.69808334	-0.43970114	0.27827364	0.84125733	0.40767825	0.6699457	-0.78081286	-0.30786148	0.17727254	0.50156575	0.55316436	-0.23361537	-0.21165483	0.075548865	0.1349979	-0.07826777	0.25965267	0.34704491	0.30387375	0.0320727	0.075778015	-0.84515214	0.1686848	-0.04935203	0.23499419	-0.8582764	2.3278859	-0.11783445	0.3151644	-0.024509665	0.29206118	-0.22891007	-0.7812065	0.090040885	0.22070466	-0.031420954	-0.052879006	1.1493248	-0.74840134	-0.29575834	0.29812258	-0.017963434	0.61769253	-1.6677963	-0.42472348	-0.06514307	0.15579695	2.8257446	0.025841504	0.37626728	0.27447516	-0.4552594	-0.15494424	0.98937285	0.9143983	-0.65527624	0.17721058	-0.088206194	0.07354781	-0.82769984	0.48604378	0.78251994	-1.8528484	1.094069	-0.30978703	0.028833121	0.002042921	0.48336104	-0.7605838	0.066056125	0.31772497	0.06750969	0.23952395	0.38249943	-0.3900371	0.5521239	1.2794095	0.4663146	-0.045129664	-0.19103463	-0.107285984	-0.42209464	-0.31241795	0.5394504	0.83045083	0.2883302	0.26204666	0.21511978	0.27000102	-1.7254356	0.94925946	1.0872308	-0.63731647	0.85088044	0.21308024	0.9588774	-1.0435445	-0.030860042	0.15136294	0.10522554	0.17263804	-0.71114	-0.021791648	0.30554613	-0.1893834	-0.103967965	-0.04829457	-0.64703774	0.21597956	0.4939744	0.44329867	-0.32942215	-0.21066129	0.013884689	1.0407176	-0.25412282	-0.18890868	-0.8702456	-0.10596567	-1.5702163	-0.6174013	0.42703122	0.33915016	0.18153791	0.25514343	0.0
GSM3068522	-0.11266331	0.09190366	0.28171992	1.0890602	-0.3324477	0.12524045	0.6938512	0.29333022	0.41566062	-0.6091377	-0.48587078	-0.09783062	0.7590574	0.06859948	-0.021339409	0.042736694	0.5558808	-0.11093614	-0.05343081	-0.32063407	-0.14828104	0.13363013	0.041574173	-0.51457745	-0.79406667	0.18029538	0.4997212	0.13154556	-1.206776	2.2918303	-0.24210672	-0.4691306	0.0785778	0.11082113	0.14731205	-0.85292417	0.4330933	-0.044114873	0.11893975	-0.063789494	1.3855054	-0.85427207	-0.22781542	0.2833169	-0.8172757	0.39879107	-1.4633642	-0.87305295	0.1437606	0.09967934	3.136498	-0.05794763	0.1812871	0.20718625	-0.34562165	-0.009453116	0.9755187	1.048298	-0.94041795	-0.17926106	0.54052484	-0.15007727	-0.5267715	0.22278261	0.5435941	-1.9410259	1.0952181	-0.2798679	-0.11234209	0.0019921793	0.63769937	-0.49311683	-0.008549804	-0.07037193	0.28143036	0.16809712	0.43577155	0.34472644	0.5382105	1.3884748	0.23126203	-0.052910905	-0.23655339	0.062598184	-0.44513813	-0.10179779	0.45053813	0.6320627	0.17459045	0.07397162	0.27074552	0.3594526	-2.215069	1.0869608	1.2502608	-0.8691409	0.6054344	0.2511382	0.92029536	-0.7910958	0.35235143	0.22818327	0.22219141	-0.55680394	-0.62211394	0.0009924177	0.3123093	-0.4417969	-0.13165562	-0.24713619	-0.30992666	0.06827598	0.30691558	0.22320391	-0.16722064	-0.2226532	0.3720661	0.7699302	-0.56170654	-0.778252	-1.0896624	0.19003725	-1.3834264	-0.49824175	0.055118356	0.34328708	0.265976	0.2511828	0.0
GSM3068523	-0.76220626	1.0490869	-0.16858728	0.010222232	-0.3228159	0.045221716	0.5228457	0.18911538	0.42132485	-0.75519407	-0.44527948	0.006988712	-0.37976408	-0.6602306	-0.08858297	0.11888818	-0.55881315	-0.5212122	-0.45714685	-0.6296399	0.13510291	0.1580566	0.14438011	-0.017275346	-0.7908499	0.09454544	-0.24748646	0.026341164	-1.1769984	2.3177369	0.6610103	-0.7358155	-0.16144383	0.12595008	-0.094961226	-0.69435656	-0.35166854	0.038420655	0.44158703	0.26389492	1.1938895	-0.7952488	-0.2184949	0.15783805	-0.07140184	-0.49977556	-1.3985728	-0.639156	-0.13716373	-0.058406767	3.1433368	0.24441169	-0.7698031	-0.16569684	-0.34275213	-0.05609893	1.2879686	1.1043643	1.0070069	0.25955597	-0.13996029	-0.84456915	-0.6888319	0.23067458	0.7121726	-2.0092907	1.1118362	-0.52276355	0.7450352	0.7098733	0.42562303	-0.51835	-0.008359734	0.04814027	-0.39648485	0.10390705	0.289938	0.2500914	0.7367219	1.3345131	-0.14465271	-0.06366862	0.22498854	0.04138949	0.60757744	-0.07571509	0.40269393	0.6092578	0.40782005	0.2589324	0.23767082	0.29774264	-1.9670466	1.0849501	1.0958759	-0.7572054	0.78514075	0.18259504	0.70711255	-0.7894358	-0.11386277	-0.47877213	0.11964758	-0.04381637	-0.3732656	-0.15367739	-0.86096394	0.06632107	-0.01019544	-0.12278643	0.42816013	-0.7098553	-0.046820298	-0.17941017	-0.26187813	0.21226895	0.27528843	1.0561934	0.9049842	-0.21016255	-0.9756569	0.10645521	-1.5147421	-0.7458202	0.07151014	0.40119234	0.09398858	0.19791219	0.0
GSM3068524	-0.282059	0.42101118	-0.3125848	-0.20337518	-0.3072448	0.38480246	0.5317873	0.40760946	0.55472505	-0.50289863	-0.35927555	-0.16552223	-0.5198794	-0.9223131	0.007753367	0.22730705	-0.42607594	-0.34902772	-0.008320502	-0.38215807	0.08962787	0.2702534	0.24019682	0.037715945	-0.7164009	0.22946696	0.11892481	-0.7075038	-1.0450865	2.2079835	0.10794092	-0.2379239	0.15519792	-0.052365284	0.11620959	-0.73060155	-0.22586638	0.020701213	0.14327703	-0.34433347	1.2610518	-0.7253126	-0.54207885	0.5157452	0.33971226	-0.41644734	-1.5663621	-0.6265587	0.31116405	0.19306923	3.1366723	0.061968554	-0.60408175	-0.9091624	-0.28938118	-0.11498654	1.0283678	1.1608628	0.73584676	-0.06939374	0.06286076	-0.019522037	-0.58213395	0.26192218	0.5972649	-2.033176	1.249171	-0.21835618	-0.20590541	0.656956	0.40824208	-0.45128363	0.015545737	0.022395551	-0.21734263	-0.4201425	-0.39834136	-0.16206546	0.42904413	1.280219	-0.39863974	-0.07983635	-0.07149136	0.28529742	0.39851004	0.6905509	0.292905	0.5242134	0.17328158	0.11602491	0.38750747	0.36886585	-1.7663051	0.7038859	1.3351405	-0.81192803	0.7970299	0.19252679	0.9076053	-0.9240018	0.19864738	-0.17019401	-0.2069272	-0.16329499	-0.5898682	0.11623367	-0.11641699	0.099407814	0.20183557	-0.016642444	0.64539045	-0.6349898	-0.6594846	-0.11367873	0.22464922	0.33028203	0.44077554	1.0917152	0.71072	0.7776837	-0.7397978	-0.0355591	-1.5242692	-0.67394	0.3345354	0.2755729	0.0683121	0.3920911	0.0
GSM3068525	-0.17974101	-0.38584048	0.15461953	0.14467205	-0.4894996	0.2636377	0.42764774	0.2910597	0.20256302	-0.68493325	-0.53872377	-0.290406	-0.01601018	-0.08607856	-0.22371839	-0.3403413	-0.2183382	0.2842992	0.1165204	0.3347721	-0.15540794	-0.03397356	-0.068074904	0.04491161	-0.795931	0.3583758	-0.095118105	0.31439224	-1.3064746	1.9564042	0.18113445	0.18216969	-0.05383442	-0.028437266	-0.008921822	-0.9267353	-0.12376103	0.265918	-0.24181469	0.17568024	1.3430578	-0.955664	-0.44082904	0.47055885	-0.019915966	-0.10814835	-1.1280118	-0.8476399	0.18937877	-0.07235676	3.2392275	-0.017552614	0.08118042	0.076859534	-0.40281403	-0.09763218	0.67045486	0.8779388	-0.07587082	0.03394757	-0.01791554	0.44897434	-0.30434713	-0.055083137	0.39330065	-1.9025488	1.0721364	-0.3835682	-0.2193761	0.0770261	0.49600112	-0.7198685	0.2985657	-0.12624718	-0.05162568	-0.19958302	-0.040554207	-0.39303902	0.586751	1.1618923	0.019349612	-0.023408132	-0.41540688	0.11683431	-0.38020882	-0.0121836085	0.48776436	0.6682108	0.29844174	0.17524399	0.21493465	0.26365906	-2.349875	1.0589552	0.9523839	-0.58518755	1.0943007	0.26569396	0.6302998	-0.8109294	-0.21249875	-0.15876272	0.06520607	-0.06065068	-0.63148296	-0.107531056	0.23318955	-0.29171732	-0.072157584	-0.3252062	-0.028989939	-0.086086415	0.040779393	0.07884969	0.052163325	-0.15749392	0.5520014	1.0169114	-0.25635114	0.03048639	-1.114847	0.3373673	-1.4797769	-0.83470815	0.17732956	0.3076118	0.056979496	0.21602775	0.0
GSM3068526	-0.3772971	-0.19063568	-0.83472896	-0.7154687	-0.35348624	0.08149501	0.44598457	0.1382622	0.7011263	-0.96001226	-0.249693	-0.0043702857	-0.2736832	0.43733042	0.15598619	-0.16755983	0.07996032	0.056272186	0.1347661	0.67813855	0.27616736	0.32540533	-0.6153811	0.22109812	-0.5361605	0.33420092	-0.18746972	0.17196181	-1.155403	2.2710814	0.6943445	0.16444045	-0.78223854	0.044001512	0.028849224	-0.64321685	-0.55344266	-0.47419125	0.09202403	0.5028161	0.81379634	-0.66864276	-0.51603	0.5481962	-0.13883314	0.033499483	-1.8788974	-0.4329688	-0.18468991	0.075395495	3.0323334	0.13708808	0.10298848	0.6388666	-0.2245903	-0.202644	1.2563348	0.98270285	0.12657878	0.16897061	-0.15131803	-0.43342397	-0.7740978	0.24559477	0.8225136	-1.9799924	1.2800425	-0.36166933	0.1804673	-1.1062918	0.5228744	-0.4746292	-0.07281338	0.21359554	0.6633814	0.21355477	-1.0509025	0.14242746	0.5396043	1.0782509	0.39512944	-0.50356364	0.16810356	0.2116828	0.29205754	-0.3330143	0.13070925	0.41993338	0.45756444	0.1849791	0.171799	0.32859778	-1.8670186	0.84361714	1.231313	-0.71851623	0.58071226	0.100103684	0.5515054	-0.55399835	0.2591384	0.090570286	0.38856104	0.24236141	-0.5629247	0.053286187	0.22006218	0.019763295	-0.02329214	-0.13123702	-0.57552296	-0.01184493	-0.34177428	-0.27421147	0.07870534	-0.13031696	-0.111390725	1.3542161	0.04720716	-0.34369665	-0.8846481	-0.06310099	-1.4336023	-1.0338835	0.2440339	0.08628657	0.09199749	0.26400265	0.0
GSM3068527	0.000118157324	0.037990216	0.1833907	-0.0835346	-0.3892202	0.24418236	0.5876443	0.3983583	0.34927055	-0.42904907	-0.7262977	-0.2623697	0.42890534	-0.024307052	-0.15680496	-0.43589014	0.36047953	-0.7500934	0.06733537	0.13725291	0.44477803	0.12648311	0.3939604	0.009893837	-0.80187494	0.40925846	0.04818291	0.37908903	-1.3643185	1.8364323	-0.6101919	7.702137e-05	0.08739558	-0.14200011	0.018723855	-1.0448858	0.13060108	0.11697762	0.35530463	0.16056068	0.8945124	-0.59846145	-0.2922473	0.6561845	-0.510378	-0.23308302	-1.7114091	-0.9109874	0.13657974	-0.070041366	2.8232672	0.03948986	0.5868857	-0.014848091	-0.26448402	0.0021145248	0.8531425	0.74721366	0.20809706	0.504702	-0.20187366	0.5692882	-0.2703947	0.012126378	0.5824337	-1.965072	1.2178798	-0.4860315	-0.42641637	0.036745034	0.5045007	-0.41425055	0.03248328	-0.19993536	0.21826574	-0.13583985	0.2866061	-0.74539185	0.5100084	1.4465374	-0.40204915	0.23142256	-0.28696033	0.40159038	-0.5478986	0.22068639	0.5223954	0.7707982	0.15975845	0.12253399	0.21445735	0.6536585	-1.702939	1.0341818	1.3062489	-1.2056943	0.92186445	0.20961107	0.8476287	-1.0491618	0.20898639	0.12955144	0.18507849	0.043692656	-0.58836854	-0.07385169	-0.34113958	0.21044827	-0.14246951	-0.2671656	-0.045928124	0.22014551	0.23265022	0.49699554	-0.5337023	0.20949137	0.096934274	0.83648187	-0.6618952	-0.16497403	-0.8915138	-0.085037485	-1.3087785	-0.9791453	0.28692627	0.4664983	0.09072055	0.38189286	0.0
GSM3068528	-0.53036374	0.2271597	0.2600623	0.62805045	-0.55302554	0.32373962	0.32081	0.36114657	0.45134848	-0.5844184	-0.5873336	-0.3342458	0.5547578	-0.1285288	-0.39209017	0.3296888	-0.27238917	-0.49119365	-0.46538693	-0.11208139	-0.0443702	0.312273	0.3179146	-0.35046336	-0.8181292	0.38241917	-0.31214106	0.8338761	-1.4260225	2.2548256	0.3047875	0.2448864	-0.24040435	-0.058769323	-0.36047935	-0.9260509	-0.3546588	0.18108083	0.57869625	0.41288683	1.1454384	-0.56891686	-0.34188917	0.33048546	-0.7906868	0.2635548	-1.6785712	-0.6989588	0.007435369	-0.18910654	2.9341435	0.06353856	-0.34738252	0.22886059	-0.33496797	-0.30097494	1.1576627	1.2593458	-0.024063654	0.5897136	-0.41701266	-0.2923785	-0.4376702	0.22892116	0.82951367	-2.005526	0.98603487	-0.42523524	0.5440967	-0.16260374	0.56915796	-0.69073445	-0.2909939	-0.17797291	0.100146115	0.21502289	1.0000538	-0.0964895	0.46560192	1.2714318	-0.35985616	0.012492986	-0.0257854	0.0038103426	0.17881055	-0.3627084	0.32964826	0.5908716	0.4495761	0.3671303	0.2934283	0.18869814	-2.0152535	0.9965728	1.1537678	-0.917159	0.55624896	0.24630225	0.8046292	-0.94713813	0.0971674	-0.10406546	0.099377066	-0.26468936	-0.7035279	0.010895423	-0.8489979	-0.51050013	0.13159497	-0.25091076	0.031252842	-0.588515	0.43468195	0.49753588	-0.7720948	-0.309526	0.39100412	0.83877385	-0.0008171058	-0.72781885	-0.98747367	0.23699552	-1.7119328	-0.7162381	0.11718901	0.36029375	0.04017281	0.21288386	0.0
GSM3068529	-0.22509365	0.09360999	-0.034633458	0.0010787982	-0.41470748	0.34769022	0.7290908	0.4479137	0.7573263	-0.7843467	-0.3208363	0.04756795	0.22733544	-0.05211515	-0.38621268	-0.2078188	-0.10704656	-0.40734887	-0.22486465	0.19965047	0.4131218	0.23799936	0.14040604	0.050426055	-0.9571091	-0.032980908	-0.17596681	0.41449085	-1.1842377	2.3975537	0.42922872	-0.071100876	-0.21843092	0.3475428	-0.078126445	-1.0597048	-0.097481824	-0.22896032	0.46985066	0.1916224	1.3757266	-0.6578102	-0.40145865	0.36378884	-0.24206229	-0.15960667	-1.4622473	-0.866105	-0.10691675	0.054530643	3.130862	-0.007272269	0.08932933	0.20713669	-0.5520898	-0.17829122	1.1941476	1.1267385	0.073631465	0.44091946	-0.29151273	-0.318334	-0.7884172	0.26639572	0.64058155	-2.1288273	0.88937	-0.27731645	0.2645615	-0.029200146	0.5022519	-0.59403235	0.009295153	0.10419876	0.15268159	0.28793746	0.4165426	-0.19236386	0.6954456	1.6316075	-0.072937675	0.016284807	-0.091625676	0.27181804	0.019032672	-0.13525607	0.4404806	0.8578268	0.44595763	0.31026763	-0.008180827	0.3593076	-1.7719532	0.8481011	1.2509468	-0.5653557	0.66113997	0.30035603	1.0269891	-0.91166526	-0.0048776013	-0.18724395	0.0151303215	0.20502971	-0.8823495	-0.016919581	-0.12361494	0.17011124	-0.11316641	-0.3422241	-0.14085653	0.084436856	0.33576825	0.21311519	-0.46040887	-0.25347817	0.2931974	0.84663916	-0.2893557	-0.3561964	-0.77497005	0.08763891	-1.6592938	-0.6585372	0.26350552	0.37564215	0.31365833	0.32989028	0.0
GSM3068530	-0.1903804	-0.091676764	0.19554944	0.6282649	-0.05470421	0.032831777	0.6425901	0.044211186	0.59505165	-0.60499406	-0.5423252	-0.26184157	0.529558	0.8360888	0.0030738052	-0.27873805	0.19708811	-0.14049752	0.34416312	-0.28923622	0.392969	0.30618182	-0.10474844	-0.39885485	-0.74121255	0.36789778	-0.36031157	0.4070203	-1.048244	2.1458054	-0.44678712	0.28099108	-0.1729182	-0.3150506	-0.17055324	-0.7794011	0.4685674	0.24874662	-0.3144411	-0.09679829	1.2154346	-0.622265	-0.37423834	0.5051134	-0.071254246	0.7429505	-2.180422	-0.59437966	-0.25989562	0.09884701	2.41632	0.16872722	0.37368256	1.2183276	-0.22391498	-0.27243534	1.4073362	1.2187226	-0.37412062	0.48964667	0.10061854	-0.72436535	-0.7860644	0.3394616	0.44751352	-2.0374606	1.2641715	-0.31648394	0.12634507	-0.045039818	0.4518369	-0.3983626	-0.08762059	0.011789241	-0.3530535	0.616665	0.6653833	0.29535016	0.53670776	1.2641493	0.4893679	0.33777496	0.37897053	-0.15226175	-0.23198253	-0.55265856	0.18950269	0.5356716	0.064827435	0.124119245	0.3116437	0.18046516	-1.6300079	0.9897322	1.2942612	-0.6449778	0.47609296	0.21741737	0.7637696	-0.68436104	0.19706388	0.24828506	0.08520485	0.2903926	-0.5659853	0.12243137	0.25065926	0.22607549	-0.30515414	0.54086393	-0.08353072	0.7974939	1.4405506	0.3185263	-0.28460702	-0.64844376	-0.22981161	1.1856532	-0.15251446	-0.06524518	-0.7606296	0.07722292	-1.7760618	-0.83406806	0.27048302	0.13564098	-0.30716917	0.30614725	0.0
GSM3068531	-0.12456974	0.15029486	-0.057386212	-0.12152583	-0.4964854	0.36689806	0.6856677	0.42519966	0.56131405	-0.87100977	-0.47865212	-0.093630776	-0.17078748	-0.020269522	-0.16932754	-0.13515045	0.0960323	0.15995383	0.024330892	0.15955962	0.38945147	0.25230393	0.11489977	0.011007218	-1.0871341	0.22044379	0.082862444	-0.08305621	-1.2567697	2.2284565	0.30757695	-0.458049	-0.40862197	0.5495698	-0.039805446	-1.083842	-0.11688603	-0.2205111	0.21398261	-0.17321344	1.2390674	-0.8155891	-0.43705162	0.38778293	-0.084561944	-0.15328035	-1.5410267	-0.7716015	-0.10749194	0.04115386	2.984926	0.3117961	-0.0073881093	-0.28162628	-0.53169286	-0.19501783	0.84529185	1.0361923	-0.081848264	0.072928175	0.27264988	-0.23607053	-0.7150716	0.5683355	0.88644946	-1.9044201	0.6257527	-0.17833227	0.10157694	0.13316724	0.51987743	-0.742619	-0.02529031	0.06537903	0.13898699	0.10239683	-0.622433	0.07102595	0.47186846	1.2360183	0.18480352	-0.14825682	-0.06416403	0.14548628	0.2020876	0.20953429	0.49556208	0.78097504	0.44319433	0.26978087	0.34235126	0.43539503	-1.7149011	1.0303565	0.98811436	-0.87220997	0.71338224	0.29449812	1.1797318	-1.0580146	0.35867265	-0.16212454	0.0056023225	0.18859443	-0.7432632	0.050025884	0.19440332	-0.17788866	0.13872929	-0.1047038	-0.26074535	-0.39402783	-0.1684567	-0.1863428	0.38422394	0.08700902	0.25984138	0.75403494	0.10695633	-0.10187713	-0.62216175	-0.095232084	-1.6246849	-0.60614747	0.39903498	0.47767237	0.14627995	0.13004795	0.0
