	Component_1	Component_2	Component_3	Component_4	Component_5	Component_6	Component_7	Component_8	Component_9	Component_10	Component_11	Component_12	Component_13	Component_14	Component_15	Component_16	Component_17	Component_18	Component_19	Component_20	Component_21	Component_22	Component_23	Component_24	Component_25	Component_26	Component_27	Component_28	Component_29	Component_30	Component_31	Component_32	Component_33	Component_34	Component_35	Component_36	Component_37	Component_38	Component_39	Component_40	Component_41	Component_42	Component_43	Component_44	Component_45	Component_46	Component_47	Component_48	Component_49	Component_50	Component_51	Component_52	Component_53	Component_54	Component_55	Component_56	Component_57	Component_58	Component_59	Component_60	Component_61	Component_62	Component_63	Component_64	Component_65	Component_66	Component_67	Component_68	Component_69	Component_70	Component_71	Component_72	Component_73	Component_74	Component_75	Component_76	Component_77	Component_78	Component_79	Component_80	Component_81	Component_82	Component_83	Component_84	Component_85	Component_86	Component_87	Component_88	Component_89	Component_90	Component_91	Component_92	Component_93	Component_94	Component_95	Component_96	Component_97	Component_98	Component_99	Component_100	label
GSM6249277	-0.10751317	0.88300884	-0.18315804	-1.2205241	1.1805959	0.58840245	-0.2173029	-0.018722994	-0.06103374	0.9249928	0.11796104	-0.64425105	-0.24548432	-0.40160555	-0.19699036	0.021979103	1.026849	-0.15936783	-0.031368345	1.1206632	-0.33829945	-0.5472043	0.062338054	0.92400444	0.56589884	0.40763292	0.7846492	-1.0123674	0.3484792	0.6219469	-0.9714187	0.4639106	0.14185391	0.43714064	0.16279617	-0.23332383	0.41155654	0.42793462	1.1947808	0.319533	-0.96373636	-0.47147304	0.025118258	-0.33570012	-0.49531144	-0.57543206	0.2779218	0.010880884	0.6627061	-0.47416472	-0.71004796	-0.29008403	0.5611946	0.2743829	0.13056082	0.21907675	0.3109856	-0.21557915	-0.21785997	-0.38489503	0.13886242	0.6019952	0.85094756	-0.15339276	0.722655	1.002111	0.016790578	0.2801045	-0.50706244	0.70258546	0.5845715	0.32613656	-0.99895155	-0.13470753	-0.1502272	-0.25858498	-0.70401585	-0.51015925	-0.47124976	0.2004826	-0.14405178	0.023181938	0.54036117	0.23096575	0.30900887	0.10749749	-0.21604784	0.9278629	0.3148156	-0.65547836	-0.74759185	-0.06177742	-0.16523252	-1.6627631	0.34590515	-0.40660006	-0.27243143	0.43175444	-0.02758406	-0.7908343	0.0
GSM6249278	0.31350067	0.014298412	0.38163868	-0.070754714	0.08038825	0.042084347	0.09531543	0.3453676	-0.25606623	0.07122617	0.18552923	-0.06911253	0.27263525	0.30487713	-0.04481221	-0.16396351	0.24414884	0.07638626	-0.16917565	-0.00039274374	-0.24230996	0.61502624	0.4082602	0.03308141	0.21895143	0.38781968	-0.12655385	0.5378833	-0.6916162	-0.06510569	-0.118011594	-0.3175807	-0.5278854	-0.05669929	0.17751722	-0.18182842	-0.3629	0.12548395	0.027777933	-0.23440401	0.45420855	0.42139763	0.49291992	-0.054011736	0.24644056	-0.09316064	0.40231365	-0.016662607	-0.19450437	-0.026168372	0.30683887	0.1286664	-0.13236095	-0.5074155	0.42357144	-0.082163334	0.081231445	0.3994245	-0.2856749	0.11886367	-0.27240995	0.33167368	0.8922481	-0.15785658	-0.4318264	0.0069624474	0.13141747	-0.24360576	0.42523894	0.21577743	0.2550805	0.486034	0.488469	-0.49536914	0.13866043	0.27948868	-0.0946489	0.5240019	-0.028334342	-0.36047515	0.27720433	0.16143017	-0.9342303	-0.47988307	-0.032291193	0.1511219	0.43975884	0.51800317	0.059585355	0.09617286	0.48284024	-0.26613796	0.260266	0.31811294	0.64553523	0.057327565	0.089200675	-0.056869823	0.64407706	-0.20178202	0.0
GSM6249280	0.3990991	0.22460909	0.6459544	-0.18409474	0.15709165	0.4356941	0.25482762	0.24077797	-0.10400524	0.17077783	0.1764393	-0.1519903	0.71755916	-0.053003427	0.57655036	-1.0763224	0.05594737	-0.00019620973	-0.24054895	0.58835614	-0.20431353	-0.22281243	0.9570917	0.9687255	-0.44888386	0.5121992	0.8406362	-0.30882546	-0.42849427	-0.6454475	0.03587504	-0.15336451	0.068591654	0.27023232	-0.15660621	-0.5500241	0.005807824	0.13413438	-0.14230365	-0.14381287	0.1655265	-0.44382718	0.028268581	-0.44150364	-0.066356614	-0.007962845	-0.037247542	-0.022323277	-0.1441241	-0.56170654	-0.07459296	-0.15142411	-0.44942987	1.0547506	0.5043168	0.33586815	0.5663926	0.18810292	-0.023382114	-0.008166604	0.13506225	0.75538665	-0.11883627	0.11873387	0.2370004	0.35612774	-0.5026918	-0.037974324	0.38541055	0.62622964	-0.42243978	-0.12881675	0.34641096	0.24030477	0.40593335	0.14667132	-0.9128198	0.31505448	-0.15607364	0.3180051	0.097061776	0.17425127	-0.6936545	0.31591603	1.2237434	-0.8232662	0.082435295	-0.35598662	0.4481499	0.3195066	0.3651955	0.3627386	-0.13507383	-0.64879185	0.32464638	-0.28208637	0.27008805	0.5960879	0.07209555	-0.59563476	0.0
GSM6249281	-0.8441571	0.25093293	-0.4254185	-0.037498876	0.037256736	0.6452028	0.0032277685	0.75445116	0.24000147	-0.40567172	0.29610336	0.28605616	0.047434364	-0.2242593	0.23869659	0.7717447	-0.020156788	-0.13580368	0.8023166	-0.3326186	0.047244985	0.1758689	-0.27086842	0.52203953	0.5067397	-0.4229143	0.23808366	-0.06517125	0.014091079	0.45914525	0.09052126	-0.006454961	-0.26064757	0.041836698	-0.0067942124	-0.5372227	0.5458208	-0.2744619	-0.40013802	0.288913	-0.7349452	-0.5315521	-0.61131555	0.49148464	0.09107171	-0.121183455	-0.27298453	0.34181166	-0.04935133	0.08243704	-0.1122261	0.23229805	0.079963505	0.007245903	0.24150814	0.4215772	-0.45193374	-0.5950333	0.19494018	0.18486105	0.43954784	-0.1079463	-0.5184051	-0.10315417	0.3013243	-0.19869454	-0.35808724	0.15313192	-0.5637633	-0.54220873	0.103371404	-0.002228862	-0.108338885	-0.35898262	-0.31482452	0.6242478	-0.11609211	0.16181067	0.35338053	-0.15953597	-0.031857926	-0.33759937	-0.3921009	-0.64775103	-0.7860055	0.5308749	-0.47173172	0.4360015	0.62580025	0.39964572	0.22161843	0.6423198	0.64653516	0.7105498	-0.12230015	0.6408457	0.24252616	-0.26278743	0.023637261	0.47083572	0.0
GSM6249282	0.3859871	-0.29455116	-0.3507194	0.70376384	-0.1383871	-0.59428895	-0.009230294	0.40073633	-0.39789733	0.82287925	-0.95033926	-1.0456098	-0.8922146	-0.1587867	0.7174069	-0.22711231	-0.064859144	0.78557676	-0.12349503	-0.28627908	-0.045558356	-0.37971294	0.27411547	0.109944224	-0.21862645	0.392412	0.18361643	-1.1870391	0.4790866	0.50268334	-0.11248496	-0.18343015	0.03985003	1.2777913	-0.3477012	-0.3158063	0.31014526	0.6460661	0.16762556	0.08337897	-0.45836312	0.15729563	0.38235784	0.4056664	-0.16132142	0.6804216	-0.33978146	-0.19232017	0.41536576	0.06207774	-0.18576182	0.7829802	0.1934972	0.44569784	-0.48557004	-0.008404841	0.50145215	-0.8661405	-0.11438633	-0.29862377	-0.16128923	0.22135675	0.029753668	-0.01754095	-0.300294	1.3332182	-0.1720039	-0.8839335	0.23370858	-0.18629256	-0.18439966	-0.1463727	-0.034795996	0.40872288	-0.09671439	-0.034680113	0.13636073	0.028416678	-0.52485967	-0.0082474835	0.3460892	0.017875941	-0.19301642	-0.06456448	0.11922972	-0.24653614	-0.18103392	0.64948404	-0.12114956	0.71976846	-0.38267267	0.36986965	-0.5102899	-0.58603173	-0.2387936	0.10968862	0.22715233	1.1622736	0.0001445424	0.59932923	0.0
GSM6249284	0.96347606	0.063049175	0.2525675	0.12318553	-0.59566694	-0.17330648	0.17147745	0.32263184	-0.37444884	0.9998001	0.9421945	-0.3016261	-0.49789423	0.6006692	0.88835645	-0.3222042	1.1239457	-0.3229925	0.99849975	0.5325508	-0.16105968	-0.34805685	-0.5303948	-0.37211385	0.9201257	-0.17214365	-0.7015506	-0.602003	-0.50276285	0.5787977	-0.3993524	-0.50892735	0.77360713	-0.32518753	0.7248395	-0.5043928	-0.1872071	0.07260466	-0.17725696	-0.091724046	-0.18806085	-0.0073779225	0.50768995	-0.037512787	-0.17814371	-0.41720343	0.3895129	0.20492628	0.6255156	-0.3522833	-0.31445134	-0.46528053	0.48614913	0.15245774	0.28413138	0.30743396	-0.54262227	-0.4320973	0.7868577	0.7836035	0.17645977	0.2871289	0.63863677	-0.3931517	0.088425875	0.6257349	-0.25844744	-0.37093347	0.64675313	0.50331664	0.10122021	0.3248683	-0.104241	-0.9210286	0.8009241	0.575652	0.02766678	0.29202148	-0.07717599	-0.06450512	-0.119395085	0.28701738	0.20120381	-0.4919074	0.45297372	-0.242764	-0.09601198	1.076022	-0.23638274	-0.26213264	0.70266175	0.53450394	0.6823737	0.5102366	0.20952366	0.6960856	0.3483702	0.27968487	-0.06385186	0.31736672	1.0
GSM6249285	-0.18727909	0.29074925	0.10704341	-0.5460169	0.23701714	-0.08399074	0.19890258	0.5809773	-0.26712537	0.44351417	0.19972438	-0.5069684	-0.50282055	0.5389797	-0.13398594	0.61581105	-0.17414573	0.9534283	0.6786857	-0.1815652	-1.072246	0.053088598	0.5946494	0.010684313	0.07217421	0.03748059	0.504739	-0.048664667	-0.79424655	0.124085724	-0.59636295	-0.5470879	0.35962287	0.030610355	0.8195715	-0.49445933	0.62546784	0.8645908	0.8360525	0.32091737	-0.36466065	-0.6999127	0.009985504	-0.14926577	-0.6868249	-0.28826	-0.21057533	0.22873838	0.07269465	-0.079378344	0.49924797	-0.37727547	-0.4154626	0.274059	1.005574	-0.037224755	0.008701501	0.18143946	-0.27630067	0.38531327	-0.10637599	-0.23181045	-0.82412565	0.16870412	-0.072040424	0.96225613	0.011118524	-0.5268835	-0.25155795	-1.1708844	0.055813525	0.25102726	0.69267464	0.6158244	0.26230314	0.5439657	-0.4900722	-0.5159545	0.91477525	-0.4605043	0.9303476	0.2998657	0.46330062	0.27734652	0.31055847	-0.13862252	-0.08798679	-0.4877352	-0.18158482	-0.7859791	0.26417992	0.045850284	-0.67713547	0.1682992	0.5039097	0.011724454	-1.4149175	0.0561238	-0.4569596	-0.064003386	0.0
GSM6249286	-0.20168315	0.081623435	-0.56853724	-0.18534748	0.41430724	-0.5520969	0.051806465	0.27318633	0.3035481	-0.065882325	0.13879877	0.36345908	-0.59309185	-0.16639979	0.6765154	-0.017006258	0.13982154	0.040842265	-0.040503323	-0.32711038	0.106438555	0.081389815	-0.22438149	0.3207131	0.44146338	-0.41951358	0.58931506	0.43154135	0.25675955	-0.00092976034	0.11809793	0.41217571	-0.43037206	0.58298254	0.32176948	-0.050999973	-0.18226898	-0.53519154	-0.4438753	-0.11071502	-0.07798335	0.060394283	0.11341783	-0.734312	0.094429865	-0.004610481	0.76719046	-0.47374636	-0.350845	0.2440286	-0.71052396	-0.35675946	-0.69230986	-0.5655739	-0.74645185	0.37960982	0.81821024	0.5725256	-0.69513124	0.30847186	-0.37905365	-0.06646929	-0.033374492	0.57508385	0.35053492	0.19175771	0.6728311	0.1373945	0.14725196	-0.21469752	0.25532368	-0.21842591	0.027967576	0.44538844	0.15242878	-0.5658734	-0.17985372	-0.14472605	-0.6365476	-0.044050988	0.24324133	0.11090442	-0.46230364	-0.22988522	0.39130875	-0.36796296	0.18339275	0.41882935	-0.11187034	-0.18723443	-0.2995852	0.39594772	0.1145433	-0.26951075	0.19217378	-0.58179355	0.43547872	0.29288214	0.34307474	-0.31198946	0.0
GSM6249289	0.57976395	0.13448241	0.40793857	-0.17434616	-0.54390246	0.05834465	-0.09681002	0.486602	0.2019101	-0.34862238	-0.30660126	-0.58888024	0.18306236	0.9226562	-0.0070494185	0.1372803	-0.5542494	0.7724242	0.15247169	0.2099213	-0.14839627	0.06499013	-0.009412459	0.08274997	-0.28649074	-0.19453084	0.012127073	0.42531538	-0.6042294	-0.18404835	0.3937044	-0.24177645	0.32829624	-0.28860754	0.4715016	0.12980019	0.60217047	0.4107667	-0.5533392	-0.10812917	0.09113388	-0.26070547	0.42550436	0.09513298	-0.40261957	-0.124840185	0.4851727	0.16842586	0.42333886	0.09870672	-0.040559538	0.049263738	-0.009013682	-0.00845989	0.43016207	0.15621297	-0.3146799	-0.35093433	0.3269532	0.4865963	0.43541571	-0.5503924	-0.11909969	-0.104646064	-0.022156643	-0.26969215	0.06609528	-0.34657058	0.59939563	-0.3796391	-0.10611247	0.29896337	0.32298738	-0.25644892	-0.94814104	0.22846809	-0.22512454	0.3732675	-0.09691391	0.014786344	-0.6746128	-0.033542342	0.13374564	0.21167329	-0.24259113	0.44761097	0.7902718	-0.30245054	0.15257189	0.34868678	-0.051536094	-0.23055917	-0.550304	-0.014101223	-0.7609408	0.13832313	0.4181126	-0.047350526	-0.037180603	-0.5050479	0.0
GSM6249290	-0.6309186	-0.097728215	-0.6699377	-0.6315086	0.43160182	0.42588183	-0.41975567	0.44174072	0.17254649	-0.051621314	0.09986515	0.13447648	-0.27187574	0.1870049	0.43206477	0.417313	0.3978671	-0.8198719	-0.79264504	0.7122519	0.5385051	-0.1818972	-0.40335658	-0.016876642	0.20001599	-0.023576321	-0.37752	-0.6196367	0.40146708	0.08759679	-0.2818101	0.034646213	0.2720653	-0.0959537	-0.30343166	-0.07498244	0.31038424	0.7303964	-0.30658838	-0.72340024	-0.03804362	-0.56477624	0.62997067	0.67150784	0.17035164	1.1783932	0.35225657	-0.2389558	-0.3132286	0.12220813	-0.017394423	0.3162865	0.23203881	0.033800256	0.52492666	-0.21186802	0.069033	-0.40651006	0.04921414	-0.6119906	0.2080937	-0.16450861	0.8330546	-0.16388775	-0.78851575	0.1288507	-0.8547842	0.27193606	0.23004936	0.9115414	-0.67053956	0.06754833	-0.3061114	-0.34292835	-0.11085212	1.3380873	0.42785332	0.5520181	-0.22726025	0.65958387	0.51216114	-0.4880116	0.31621623	0.09205805	0.93489677	0.5982619	0.32489634	1.2717081	0.49042067	0.8095272	0.45684636	-0.06440186	-0.12717462	-0.062147018	0.06688195	0.2702567	-0.4379617	0.81572807	-1.325626	0.12538476	1.0
GSM6249293	-0.2845111	-0.45738363	-0.5368727	0.15576454	-0.36383644	-0.12484374	-0.47750095	0.62637836	-0.99394697	0.3581548	0.13432507	-0.5339971	0.641423	-1.0190684	-0.37529507	0.35369742	-0.61444247	-0.513432	-0.4816915	0.19526546	-0.4297689	-0.97529984	0.87191206	0.66853714	-0.14100528	0.56816924	0.62989694	-0.2840595	-0.14163224	0.3065359	0.32416087	-0.1756583	-1.3372605	0.27792394	0.0058298274	0.50147474	0.63154536	0.72195125	1.1688881	0.06573501	0.22542535	-0.7086052	0.15369023	-0.013434226	-0.24981678	1.0073223	0.08340117	-0.5037311	0.3423522	-0.19452502	0.8805595	-0.017632494	-0.52283865	-0.109572105	-0.104696594	0.996373	0.42508018	-0.12730893	-0.21163525	-0.39749947	-0.29594296	-0.1319411	-0.62125707	-0.013663827	0.871296	1.1925852	-0.12875037	0.5876775	0.08873096	-0.5640196	-0.0002664562	0.11364903	0.8778713	0.29998428	-0.67615885	-1.0152382	0.70111734	-1.4273736	0.18786325	-0.5406282	-0.24410957	0.38227475	0.27019715	-0.38420537	0.0048883324	0.65269965	-0.08549652	-0.67019176	0.3476998	-0.22062784	0.21158007	0.5595292	-0.18164366	-0.6569851	-0.18473281	-0.29971018	0.17576157	-0.4790924	-0.19601594	-0.9992835	0.0
GSM6249294	0.7919565	0.093280695	0.48061576	-0.202148	-0.12804163	-0.28973702	0.6376642	-0.96589005	0.013349346	-0.52140844	0.098554	0.50202507	-0.6322629	0.33532286	0.033428963	-0.14269681	-0.110884815	-0.20732485	0.11752064	0.5205991	0.11399833	-0.19173639	-0.30042493	0.2176911	0.6340274	0.08474361	-0.2286917	-0.37020177	0.19208638	-0.1405088	0.090344824	1.0982221	0.25021806	0.65930134	-0.410315	0.41261348	-0.35682544	-0.23905483	0.098715454	0.33764648	0.80045116	0.048189588	0.21246035	0.8671335	1.5036535	1.0062478	0.19394055	0.44358903	0.3699051	0.19873643	0.19140285	-0.10011772	-0.20125356	-0.42664924	0.50152683	-0.42699176	-0.70219445	0.030667564	-0.44020885	1.1572673	-0.87089425	-0.6566473	0.29077876	-0.45727727	0.034426432	0.081067294	-0.47078902	-0.04235537	0.15732172	-0.569983	-0.46597153	0.17711203	-0.47783938	0.96927553	0.080758505	0.51697123	-0.23678005	0.4677739	0.036614295	0.6535439	0.53723955	-0.49307016	-0.1945512	0.55637383	-0.16937453	0.55365247	0.36257738	-0.34987316	0.31179222	-0.28218094	-0.10413052	0.5216778	-0.13198769	0.15834974	0.26352003	-0.7511097	-0.12748173	-0.15713891	0.21996653	0.26032618	1.0
GSM6249296	-0.57524025	0.46055594	-0.37708828	-1.5423558	0.8195194	-0.5653336	0.77278763	-0.44935787	-0.0920853	1.2212021	0.4622854	-0.91617066	0.24094625	0.40053925	-0.2215803	-0.20812485	0.9901185	-0.6594486	0.48645794	0.44478005	-0.08965106	-0.2549435	0.6717598	-0.105239876	-0.31910434	0.25902706	0.8084515	0.8179324	0.105666704	-1.0281558	0.058923677	-0.07699013	0.30287197	0.07857338	0.5046367	-0.8480618	0.29892084	0.5538794	0.97520655	-0.038863495	-0.59710246	0.63564116	-0.7483981	-0.30822483	-1.2683455	-0.5062251	0.17833601	-0.0012941624	-0.23781112	-1.1043651	0.4828657	-0.7261517	-1.1840637	-0.67481315	0.22499596	0.1108162	0.92688566	-0.9230494	0.6991961	-0.6127831	0.33640665	-0.2443792	-0.23184529	0.2982399	-0.50937	0.41642535	-0.09554225	-0.04406045	0.020882377	-1.4094185	0.6762122	-0.16656433	-0.18783659	-0.3337688	0.0042130332	0.256071	-1.0441678	0.13478068	1.3213983	-0.49587044	0.06708595	0.44949597	-0.3337529	-0.30530682	-0.96914834	-0.2283653	-0.611285	-0.5478001	-0.08671535	-0.15683022	0.24765179	0.3738153	-0.3234157	0.08510379	-0.9096126	-0.11223849	-0.67756194	-0.33880574	-1.0839459	-0.89473814	0.0
GSM6249297	1.4281019	-0.22738068	0.15594903	0.23888682	0.39561382	0.6002389	0.50944203	-0.904815	-0.011958129	0.79802305	-1.0555592	0.21005408	-0.05376802	-0.04959559	-0.17448822	0.35543633	0.014963857	-0.0033416755	0.6015356	-0.1990055	0.3614032	0.3090091	-0.5211533	0.22431597	-0.13241997	0.11450961	0.3836169	-0.34647584	-0.2270521	0.5066481	-0.2978323	0.037370156	0.32513443	0.10017246	-0.05140763	0.22263214	0.16179964	1.1431669	-0.3553984	0.18647003	0.051340524	-0.61114204	-0.4371471	0.53223664	-0.34913573	0.30526584	0.48749334	-0.47603965	-0.21992178	0.71454996	-0.64469326	0.6808459	0.09600936	0.101048246	-0.39070374	-0.44107252	-0.22477734	-0.5793761	0.2852383	-0.14818054	-0.48945558	-0.23824252	0.33005077	-0.60766226	-0.25598752	0.5350525	-0.88020813	-0.47656617	-0.6841335	-0.12464096	0.6199366	-0.26890352	0.21534003	-0.3319094	-0.25011888	1.251585	-0.43237826	0.7023794	0.30697727	-0.13411549	0.69577855	0.12535204	0.4847525	0.7054959	-0.18797518	0.054624923	0.38141918	0.19755663	0.06102374	0.37904158	-0.32178855	-0.7030578	-0.104947515	-0.0063718827	-0.06739785	-0.17343882	-0.0028034912	-0.30054608	0.40123692	0.7849514	0.0
GSM6249298	-0.1519907	-0.2525345	-0.03597148	0.55523443	0.01282175	0.5106168	0.1959267	0.46269855	0.16833247	-0.06782956	0.27218375	0.0498984	0.12813462	0.23217389	-0.59491706	-0.05540325	0.014433593	0.14686273	-0.07879652	-0.24100645	-0.039885424	0.2548363	0.2553085	-0.19699363	-1.0653794	0.4225394	-0.54419076	-0.16947776	-0.27139002	-0.023982763	-0.14070123	0.63456863	0.13709688	-0.09590676	0.07219222	-0.42523596	0.31078774	0.42138544	0.023434278	-0.09890509	-0.57625955	-0.092058025	0.037578605	0.87578344	-0.47640553	-0.19139719	-0.85971	-0.51608884	0.050775763	0.6574731	0.055477493	0.17153405	0.13999018	0.339868	-0.056688886	0.3449927	-0.40165153	-0.5803115	-0.23993699	0.055232648	0.4500107	0.06492279	0.8261315	-0.26837987	-0.45725417	-0.03548616	-0.7048514	0.16378732	-0.33493093	-0.06936485	0.15710941	0.078331314	-0.3067525	-0.56556433	-0.29474992	-0.46655005	0.062167384	0.70970285	0.4131023	0.26359323	0.3359186	0.39962944	0.076694615	0.32717863	-0.5839843	-0.77168244	-0.25545043	-0.08482898	0.21219935	-0.67329603	-0.029757759	-0.37725854	0.19324033	0.52878565	0.3481661	0.0714458	-0.8623078	0.29440153	-0.00033495313	0.122108616	0.0
GSM6249299	0.5565248	0.048284456	-0.9842768	1.178899	1.23971	0.7921505	0.085323706	-0.28109977	-0.2605856	1.0007757	-0.6508232	-0.29238704	-0.122815125	-0.6291716	0.198216	0.2144691	-0.18534882	-0.3058851	-0.43789756	-1.0657597	-0.18482307	-0.28769886	-0.38853037	0.14627059	-0.41559023	0.030990453	0.9402304	-0.7214457	0.21848011	-0.12396456	0.09804846	0.41934013	-0.066582136	0.94315827	0.56095886	0.12646124	0.052163422	1.1478214	0.7259404	1.0380325	-0.1043361	-0.3277444	0.6000772	1.7557113	-0.17253444	0.94105273	-0.5646285	-0.24502763	0.19159967	-0.24634556	0.38464597	0.14770448	-0.31782442	-0.08494335	-0.47165158	0.214235	-0.28589442	0.029992895	-0.80692744	-0.23055565	1.1904651	-0.5951233	-0.5213905	0.3321586	-0.12474662	1.2683256	-0.643687	0.10752168	-0.89998406	-0.1289425	-0.31008658	0.12326383	-0.4375835	0.8528058	-0.06910614	0.3724537	-0.12402193	-0.01856239	0.18824172	0.19560024	0.44043377	0.045255758	0.5195117	0.10115247	0.09627807	0.42098978	-0.39602736	-0.69769186	0.07857435	-1.0438676	0.4660842	-0.5590551	0.32273313	0.14954595	-0.50867486	-0.49969432	-0.18571912	0.21842502	-0.19321844	0.30312848	0.0
GSM6249300	0.6682212	-0.26060125	-0.42299542	0.39902896	-0.24587841	-0.60936415	-0.22053482	0.27931184	0.23834601	0.07574378	-0.3288378	-0.29760244	-0.33737332	0.41864178	0.3293061	-0.75638676	0.950551	0.033349194	0.1686164	-0.112467	-0.28521124	-0.25866354	0.11499153	-0.77796197	-0.3466997	0.05748345	0.02363091	0.06569266	0.062668175	0.005598979	-0.03014908	-0.8199013	-0.89525	-0.053005718	0.021216596	0.034294378	-0.12571621	-0.9070507	0.20915374	-0.03907081	1.0822355	0.49385166	-1.3003953	0.18051668	-0.682267	-0.3019628	-0.03640043	-0.24239689	0.4994743	-0.32502508	-0.35569063	0.09495352	0.8318205	-0.19255939	-0.6158795	-0.76181245	0.012489469	-0.023888515	0.34845617	-0.48505586	-0.21201247	0.2787479	0.9409349	0.17318161	0.18167214	-0.79238015	0.48259792	-0.054733336	0.3150582	-0.5835661	-0.8855643	0.13400033	-0.7696858	-0.84542125	0.35545155	-0.42955482	-0.3461285	0.9242474	1.1786293	-0.18490973	-0.7351983	0.46425173	0.14238553	-0.06072923	-0.53331155	-0.01080849	-0.8092537	0.025817204	-0.30290073	0.28743312	-0.9920253	-0.31261027	-0.11591838	-0.4198189	-0.5172579	0.61262196	-0.05716325	1.2217683	-0.6504803	0.21417119	0.0
GSM6249301	0.006147996	-0.11153121	-0.15600844	-0.8198604	-0.1442262	-0.6941897	0.18286479	0.41180718	0.81956905	-0.36711887	0.081577055	0.015308159	0.2532111	0.19484471	0.30170587	-0.13666517	-0.5927525	0.4925209	0.50426626	-0.3748499	-0.018410316	0.6800182	-0.87283677	-0.14168704	0.17678955	0.47274855	0.86666673	-0.06566981	-1.0566238	0.34455347	0.810604	-0.4830448	0.38795236	0.27127135	-0.21968153	0.49972603	-1.0924959	-0.7617904	0.114073455	0.6608769	-0.4600266	-0.10176514	-0.459009	-0.38415474	0.25012264	-0.25576937	0.11234147	-0.36790347	0.47097844	-0.123726435	0.4018437	-0.82448006	-0.36455905	1.0935924	-0.03230275	-0.455477	-0.18815294	-0.6196864	0.26748547	-0.3087459	-0.48129112	0.612536	-0.13569446	0.6547285	0.062388197	-0.8483292	-0.3448653	0.6399854	0.008745141	-0.08112218	0.31326625	0.8902808	1.3626907	0.4270087	0.78629553	-0.09171563	-0.7126423	-0.75897974	0.52865386	-0.3027348	-0.32970673	-0.46253023	-0.20146461	-0.27605987	0.4877078	-0.14546767	-0.009017893	0.3340886	-0.79511565	0.0041681514	-0.4359591	0.7057237	0.25956044	0.12258092	0.27296692	1.155022	-0.45165247	-1.0876757	0.17778942	-1.2969657	0.0
GSM6249302	-0.52689725	-0.3839289	-0.2695757	0.54856026	-0.15783887	0.3163365	-0.40001112	-0.6878124	0.0031582452	0.7515193	0.3056712	0.24172422	-0.17601918	-0.400454	0.052149404	-0.09682161	-0.9518798	0.040340062	0.14867064	-0.32235277	-0.78911453	-0.5721219	0.28292572	-0.5107272	-0.98206294	0.089833565	-0.41983944	-0.45157194	0.49246678	0.78847754	0.49443603	-0.41653317	0.14866489	0.6861304	-0.6106723	0.4162634	0.66429484	-0.7041015	0.15525265	0.99382645	-0.29427463	0.75736284	0.5611534	-0.19588009	-1.1220002	0.71279347	-0.11426571	-0.8760389	0.18021666	-0.76022106	0.561471	-0.35261902	-0.0892029	-0.59208304	-0.85926837	0.10989822	0.26494664	-0.47992477	0.6703358	-0.07442765	0.5286743	-0.010140345	0.4420002	-0.5705155	-0.29687166	0.4999905	0.08671691	0.27589738	-0.34385917	-0.11948422	-1.2578459	-0.18883277	-0.35723302	0.052744128	0.47112402	0.08970223	-0.23733638	-0.1906734	-0.18396713	-0.35180452	-0.5177044	-1.164063	-0.41572532	0.28681853	-0.6975747	-0.022128878	-0.088163175	0.20596789	0.080553025	-0.040114243	-0.9986693	0.38205442	0.22269441	0.022326652	-0.8959683	0.27400604	0.02244652	0.16737996	-0.5809908	0.15511602	0.0
GSM6249303	0.40323547	0.07745795	0.44044158	-0.1714886	-0.535469	0.34752753	0.35614216	0.52835643	-0.5942536	0.27983835	-0.61839193	-0.47310412	-0.30803078	0.10332915	-1.0718384	0.09626466	0.42283377	-0.29432014	0.31233892	-0.1522591	-0.17197758	0.54254603	-1.093658	-0.086436905	-0.039017644	0.076007776	-0.10463622	-0.57241005	0.072562434	0.7321008	0.10909893	0.51909655	0.17890702	-0.2003012	0.47985712	-1.0605264	0.2684312	0.16637193	0.25505868	0.662266	-0.024905503	-0.70126086	-0.14563853	-0.59165114	-0.32784984	0.5918087	-0.3654984	0.103747755	0.0948287	-0.88458467	-0.9393389	-0.55960804	0.23933704	-0.025451494	0.39676303	-1.1208023	0.06366605	-0.20896117	0.7446574	0.54312444	0.87751967	0.600376	0.05413258	-0.023956193	0.22649087	0.9646232	-0.6675776	-0.1846909	-0.7486743	0.2643353	-0.7152566	0.6744976	-0.16079013	0.30116925	0.79815936	0.6543786	-1.2249156	0.890598	0.3268962	0.13571003	-0.1929883	0.39021724	-0.1441334	-0.30328026	0.48969796	-0.8071644	-0.022076184	0.08278962	0.69170994	0.429652	0.13982888	0.21040899	-0.11352565	-0.06859862	0.5288293	0.20583494	1.3852046	0.6670322	0.015541383	-0.0333477	0.0
GSM6249304	0.30315354	-0.14586583	0.80188954	0.16511653	-0.46479416	0.10746752	-0.5830259	0.31343633	0.5286848	0.70551825	-0.63933855	1.1771412	-0.63235	0.17397894	-0.059762083	-0.22946618	-0.42190292	0.38522318	0.37867615	0.62365913	-0.22558787	0.021833712	-0.13614787	-0.35455054	-0.20846441	0.008850694	0.69529355	-0.34054914	0.66948533	0.5541231	1.1283406	-0.2735936	-0.66055727	1.064304	0.7810732	0.03251986	-0.20926732	0.23485604	-0.32052857	-0.008650918	-0.088778704	-0.48904726	0.38394198	0.47575256	-0.42990467	0.304826	-0.5935915	-0.4454293	-0.7109832	-0.033272427	0.8165287	-0.26832986	-0.07193427	1.0285525	0.6488147	-0.39784992	0.57799584	0.27691093	0.08085605	-0.310024	0.50943094	-0.4823691	-0.4022375	-1.4161276	0.2823349	0.4329969	-0.33965117	-0.6176961	0.22426438	0.022626232	0.528243	0.14445126	-0.115964234	0.36363104	-0.08672898	0.72887105	-0.9532655	-0.1428874	-0.057856984	-0.74070233	-0.6457743	-1.4776102	-0.26594642	0.464627	-0.5854877	-0.21616301	0.14409016	-0.62685233	0.8608373	0.73759353	0.007728349	0.37422395	0.09236718	0.60710716	-0.49188158	0.41051066	1.0870318	-0.2045481	0.75709116	0.4704272	0.0
GSM6249305	0.14081272	0.91576153	0.16236983	-0.25419298	-0.58586353	-0.52689034	0.0070949616	-0.7673594	-0.502107	-0.32028514	-0.44399643	-0.53035575	0.89590013	0.9042064	-0.4452437	-0.0460138	0.20286748	0.6389837	0.11750721	-0.20616391	0.62847567	-0.5357546	0.077951856	-0.32283673	-0.41599804	0.49003905	0.40873948	-0.48753425	0.3026409	-1.1497468	0.9483538	0.5004277	-0.09669118	0.9256538	-0.47826874	0.88057286	-0.6693887	0.14346182	0.29731202	0.32230687	-0.6028455	-0.295739	0.13555726	-0.51072997	0.17765059	-0.5556863	1.2248846	-0.2615434	0.57535595	-0.3640447	0.115725435	0.27175215	0.38147095	-0.50488096	0.2588403	-1.6688311	-0.62511235	0.21434228	0.85069054	0.27322048	0.39580205	-0.1820024	0.42646492	-0.15902954	0.11494759	0.8654437	1.6577362	-0.47143492	-0.121446416	0.8570226	-0.1410024	-0.2534049	0.1382691	-1.0530758	0.11933823	0.71041834	-0.98515975	1.4624461	0.51265335	0.14580394	-1.2403637	0.15322305	-0.057381127	-0.2795631	0.5949601	0.4684117	0.119811386	0.83719677	-0.8129843	0.36093247	-0.09249535	-0.20280226	0.68577814	-0.300553	-0.5979871	-0.017235652	0.48554674	0.61967623	0.8416007	0.3105184	0.0
GSM6249306	0.054183964	0.267574	-0.50827396	0.43554303	0.29575765	0.2554075	0.63462657	-0.14191426	-0.23011309	-0.14771207	0.6776967	-0.13761085	0.27907485	0.16512485	-0.7367651	0.1890279	0.41698045	0.26580882	0.3801204	-0.14220579	-0.20494275	0.010589021	0.85841614	-0.29716358	-0.07722121	-0.11324194	0.38296917	0.22711933	0.59621835	0.13487895	0.08322915	-0.008043157	0.10188572	0.14771615	-0.20685434	0.41101652	-0.23404406	-0.8366722	-0.66947263	0.12938172	0.15369886	0.75997674	-0.39186406	0.24921751	0.031658225	0.07599013	-0.23662429	-0.08623167	-0.06799084	0.5815244	-0.5719332	0.5583399	-0.4682586	0.26187837	-0.16709581	-0.28879339	-0.03887322	-0.84640324	0.2715567	0.36552796	0.23823851	0.1020706	0.23146538	-0.712865	-0.2171589	-0.35980487	0.036538176	0.30727986	-0.33755824	0.04428642	0.006931606	-0.4097276	-0.09859658	-0.034339193	-0.124797456	-0.98022604	0.7442284	-0.010525735	-0.10146776	-0.2884724	-0.051615395	0.5320873	0.17928888	0.17697783	0.26675034	0.3237122	-0.020428376	-0.16216618	-0.5263341	0.44213304	-0.9068397	-0.77035815	0.3163685	0.23603551	0.010904257	-0.6116565	-0.14883369	-0.19514617	-0.45469126	0.06395202	0.0
GSM6249307	-0.10929682	0.14211084	0.61260337	0.24559067	0.07069724	-0.06960975	0.26232234	-0.30338368	0.38296893	0.5487632	-0.8356988	-0.12043448	0.015335078	0.49238473	0.25581118	0.52109045	-0.023829244	-0.0742429	-0.13571106	-0.21312812	0.10727431	0.23945904	0.19437458	-0.06530716	-0.31523225	-0.33847532	-1.0359986	0.4417554	0.016228057	0.38283035	0.033420872	-0.12683213	-0.26919678	-0.86503035	0.04524044	0.0079768775	0.188905	-0.08284075	-0.23059407	0.2707951	0.19700636	0.34770766	-0.035768203	0.43721268	-0.23492338	-0.5261573	-0.010203826	0.0664273	0.37397677	0.45592654	0.070910744	-0.059053812	-0.11450576	0.5002577	0.25304174	-0.23898652	0.080838755	-0.009570519	0.42920077	0.42460012	-0.22671267	0.47446197	-0.28272575	0.11646772	-0.28113726	-0.20359588	-0.28952006	-0.6211404	-1.2249925	-0.77738625	0.52288634	-0.5488414	-0.1678955	-0.15188545	0.31219536	0.024301989	0.60165745	0.4803568	-0.06353316	0.051194962	0.0035907717	0.16837744	0.6256578	0.6736246	-0.15831083	0.30498746	0.17114648	0.08081722	0.29446402	-0.8606241	0.23081079	0.03937321	0.23091778	-0.6069696	0.0056474237	0.22565533	0.17002027	-0.38560733	-0.16039428	0.014509393	0.0
GSM6249309	-0.8282517	0.12639703	0.17608777	0.18007109	-0.2858271	0.54421	-0.86098605	0.35537058	-0.04139562	0.2978532	-0.096086495	-0.3576407	-0.3108974	0.637781	1.0327942	1.0209287	0.5451045	0.30481488	0.3288969	-0.18788823	-0.094141096	0.26214087	0.16515498	0.03138469	0.98544425	0.08594845	0.095315255	0.49901697	-0.023884162	-0.26117072	0.108159624	-0.5673675	-0.31347582	-0.2407704	0.2451302	-0.1397743	-0.48350495	0.22263578	0.8070839	-0.32197267	-0.537964	-0.18380725	0.22326142	0.3248035	0.29524195	-0.020897802	0.6529128	0.109260924	-0.107914165	-0.21847516	-0.05088753	-0.426814	0.29428816	0.5102157	0.54048747	0.29252124	-0.4930008	0.5200058	-1.2177835	0.05946754	-0.16968074	0.4149403	0.5697381	-0.99660575	-0.70562816	0.60150194	-0.69639707	0.094994836	0.6140844	1.7672385	-0.75317574	0.46498144	-0.3768465	0.027497936	-0.18703872	0.8645072	-1.510956	-0.2348712	-0.6459336	0.5266918	0.30041298	-0.57092035	-0.31606004	0.40610394	-0.023094513	-1.6202228	-0.47946733	-0.32818243	-0.272994	0.34054232	-0.14849308	-0.37441558	-0.4585789	-0.77203065	-0.13439243	0.6677648	0.66614217	0.7003137	-0.34187034	0.20979431	1.0
GSM6249310	0.03887567	0.11574192	0.10471401	-0.7159397	0.41619265	-0.1516773	-0.3220866	-0.3022067	-0.35439244	0.47016177	0.36883125	-0.08347002	-0.021420736	-0.32177976	-0.8770173	1.1645736	0.3577006	-0.700454	0.14161302	0.010771678	0.3563987	-0.010629266	1.1251713	0.33484584	-0.15593967	-0.32944053	-0.06944737	1.0299726	-0.7248992	0.5317482	-0.3566701	1.298101	0.73592234	-0.2609454	-0.19010912	-0.5347647	0.64071375	-0.5012227	0.13591605	-0.30304027	0.30737984	0.28523234	-0.024318136	-0.12075642	-0.5753512	0.12470823	0.54623693	-0.4468693	-0.22602125	-0.642907	0.12519628	-0.220321	-0.002962628	-0.55603725	-0.97761124	0.5218908	0.21787935	0.19860552	0.7268042	-0.45288086	0.18066455	-0.1558341	-0.33717284	-0.25079614	0.19019169	-0.04375711	0.27781302	0.013824387	-0.93033606	-0.83546376	0.006823703	0.09931492	-1.2600772	0.381302	-0.48055723	0.66337407	-0.25632617	-0.2796765	0.1486281	0.9098929	-0.35457405	0.20426306	0.104826234	-0.6272695	0.09802682	0.24698725	-0.13658577	0.7526002	0.5843432	-0.052069895	0.64192593	-0.4485334	0.6784952	0.6376067	0.45754084	0.6454935	0.65039134	-0.13664562	0.17654006	-0.46464315	0.0
GSM6249311	0.10850488	0.399407	-0.03480074	-0.28677833	-0.09328843	-0.6714012	-0.10873621	0.1762021	0.52991545	0.37117562	-0.08352184	0.27105668	0.07666966	0.22597244	0.7155925	-0.328131	-0.5607336	0.16167913	0.014812365	-0.042695157	-0.3431828	0.37352082	0.06786671	-0.07012449	0.2054165	-0.18860586	-0.60481495	-0.44950494	-0.18028793	-0.24858284	-0.20344457	0.4055204	0.011064182	-0.18185073	0.2754169	0.33783698	-0.39327478	-0.89177203	-0.34788558	0.5960508	-0.64855546	0.21722317	0.20760238	-0.9437826	-0.36237344	-0.15524831	0.3378491	0.28428632	0.11592057	0.5043102	0.071885735	0.39416203	-0.103720725	-0.021130726	-0.52822775	-0.13346933	-0.06668112	-0.027334658	0.38199502	-0.1786739	-0.34160915	0.2574918	0.3104478	-0.49794364	0.73290914	-0.34472677	0.29786298	-0.35911676	-0.16008678	0.8413793	0.19883105	-0.17289364	-0.54332536	-0.62641054	-0.036109414	0.1275672	0.21498625	0.013510358	0.10720201	0.27172422	-0.66136736	-0.06611731	-0.39882982	0.3087331	-0.35945565	0.13830198	0.50136364	-0.042302165	0.007872953	0.19567822	0.6040101	0.32821953	0.12309786	-0.039393075	-0.23458144	-0.294399	0.5063198	1.0304053	0.20624942	0.66415894	0.0
GSM6249313	0.60158724	-0.5545432	0.9496327	0.34985736	-0.007976724	-0.131211	-0.7300744	-0.19959283	0.32577014	-0.5143368	0.7477831	-0.17956641	-0.65286803	0.15966897	0.21095638	-0.11178628	0.046786856	0.18800433	-0.30021787	-0.00587257	-0.03758372	-0.8312372	0.16256133	0.13895886	0.39762157	0.04094232	1.0887351	-0.79434294	-0.24896751	0.525052	0.119430095	-0.5083524	-0.33273035	-0.22956945	-0.8973553	0.02802626	0.13141091	-0.13607259	0.55156755	-0.28634718	-0.4777995	0.97823095	0.2949478	0.20310418	-0.29961848	-0.84487	0.26947787	-0.06606162	-1.0474951	0.90898883	0.23503871	-0.42511046	-0.09618751	-0.45105746	-0.038191028	-1.066152	0.050496727	-0.35951552	0.16073884	-0.16074125	0.40603197	-0.5857069	0.7190968	-0.20038463	0.5506946	0.3913583	-0.17999026	0.011807884	-0.7463802	-0.3480994	-0.22515985	-0.43030447	-0.46555522	-0.06235662	0.95744836	0.9415055	-0.70485663	-0.22752969	0.29259542	-1.3254893	-0.17964154	-0.62992275	0.61827004	-0.014402133	-0.60141474	0.36074945	-0.8476495	-1.1150786	0.61907685	-0.081087895	-0.78941625	-0.027792893	0.13464878	-0.82319665	-0.66144603	0.046582878	0.29822412	-0.9236224	-0.49483022	0.6301975	0.0
GSM6249316	-0.16132861	-0.53510875	-0.27830774	0.159805	-0.363575	-0.8074434	-0.3014407	0.10565115	-0.24636364	1.0882702	-0.14902094	-0.32109472	-0.19327886	-0.2087718	0.17343056	-0.19280422	0.25466576	-0.71379906	0.25186482	-0.487835	-0.6080358	-0.2986737	0.22635254	0.4513196	0.116917744	0.17763892	-0.17128652	0.21302293	0.7554785	-0.53061193	0.23416148	0.28685963	0.6164545	0.8441628	0.7426388	0.17265043	0.1286244	0.23340264	-0.021390004	0.3654656	-0.28612345	0.48040187	0.7111308	-0.49339074	0.6851368	0.37800208	0.62629586	-0.53471786	0.4356494	0.23750046	0.06330512	-0.041312084	-0.5482526	0.33374968	0.07506738	0.39241114	0.10520524	-0.30085316	-0.3907412	-0.2632508	-0.039052553	0.09919763	-0.026766839	-0.09226341	0.25098225	0.58060753	0.56877285	-0.015517607	-0.25064823	-0.08411579	0.32491678	0.24239574	-0.6112635	0.3736729	-0.10081319	-0.08593642	0.35667378	-0.3217511	-0.5975179	1.116258	0.086473785	0.34061128	-0.20711556	0.9393819	0.15832442	0.054869626	0.08692493	0.19456637	0.22450404	0.42378736	0.65426916	0.24816965	-0.011695717	-0.07002665	-0.16360784	-0.72438127	0.6675493	-0.07541534	0.02757968	-0.10377011	0.0
GSM6249317	0.27644065	0.47852165	-0.40427816	-0.99587387	0.20955749	-0.43482214	-0.22842306	0.13620462	-0.39666602	-0.07209778	0.82059884	-0.50132775	-0.10450894	-0.3442882	-0.5317429	0.2304581	-0.56802297	0.43501043	-0.37751627	0.4006344	-0.26453602	-0.11830769	-0.3701237	0.6805005	0.9395084	0.28777394	0.06935316	-0.1463635	0.18752605	0.4059893	-0.23970856	0.72374934	-0.20658566	-0.049633283	-0.3711798	0.20153865	-1.159295	-0.08395613	0.065979786	0.65075296	-0.03544377	-0.32838553	0.088396885	0.6803409	0.85448414	-0.93704903	-0.13859022	1.1834188	0.42271253	-0.8284486	0.1531596	-0.34661222	0.17823759	0.16699184	0.9317357	-0.07846822	-0.71484894	0.06836018	0.94760185	0.36239547	-1.1039437	0.4629231	-0.96994233	-0.045336924	-0.15446293	-0.3373481	-0.7221035	-0.23632549	0.19834086	-0.37434253	-0.16117041	0.0466496	-0.21323395	1.1015831	-0.56349844	-0.1473087	-0.46355498	0.37301618	-0.42408895	0.004669809	0.8229074	-0.9010338	0.72673935	0.69241434	0.32352212	0.29259565	0.12949614	0.52894664	-0.55279315	-0.5868333	0.11124167	0.27555433	-0.65228224	0.15008275	1.0173613	-0.57189584	-0.14207637	-0.7611482	0.2450931	-0.1826598	0.0
GSM6249319	-0.1927051	-0.45164025	-0.24949387	1.2249328	-0.15623519	-0.3362393	0.31233945	0.10466193	1.1464713	0.55212516	0.23195359	0.14164047	-0.5709531	0.24899949	-0.11125532	-0.82492614	-0.119399235	0.13125408	-0.024757465	0.8111703	-0.2954955	-0.53996176	-0.24591583	0.095209	-0.7630778	0.9988224	0.3106955	-0.2042402	-0.36274907	-0.4740928	-0.24918586	0.1254093	0.17419039	0.9834364	-0.5871025	0.21872117	-0.24876569	0.009785757	-0.43594038	0.3545364	-0.58174616	-0.13337286	0.23927778	-0.480915	-0.49455056	0.6609063	-0.15348552	-0.3402222	0.44677863	-0.29675058	0.17078857	-0.7875483	0.21769272	-0.057400174	0.4457465	0.2806041	0.22215736	-0.03795017	0.6028422	1.3881427	0.61826116	-0.78159344	0.72283816	0.17405778	0.16054815	0.38161954	-0.19875221	0.2305904	-0.3382473	1.17349	0.33019185	-0.23633523	-0.049575746	0.56271124	-0.39161894	1.445095	-0.43743992	0.6956537	-0.8454345	1.0552505	-0.3646463	-1.4141132	-0.293643	0.22156832	-0.9033234	0.23935902	0.0038628278	-1.0693061	-0.27857628	-0.67769724	0.64866066	0.176608	0.3400827	0.16578162	0.8373688	-0.04479558	0.10512778	-0.34016418	-0.5468871	-0.55297655	0.0
GSM6249322	-0.303648	0.32829258	-0.25585285	0.65909135	0.041331004	0.42216435	0.5069303	0.3443769	0.43905228	0.91758496	-0.49359077	-0.3448196	0.32600182	0.2096257	0.44467786	0.3787361	-0.7596496	-0.30497906	-0.19538864	-0.26131412	0.1465774	0.32956088	-0.5450968	0.48727506	0.043705266	0.86627275	-0.6880953	0.4628047	0.13077118	0.5662353	-0.21957748	0.15268785	0.07595781	-0.35406256	-0.21781577	0.33683237	0.8488729	-0.1578412	-0.2383884	0.6028528	-0.44240448	-0.33630598	0.26802287	0.431304	-0.14815508	0.012999067	0.64239395	-0.8350956	-0.4022161	-0.5153121	-0.03725041	-0.038582128	0.28862825	0.50648683	0.15732871	0.3114039	0.28408748	-0.20565654	-0.42392638	-0.5565268	-0.6264845	0.12554902	0.08537357	-0.5245419	-0.77532166	0.25384793	-0.411335	-0.13544135	0.39148903	0.028210586	0.07950971	-0.17586917	0.060080417	-0.6960855	0.55738765	-0.071248844	-0.071269415	0.57219416	0.32825127	0.023450658	0.66474366	-0.5231491	0.3470986	-0.029952897	-0.087763414	0.37685663	-0.5767689	-0.026689058	0.21259333	0.16830406	-0.2146325	-0.9262956	-0.17410518	0.75225	-0.55484754	-0.09525328	0.07317685	0.22992279	-0.10382587	0.09055405	0.0
GSM6249323	0.3541027	0.063692026	0.23872468	-0.36096194	-0.10450812	0.36101627	-0.40236583	-0.4229297	0.05517895	-0.04857911	-0.06225575	-0.23654425	-0.056771766	-0.48008358	0.87522763	0.09209139	0.40572262	0.19209263	-0.23897696	0.6427455	-0.0737222	-0.06800499	0.28485304	-0.061318744	0.64227885	0.002147032	-0.20280254	0.20570087	0.00016038041	0.055354044	-0.29385057	-0.714404	-0.12067619	-0.36527812	0.25277936	0.015802499	0.23270567	0.31458634	0.05394646	-0.6607934	-0.12742168	-0.13948959	0.20692444	-0.30762666	0.38000682	-0.87073183	0.34981787	0.37526384	0.15677038	0.4297865	0.5875483	-0.31328663	-0.7695849	-0.72256535	0.25057694	0.5546229	-0.64077616	0.12328657	-0.22952412	0.57666415	-0.43538052	0.7949143	0.3406362	-0.28886974	0.54192483	0.04162113	0.372454	0.6797447	0.1535656	-0.05785914	-0.1281165	0.26851317	-0.3996828	0.21860968	-0.3184845	-0.25939208	0.3937134	-0.08133884	0.06974512	-0.361018	-0.40212756	-0.33468664	-0.23399068	0.5373071	0.19655561	-0.6139453	0.24157064	-0.047898956	0.026869165	0.38358647	0.6023415	0.2905659	-0.6075873	-0.037989214	0.31475344	-0.35197967	-0.4977944	0.26009908	-0.09440853	-0.16060285	0.0
GSM6249330	-0.06545639	0.20487873	-0.105040275	-0.36763757	0.009506877	-0.8437139	-0.10357001	-0.77368116	0.48807126	-0.82890195	-0.47480747	-0.42258105	-0.1169031	-0.26309314	-0.8585606	0.05998241	-0.21178909	0.12603702	0.6796831	0.39092416	-0.77427834	0.6770132	0.5422081	-0.5920294	-0.0034443764	-0.5272614	1.1629577	0.63398653	0.427862	-0.32303616	0.060459238	0.48407316	-0.44235376	0.03538446	-1.0341918	-0.51251626	-0.20706737	0.017329207	0.44748068	0.41042578	0.41439298	-0.15510084	-0.19121231	-0.5968747	-0.66124034	-0.7059782	-0.33172238	0.36693949	0.357735	-0.1433793	0.7798732	-0.0036478525	-0.7689351	-0.964738	0.6667751	-0.69872063	0.4473062	0.64611703	-0.3100906	0.051697858	-1.0489311	-0.05277894	-0.32051986	0.16653854	-0.22054626	-1.1117073	0.47538024	-0.3679687	-0.51767796	0.273765	0.09570256	0.28436816	0.4618356	0.4307994	-0.34876615	0.27163073	-0.82678556	0.51969326	0.78788346	-0.6099328	-0.6186076	-0.81287897	0.23962651	0.062355686	-0.8192771	0.761256	0.15239277	0.1882311	-0.6717011	0.46661544	-0.36384022	0.5393598	0.11122742	0.3633201	-0.5247603	-0.5546968	0.100662336	-0.46334964	0.6545752	-0.20205668	0.0
GSM6249332	-0.5577976	-0.079221904	0.25673652	-0.28591263	0.18803488	-0.45042518	0.059660595	0.032195568	0.19128825	-0.24429817	1.0790747	0.40163234	0.5636948	-0.46297607	0.48552746	0.80094534	0.9427525	-0.4287568	-0.45596093	0.21181071	-0.16802995	0.077337794	-0.14474364	0.16740811	0.24181691	-0.15075332	0.21641982	0.42737326	0.4121142	0.10507919	0.081010066	0.46937078	0.49638048	-0.76191336	-0.016150862	-0.29809633	0.08181892	-0.40248865	0.045892444	0.002577156	0.75251263	-0.34027064	-0.4198774	0.37581906	0.022897387	-0.08423657	0.0070082946	-0.09004536	0.73956794	0.046826877	0.31134763	0.16214001	-0.20334722	0.30948803	-0.18669939	0.26245043	-0.12033556	0.025808755	-0.00072714756	0.06932872	-0.35424453	-0.41598168	-0.08708491	-0.52106464	-0.45461467	-0.41509417	-0.13449441	-0.14284614	-0.25283632	-0.5254313	0.108326174	0.06934353	0.09270655	-0.039552126	0.14394113	-0.5760772	-0.24005136	0.4197359	0.24025069	-0.16829097	0.7077084	-0.48060176	-0.43620914	-0.31919813	0.19570544	0.19022542	0.12768595	-0.09555093	0.595806	-0.6320861	0.25943142	-0.023210088	-0.39880428	-0.058563758	-0.49157405	0.23483998	0.09586067	-0.98219	0.035043284	0.03584979	0.0
GSM6249333	0.3299476	0.27026865	0.12353959	0.50075835	0.32680637	-0.25844073	-0.65533704	-0.46769047	-0.38565826	0.35295638	-0.29894477	-0.63601935	-0.18929036	-0.41943094	-0.2790332	-0.115699746	-0.26017326	-0.010130568	0.2842604	-0.8349796	0.1674347	0.7138786	-0.115138195	-0.020143656	-0.29160362	0.056929234	-0.28946358	0.65986127	-0.3355689	0.78672487	-0.21268706	0.14496216	0.7708963	0.67755383	-0.13055652	-0.14578748	1.1772484	0.4597549	0.761888	0.00889091	0.5119806	-0.32101497	-0.32053563	-0.24164519	-0.42972758	-0.34945416	-0.24680182	0.66832596	-0.15105315	0.34165573	0.33610165	-0.043208886	-0.899686	0.03727181	-0.120193765	-0.056461535	-0.04939227	0.4522623	-0.0989991	-0.38785252	0.112574235	-0.5900229	-0.06431993	-0.0054894723	-0.31849387	0.35675606	0.16873296	0.6231243	0.022686696	0.010469772	0.65570366	0.8364249	0.21181132	-0.491426	0.10653335	0.16909367	-0.27645764	0.6355845	1.3702161	-0.33396828	-0.60751826	-0.47702232	0.60582924	-0.43413636	-0.08075465	0.6473871	-0.26238704	0.021717992	-0.4519256	0.18618299	-0.27379283	-0.17269115	-0.47749618	-0.44426674	-0.00062359666	-0.22414492	-0.033548027	0.2290925	-0.49996483	-0.10473903	0.0
GSM6249334	0.13282754	0.09102881	0.9871144	0.2080528	0.69226635	0.9011285	-0.4813375	-0.45117387	-0.06788276	0.04062602	-0.4815221	-0.1344467	0.31145662	-0.42686442	-0.063125804	-0.23119174	-0.10885892	0.0028340258	0.72690356	-0.43769485	0.16655023	-0.3028223	0.32210192	0.25341222	0.13588393	-0.031355366	0.40930974	0.036794074	-0.34362817	0.70355326	-0.17228206	-0.0017338867	-0.80869865	-0.70569164	-0.5260797	-0.07323844	-0.11386448	0.6990257	-0.28191695	0.50477123	0.0083266655	-0.14608137	0.4876935	-0.06451513	0.4276597	0.41331914	0.22429313	-0.32191372	0.35636398	0.54883885	-0.52080727	-0.026909668	0.07947363	0.1067131	0.27846694	0.41155556	1.3380864	-0.024167381	0.31029812	-0.42067006	-0.0101632485	-0.51078826	-0.34019002	0.77342963	0.34005058	0.41637266	0.32199317	-0.7868	-0.6966191	-0.95656717	0.50032073	0.031074623	0.9406063	0.44195202	-0.24705212	-0.41357496	0.65254843	0.61751163	-0.11338495	0.88256615	0.9957628	0.31832746	0.16087426	0.24754909	0.02134458	0.6675647	-0.714374	-0.4689661	-0.03258613	-0.78266174	-0.030116798	-0.9977878	-0.18318316	0.23809546	-0.38262174	-0.44382215	0.16822904	0.5597557	-0.52633756	-0.44577363	0.0
GSM6249335	-0.36300623	-0.42486194	0.61067003	0.040923014	0.09766634	0.14178517	0.9836976	0.4380338	0.6335659	-0.691398	-0.25657955	0.23594157	0.017356522	0.18381643	0.023339253	-0.44726008	-1.4303805	0.7914392	0.6123663	-0.42864487	0.82764745	0.15150775	0.26819554	0.1920616	-0.24759723	-0.0045054094	-0.25721157	-0.6454958	-0.04616074	-0.5513844	0.5404493	0.0840666	-0.3071517	0.6174148	0.55543363	-0.65990365	0.14449477	-0.22561039	0.114734456	-0.2248099	-0.73253745	0.37632528	0.671363	0.09189244	-0.2379156	0.75202334	0.6168392	-0.39357504	-0.7840712	0.47319952	-0.61147165	0.25002196	-0.8999838	-0.0855699	0.15966097	-0.5213595	1.3181226	-0.9800286	-0.5817511	0.5394215	0.15833265	-0.2411187	-0.28609928	0.43343624	0.17425877	0.5649542	0.59498984	0.19747233	0.24568544	0.49872634	-0.20669523	1.0669756	0.46529943	1.3498871	0.23797007	0.44426748	-0.4329574	0.29997814	-0.8788185	0.24665973	-0.21556151	-1.5030956	-0.1647161	-0.19325952	-0.06769844	-0.6956901	-0.40184686	0.0006210247	0.3872545	0.09706135	0.32625675	-0.60466576	0.5098852	0.5793862	-0.37544748	0.0645082	0.6175145	-0.48323178	1.2205318	-0.1946167	0.0
GSM6249336	1.2464707	-0.63476944	-0.81260324	0.3791977	-0.31497467	0.0011066098	0.71034366	-0.52551436	0.993732	0.049027115	0.30430034	-0.28982207	-0.31502587	-0.2541424	0.27517998	-0.057675455	-0.47985038	-0.77295786	0.07936156	0.59727645	-0.04432508	0.5572231	0.1157159	0.0012197309	0.22536051	-0.8241204	0.47004253	-0.43905586	0.5898394	-0.41447592	0.34625325	0.16082096	0.17773527	-0.5429584	-0.27631882	0.8248988	-0.5701403	-0.3381803	-0.15657507	-0.21603072	0.07532107	0.18688677	0.061873842	0.37619722	-0.3188663	-0.31092238	-0.2931963	0.5604913	-0.32603633	0.597474	0.16942695	-0.113940746	0.014665214	0.05235259	-0.33745515	-0.2188218	-0.77474856	0.76247495	0.55737364	0.55347157	0.799845	0.13780607	0.5016579	-1.2120726	-0.8041355	-0.052316066	0.06313617	-0.15325423	-0.001153081	0.018024711	-0.16284223	-0.3158908	0.09824412	0.9589895	-0.69022745	1.0756917	1.0092156	-0.4511778	0.15827839	0.1883412	-0.2839278	-1.100354	0.52444005	1.857573	1.4179509	-0.86138695	0.095214315	-0.11141551	0.17049801	-0.6257776	-0.71559316	0.27575356	0.55179083	0.12458793	-0.6001764	-0.7358817	-0.30082178	-0.18124405	-1.4653182	0.1808231	0.0
GSM6249337	-0.20229769	-0.024823327	-0.13874984	-0.7810808	-0.03433843	0.036278874	0.7921084	-0.65838677	0.10934897	0.28040484	-0.19679953	0.19807589	-0.22076231	-0.03922077	0.39329222	0.31326988	1.6360141	0.118968055	-0.3964551	-0.37308684	-0.17847379	-0.8427309	-0.012994316	-0.26676401	-0.13701074	0.71029186	-0.24670175	-0.5275588	-0.37240326	-0.7265578	0.43771595	-0.39615905	-0.3550543	0.9499491	0.6993438	-0.08054265	0.041506886	0.86952406	1.4645213	0.21618433	-0.92680943	0.20920663	0.012481452	0.18600713	0.0861674	-0.40956664	0.05348759	-0.1917873	0.5139678	-0.6882884	-0.9099189	0.10335028	-0.47650835	-0.8264741	-0.24367738	-0.80264986	0.89958847	-0.39086726	-0.23556212	-0.71753705	0.8992289	-0.38739687	-0.6866576	-0.29722258	0.61540294	0.66914874	0.77954656	0.67613655	-0.24587579	-0.5126985	-0.015929222	0.2708018	-0.49353993	0.3721655	-0.04284643	0.017888915	0.27151567	0.09805256	0.25176096	-0.4112533	-0.26849842	0.71261406	0.7447911	-0.118406154	-0.9114965	-0.20578289	-1.0415461	1.0519778	0.5060792	0.083181776	-0.95453024	0.5894635	-0.5254176	0.1441566	1.2947302	0.11857376	1.0437827	-0.63381064	0.0084596975	0.2728884	0.0
GSM6249338	0.3591832	0.49018487	0.37766805	-0.2710718	0.04019441	-0.15631904	-0.7461135	0.06798709	-0.0481451	0.5764646	-0.21861143	0.33329558	-0.6027759	-0.15677767	-0.13353987	-0.24902588	-0.18806005	0.3072195	0.019298702	-0.21056418	0.40303048	0.08773757	0.32868385	0.33001855	0.4938665	0.04735392	0.19697775	0.5314661	0.2842929	0.6451821	0.07571108	1.0258439	0.47297952	-0.4318254	1.1765765	-0.0918043	0.31969154	0.33895275	-0.18929137	0.23752397	0.25347495	-0.24843815	-0.36255983	0.48834306	0.17044976	1.0529549	-0.3567309	-0.7317544	0.9275039	-0.74117243	-0.75227004	0.38070792	-0.20042227	-0.03964326	0.32556394	0.2601385	-0.32685217	-8.130037e-05	0.26831236	0.1351172	-0.09841448	0.18695669	-0.41033706	0.5915936	0.1795955	0.10797777	-0.23134634	0.4540035	-0.44689384	0.75809306	0.18762101	0.09210792	0.47996405	-0.8445593	-1.0336115	0.32084954	-0.14449908	1.0315758	-0.16106844	0.26567298	-0.31575203	-0.63983	0.36618313	-1.1645991	-0.14707303	0.57498145	-0.016149929	-0.58894753	0.29124802	-0.23198926	0.46892792	0.26929295	-0.2592091	0.33734095	-0.15327562	-0.2478718	-0.18588671	0.7114025	-1.0942572	0.14406279	0.0
GSM6249339	-0.057192095	0.11853868	-0.6297833	0.41064638	0.35054418	-0.30917814	0.21077478	0.33278492	-0.09486415	0.2675603	0.0034849432	-0.0028719064	0.14406915	0.20258217	-0.27865174	0.20141427	0.27131307	-0.3516678	-0.1868225	-0.07063748	0.2580073	-0.68157166	-0.4829769	-0.50600624	-0.1922639	0.20735411	0.03031857	-0.13996132	-0.1381239	0.114349425	-0.13847038	0.20223641	-0.2249324	-0.14659038	0.46430424	0.096881635	0.54367626	0.18990767	0.46561167	-0.08443885	-0.56314224	-0.22126372	0.89927405	0.005481705	0.33886686	0.4880924	0.5134977	-0.22001211	0.10194123	-0.2775162	0.03491474	-0.08777077	-0.28635353	-0.43436092	-0.08629439	-0.63433176	-0.31768343	-0.33301842	-0.09702436	0.031567283	0.09182745	-0.22946261	0.108941264	-0.20909286	0.8480265	-0.37385663	0.18587217	-0.871902	-0.26192638	-0.1452683	0.5359972	0.18748866	0.34331998	-0.23653187	-0.0015912391	0.058664173	-0.2459711	0.17421411	-0.11225281	0.16134165	-0.0043909643	0.44746676	0.031868823	-0.5473426	0.005056777	-0.096960194	-0.14783217	0.09250962	-0.16711189	-0.36044237	-0.020419417	0.2189325	-0.14597604	-0.025795713	0.014493623	-0.4195213	-0.054352097	-0.21872775	-0.15080206	0.14937991	0.0
GSM6249340	0.0047099013	0.08379081	-0.20564634	-0.42767182	0.19386813	0.05209387	0.18402655	-0.20905608	0.6743713	0.21722881	0.22153534	-0.0137494095	0.37701955	-0.6050825	0.12540391	0.26048025	-0.00031439323	-0.20209439	0.68596107	0.21764213	0.22864275	0.27475345	-0.3047105	-0.028667571	0.18894164	-0.15453814	0.5557583	0.23658326	-0.19201645	-0.30427507	0.046845958	-0.26608565	-0.24475586	0.6334857	0.64805377	0.4806509	0.22012869	-0.4763375	-0.48797166	-0.3368749	-0.31524378	-0.34637427	0.2840757	0.29505423	-0.19238229	-0.4247606	0.5001274	-0.31651866	0.5140845	-0.5512422	-0.65995467	-0.21705796	0.09819283	0.60772896	-0.33289132	0.15894848	-0.026582954	-0.47425637	-0.6839446	0.51262563	0.5408833	0.22651237	0.02549616	0.3876507	-0.36957017	0.27456248	-0.2353251	0.134458	0.42079526	0.77784926	0.26897115	1.3656484	0.11519432	-0.50232273	0.21459273	0.23865375	-0.9953558	0.21024933	-0.4415827	0.22756347	-0.51856714	-1.354317	0.19172916	-0.22356115	0.07805473	-0.21772878	-0.62343407	0.355693	-0.649452	-0.8030095	0.5039142	0.28759435	-0.25340298	1.1998984	0.7959981	-0.1584379	0.08308372	-0.5239596	1.1241812	0.34614447	0.0
GSM6249341	0.29421577	-0.8625377	0.09581443	-0.023587294	-0.6012767	-0.37534863	-0.08066544	-0.46039402	-0.6638086	0.38835573	-0.31337172	-1.0699334	0.08500558	0.38317248	0.16252719	0.17001069	0.16126025	0.14540352	-0.1438733	0.06510708	0.7719509	-0.11039356	0.20173277	0.8350257	0.08486998	0.207349	-0.14894709	0.4983557	0.3799168	-0.25974083	-0.33349732	-0.81183183	-0.112800725	-0.5335631	0.52192664	0.14462711	0.46599278	0.48609394	0.4706254	0.17665899	0.6191065	0.39557317	0.03347108	0.32712284	-0.30077663	0.048131723	0.40168408	-1.2859331	0.019973166	0.3880892	-0.31368026	-0.01542209	0.017394727	-0.7778053	-0.05376953	-0.41213214	-0.46875116	0.043851957	-0.86630017	-0.22489971	-0.33088815	0.5104067	0.20250218	0.25539294	0.0053326976	0.7634395	-0.101127654	-0.3441376	-0.15911503	0.045188215	0.42764732	-0.23017624	0.056142315	0.19902585	0.038062055	0.7859551	0.70000994	0.28505817	0.3542135	0.32749546	0.1523526	0.37545452	0.0072829216	0.041094773	-0.31534213	-0.22706787	0.4247123	0.255341	0.1728294	-0.27697682	0.11439972	0.178645	0.3302008	-0.27145606	-0.07651201	-0.14099328	-0.47506768	0.1244455	-0.4365558	-0.21808803	0.0
GSM6249342	0.6847264	0.1082798	0.071756765	-0.19045734	0.62783885	0.22932838	0.11663601	-0.102203466	0.1257378	-0.4237358	-0.1434795	-0.2727249	-0.097905554	-0.5273506	0.25010693	0.2285133	-0.16794431	0.020989448	-0.69749326	1.1329321	-0.0737949	0.42246673	-0.5997739	-0.43067837	-0.20934339	-0.27952564	0.6400085	0.009265579	0.28617236	0.069108985	-0.21181223	-0.28115177	-0.44495037	0.52502906	-0.46916768	0.5004622	0.27668536	-0.120689854	-0.096078455	0.030609531	-0.9272423	-0.21859944	0.09701093	-0.19524075	-0.033858385	0.012156884	-0.3961081	-0.03747035	-1.0407069	-0.16136536	-0.034033835	-0.10475955	-0.4837625	0.18912868	0.3894704	-0.9376579	0.3616182	-0.32529184	-0.5424799	0.52173173	0.46093595	0.13179605	-0.41579685	-0.6838885	-0.033422634	-0.22469737	0.7265331	0.074271396	-0.59390455	0.88058996	-0.81162524	-0.67554367	-0.5360796	0.16920796	0.47782844	1.358409	-0.011123989	0.2722861	-0.68173856	0.02925512	-0.867652	-0.49536297	-0.09968247	-0.017498612	0.6500868	0.27241147	-0.17360988	0.163727	-0.09385863	0.26292	-0.468596	0.01559171	-0.47801387	-0.608399	-0.21575725	0.7746289	0.53849924	0.1909411	0.19359104	0.24177529	0.0
GSM6249343	-0.016515821	0.123556525	0.37594652	-0.2103544	-0.021705844	-0.2713004	-0.5415677	-0.10168178	0.09777033	-0.24884684	-0.936884	0.90508604	-0.38783365	-0.44104612	-0.07161202	1.3028439	0.1271607	0.63651633	0.15658353	-0.6778548	0.40824768	-0.18047442	-0.1168954	-0.42263725	-0.6484466	-0.20093133	-0.459225	-0.71430105	-0.47056243	0.1620511	-0.5031736	0.98990095	0.04069064	0.3259995	-0.024948956	0.48234835	-0.16381735	0.12826492	-0.85722613	-0.27028495	0.50606126	0.3110677	-0.12680028	-0.030677544	0.42028946	-0.49281496	-0.5054484	-0.01644163	-0.6531124	-0.1626503	0.25444946	-0.08709603	-0.033413745	0.11362019	-0.38557318	-1.1741635	-0.2893933	0.4378428	-0.35145167	0.1278317	0.5093753	-0.2612543	-0.05049524	-0.17568766	0.0055552195	-0.7041474	-0.3526852	-0.30434644	-1.2351848	-0.14240174	0.15741828	-0.2867637	0.3535656	0.25919706	-0.29320037	0.15555467	-0.76674014	0.9517153	-0.013966181	0.50110716	0.07585248	0.060476918	-0.4981735	-0.1690317	-0.2917322	0.7088593	-0.93297654	0.49324054	0.5348914	0.42747062	0.019769121	-0.011946683	0.5409647	-0.13333064	-0.052535128	-0.1298186	-0.32358235	-0.24870679	-0.7107748	0.52575326	0.0
GSM6249345	0.2698279	-0.4286496	0.3216878	-0.25588894	-0.33083	0.02185528	0.6375435	-0.2817073	-0.14883582	0.482277	0.14391854	-0.6234335	-0.2534272	0.21576937	-0.37187693	0.27661055	0.516868	-0.2940114	0.2206488	-0.01256969	0.510957	0.28889927	0.2303294	-0.78058374	0.08472536	0.38316444	0.4218689	0.02436837	0.75173247	0.20206748	0.036285933	0.23814215	-0.7416462	-0.3705507	-0.2896887	-0.052470587	0.1184619	0.70918864	0.106871456	0.46034005	0.23868425	0.2722076	0.1333275	-0.19364424	-0.39197004	0.29325134	0.51323295	-0.41381317	0.25612003	0.27578026	0.2216957	-0.2493726	0.45504066	-0.3270813	0.65035594	-0.49795473	0.12071575	-0.42108074	0.4177913	0.0655348	-0.5315434	0.11576391	-0.010740878	0.01213743	0.059507553	0.6023208	-0.17361489	-0.36975884	0.09572039	0.19492118	0.69512314	0.51904327	-0.35374016	-0.16292754	-0.6358082	0.30908024	0.17889099	-0.09410547	0.12831448	0.19883817	-0.44703606	-0.12300337	-0.021399327	-0.104040354	-0.004365973	-0.52822584	0.5460289	0.28955412	-0.14460209	0.1591665	-0.43106547	-0.12726836	0.8411396	-0.15803158	0.089930974	0.17872581	0.09461429	0.1128117	-0.18326078	0.12019593	0.0
GSM6249348	0.8247742	-0.05690718	-0.882191	-0.035930347	1.2564156	0.35515407	0.044362362	-0.10483226	0.3827835	0.6114834	-0.2584781	-0.769636	-0.48157063	-0.8777837	-0.15137471	0.04913748	-0.34673706	0.35072228	-0.036915798	0.64599985	0.37506247	-0.42902014	-0.576984	0.21464737	-0.88173485	0.34391153	-0.61972666	-0.66857237	0.34993437	-0.7291159	0.20885499	-0.39034796	-0.1962199	0.036724906	-0.72086585	0.5837666	-0.37756172	1.0878422	0.23944756	0.2717081	-0.4576883	-0.117515385	0.22737232	0.1897869	0.56542313	-0.0056776805	0.15262075	0.45117024	0.60890305	-0.44032067	1.158906	-0.9321881	-0.20743674	-0.15921466	0.48031822	-0.5072697	-0.37934062	-0.4149093	-0.8800449	-0.058923546	-1.2162026	0.11291947	-0.7565974	-0.258279	-0.38255692	0.519111	-0.12013323	-0.37480578	-0.39266068	0.8569043	-0.104115866	0.23672758	-0.4397394	0.36738265	0.013766613	-0.3282595	-0.35720354	-0.025186641	0.49162993	0.20490922	1.0482846	0.062292296	0.15125723	0.026777443	-0.055965032	0.5770998	-1.2642412	-0.056056738	-0.1893783	0.9156733	-0.6069371	-0.4518105	0.5499083	0.5341889	-0.29545403	0.81281954	-0.18752797	0.022284023	0.1877454	0.1789544	1.0
GSM6249349	-0.41658765	-0.20589027	0.09429858	0.8416582	0.012320226	0.09372677	-0.11408776	0.43384677	0.01847545	-0.73472244	-0.30603236	0.6217319	0.23933728	-0.77138704	0.109700724	0.25570437	0.08203286	-1.2696584	0.37888294	-0.15468328	0.33134818	-0.33483404	-0.18679404	0.14186502	-0.7175351	-0.4808198	-0.08437027	-0.15319784	-0.16952679	0.40063918	1.0282578	0.06117297	0.48734868	0.5273313	0.25613776	0.741269	-0.4256047	1.3509172	-0.2084214	0.08307992	-0.7118351	0.30856547	-0.5579728	0.23342183	0.5180383	0.49667186	0.5176369	0.014121193	-0.3143864	1.0757303	0.29521954	1.4614406	-0.7914536	0.6471787	-0.18841077	-0.71800804	0.0020556883	0.5855897	0.5553155	0.11189139	-1.1121025	-0.75459504	-0.09029263	-0.857326	-0.3799847	0.7967341	0.54975057	0.53120506	0.6107359	0.8040641	-0.11680097	-0.36913073	0.10333604	0.5758039	-0.52022654	1.5447268	-0.46688375	-0.03998559	0.3543343	-0.46341228	0.25447163	-0.3514428	0.12906522	-0.08313678	-0.45584148	0.003033841	-0.76886135	-0.21104556	-0.36245486	0.94764644	-0.60089636	0.24119788	-0.53416675	0.015987242	-0.56105316	0.23761393	0.36061954	-0.17472234	-0.0032981215	1.0496974	0.0
GSM6249350	-0.04886748	-0.6974981	-0.47148904	-0.407804	0.84527194	0.42797226	0.053520285	-0.5170356	0.10740934	0.7821541	0.22575624	-0.4061377	-0.0769586	0.44040298	-0.31452587	-0.29373533	0.3293012	-0.19579448	-0.23667647	0.26561227	-0.022209639	0.07267146	0.44954875	0.2375333	-0.81291205	-0.34678292	0.1956961	0.1451525	0.032299116	-0.593321	-0.5975214	-0.49420333	-0.25572827	0.19245137	-0.52510947	0.08777356	0.019919451	1.1248257	1.0459425	-0.021612544	0.4627387	0.5956194	0.19060156	-0.23051305	-1.1934127	0.08771118	-0.007982853	0.23404548	-0.118606366	-0.0862943	0.5294401	-0.088589065	0.1125194	-0.123505145	0.5917425	-0.7658137	0.9312564	-0.44623977	-0.65708566	-0.4732911	0.5467313	-0.8813408	-0.3028824	-0.98249704	-0.49009022	1.0117748	-0.39134958	-0.7521022	-0.6240695	0.09527518	-0.62421745	-0.7858432	0.6769411	0.19777575	0.5591695	-0.38726673	0.22311999	0.10552634	0.38743177	0.20820548	0.69618565	-0.7096376	1.1913168	0.047640644	0.3481925	0.31081113	0.1507136	-0.53268176	0.9904637	-0.26686358	0.26256806	-0.48849884	0.07488087	-0.7745774	-1.2945842	0.4845321	-0.2072663	0.18347032	-0.19664961	0.37152645	0.0
GSM6249351	-0.01676297	0.0717217	-0.40659466	0.1469561	-0.17283762	-0.0066526853	-0.71240795	0.87731993	0.4025454	0.3686593	1.0412737	0.3901669	0.84820443	0.1484015	-0.83705497	0.6459805	-0.4291074	0.12075564	1.2643601	0.09335863	-0.10243536	-0.12633298	0.8329908	-0.30690005	-0.6546591	-0.23891686	-0.7589314	-0.17164738	-0.021056196	-0.14547901	0.32729518	-0.76496744	0.6313842	-0.5184653	0.5455379	0.6244385	0.23746979	0.1525039	1.74458	0.111285865	0.39152697	0.55803335	-0.93936485	-0.05626623	-1.0242436	0.17315409	0.77231103	-0.04687151	0.3760293	-0.18934514	-0.5612114	-0.341776	-0.61173815	-0.0056675333	0.29610702	-0.19880757	0.13645945	-1.0864061	-1.0708586	0.48182228	0.71571887	0.020340033	0.12307965	0.3261377	-0.8800828	0.0069967424	-0.17644455	-0.23330973	0.5195078	-1.3704169	1.2328222	-0.05662783	1.3476162	0.004165912	0.020381818	-0.11775337	-1.3028461	0.49398687	1.0314811	0.25014463	0.5853702	-1.343623	-0.02949379	0.04418245	0.07720419	-0.46839127	-0.29337725	0.537565	1.0928582	-0.5038034	-0.4512933	0.63264346	-1.0602368	0.09844384	-1.011657	0.29446182	0.30031598	-0.105337754	0.21661688	-0.046572346	0.0
GSM6249352	0.31530616	0.5710728	0.27992994	0.30908692	0.004034549	0.058171004	0.1038532	0.22352432	0.2004071	-0.17289829	0.19785082	0.12329708	-0.24340522	-0.56918174	-0.395614	-0.15911777	-0.50066745	-0.023516325	-0.32863754	0.11411629	0.30977365	-0.07014733	-0.11282465	0.01780575	-0.17569451	0.27342564	0.36211744	0.15769853	-0.17447439	-0.021577718	-0.13895775	-0.3037104	-0.05111993	-0.13931403	0.16928275	0.6639946	1.013485	-0.38779286	-0.37449875	-0.71734774	0.25611413	-0.65038985	0.028769692	0.30202928	0.11618498	0.32100996	0.04106575	0.026477639	-0.4702119	-0.22141798	-0.21408665	0.3842868	-0.0076192413	0.37516376	0.18059625	-0.34242192	0.1643177	-0.7722076	0.48479518	0.46833494	0.12283964	-0.70332795	0.55613565	0.3371821	0.21080366	-0.037652005	-0.3372021	0.09744232	0.28931928	-0.82189435	0.08418668	0.59251916	-0.15162063	0.3519152	-0.40543222	-0.37761742	0.113562696	0.8238621	-0.36343253	0.2271405	0.1544907	-0.68041366	-0.3014725	0.8500159	-0.06933794	0.3267741	0.42820206	-0.5114023	-0.30538717	0.16072586	0.55089	0.18617228	-0.50183886	-0.2477643	0.10919541	0.30998215	-0.3561035	0.28991145	-0.7542884	-0.07524811	0.0
GSM6249355	-0.25835884	0.36100307	-0.2760183	0.3174756	0.8079398	0.7445833	0.26204982	-0.520866	0.24801444	0.5851676	-0.62192667	0.14354947	-0.45171082	0.14254083	0.43568158	-0.01601874	0.9026969	0.47845033	-0.071137935	0.049149718	0.5150104	0.41858286	-0.12094801	-0.99632406	-0.37559494	1.0018584	0.3479932	-0.16783927	-0.42020956	0.8992137	0.031153217	0.27690858	-0.4092129	0.39404956	-0.30982554	-0.4888199	-0.13872488	0.40027308	0.43708745	-1.2165483	-0.2555118	-1.143605	0.2851296	-0.41054153	0.80498433	-0.5263815	-0.032538973	-0.13850139	-0.44279867	-0.598889	-0.25832838	-0.09568681	0.680012	0.05127828	0.3032284	-0.25532436	0.059012182	-0.7408578	-0.30258405	-0.1877571	-0.016084628	-0.2973526	0.12432928	-0.61963916	0.20692049	0.293758	0.24298106	0.03915263	0.27074733	0.14328133	-0.1600153	-0.70672745	0.32905126	-0.45718896	-0.4359863	0.45160818	-0.78823304	0.09537454	-0.32280904	-0.0907865	-0.51829	0.41918477	-0.23441078	0.42773196	0.27482176	-0.37730417	-1.0477629	0.47505733	0.23502588	0.6014549	-0.09563563	-0.025691146	0.31124136	0.26690793	0.41050342	-0.49178866	0.741584	-0.509969	0.11330993	-1.2947452	0.0
GSM6249357	0.28427425	0.038775995	0.060358252	0.13400492	1.0134565	0.6806264	0.3680563	-0.13384794	-0.45302302	-0.26218757	-0.073064834	0.67747605	-0.5275891	0.21893556	-0.6943046	0.26149777	-0.87586963	-0.4793571	-0.31997225	-0.0746369	0.45238614	0.43683004	-0.27623284	0.9761073	0.47452375	-0.1128824	0.087796606	-0.072615385	-0.22336726	-0.5209733	0.049289882	0.07620523	0.4285445	0.4001105	-0.001533568	0.63377297	0.57443607	0.014876928	-0.42316234	-0.21022071	0.14833745	-0.19069035	0.18307817	0.26200935	0.27905342	0.42302656	-0.17122485	0.47581732	0.33641073	-0.14604552	-0.45688713	-0.03618944	-0.14883138	-0.011745923	-0.04307602	0.050244067	-0.5656789	-0.714642	0.4058431	-0.146573	-0.4162151	-0.8055991	0.46913606	-0.4971308	-0.6436193	-0.06465241	0.10721413	0.3821433	0.6880681	-0.2550735	0.23211259	0.566234	-0.5170192	0.1411067	-0.6953437	-0.15036042	-0.31814164	-0.022797853	0.053860046	-0.36390185	0.5756582	0.31854698	-0.026994597	0.5219667	-0.03243056	-0.20444101	-0.29382256	0.060894944	0.29066744	-0.19730482	-0.5213472	-0.35577384	0.14292477	0.14420475	-0.6441371	0.33922192	-0.85334074	0.8868011	-0.755275	0.56843483	0.0
GSM6249359	-0.79204994	-0.73408896	0.14291807	0.052321877	-0.142366	0.3354501	0.4155192	0.5238015	0.9133827	-0.29062924	-0.31796682	0.5996913	-0.5538333	-0.58294374	-0.0006621033	-0.6518352	-0.43005753	-0.23240161	0.8118925	0.27548483	0.41597798	0.51850986	-0.42464516	-0.101563334	-0.3443488	-0.41890988	-0.4368148	0.0114661455	-0.37719864	-0.11740549	0.1130887	0.4113519	0.12514828	-0.34539747	0.24184053	-0.7589312	0.06226628	-0.6304063	-0.5215597	0.25946918	-1.2333966	0.74432385	-1.293268	-0.38064212	-0.023920108	-0.2844911	-0.3454545	-0.43171197	-0.21224818	-0.14277653	-0.4170525	0.37727427	-0.3112759	0.40328804	-0.70780456	0.46708256	0.6836786	-0.45637313	0.09991253	0.48123142	-0.16893426	0.067102	-0.13242109	0.5636661	0.26582974	-0.65701145	-0.09662993	-0.5114136	0.36165878	-0.16426523	-0.9708146	0.44449857	-0.17037937	-0.29171994	0.047084432	0.19365185	0.049593132	0.27503783	-0.9792316	0.16931526	0.33869222	0.8274082	0.27559367	-0.3465483	0.5183036	-0.8957478	-0.06836238	-0.40691656	-0.86950487	0.45720604	-0.7524961	-0.37484476	0.2326474	0.34726506	-0.3154105	0.48827454	0.04931662	0.12189024	0.3253694	-0.5071879	0.0
GSM6249361	0.37617967	0.20616576	-0.059491184	-0.2104747	-0.08831804	-0.33661777	0.4483991	0.10274477	-0.5751704	0.16136813	0.297334	0.22284083	0.074377	0.5566885	0.060252316	-0.16063032	0.57242036	0.68855816	0.4299367	0.09707324	-0.16445738	0.5903865	-0.10857531	-0.35723343	-0.07816266	-0.8481055	0.53440285	-0.038407356	0.137901	-0.054045543	-0.81680673	0.55428195	-0.11118544	-0.5769254	-0.14842412	0.2352055	-0.04622337	-0.65615296	-1.0613925	-0.2583918	-0.17022221	-1.0095167	-0.52834517	0.317014	0.20161043	0.34725556	0.7731191	-0.23482706	-0.10758248	-0.047282062	0.01298963	-0.49089673	0.78134245	-0.048641074	-0.28864625	0.34539542	-0.10967831	0.14134143	0.56497735	-0.4493792	0.53678226	0.4951944	0.6827453	-0.9609258	-0.30356377	0.3123459	0.24170926	-0.07970313	-0.5923623	0.16205904	0.23518841	0.11837595	-0.34425977	-0.16145597	0.42911103	0.60912573	-0.64787734	0.4820237	-0.27566147	-0.10612617	0.0653874	-0.25633508	0.13756089	0.34922442	-0.6664504	-0.37471184	-0.16764574	-0.259282	-0.085242964	-0.009360237	-0.41177714	-0.15634543	-0.28301844	-0.48059553	-0.13146588	-0.37894955	-0.51643884	0.3959827	-0.14378084	0.33116108	0.0
GSM6249362	-0.34762302	-0.90269035	-0.59103197	-0.01107324	0.374141	-0.17419292	0.1482713	-0.0648413	-0.38260818	-0.27837506	-0.06827648	-0.2700651	-0.49226642	-0.4948344	0.7926082	1.0651758	0.6907113	-0.59406114	-0.036473773	0.47330478	-0.61802834	0.17478281	-0.72379714	0.19895044	0.06908142	0.3657226	0.7166039	-0.6886483	-0.01602703	-0.07446498	0.59945095	-0.27941608	0.34004396	0.4114311	-0.24341133	-0.089188375	0.02711672	1.5370424	-0.25159198	-0.1751659	-0.39107922	0.4789763	0.15918617	0.61126745	-0.36088395	0.1573271	-0.7850623	-0.33993566	0.08007356	0.37597734	0.5553678	0.61347586	-0.20302808	-0.014166431	0.77999914	-0.57205117	0.044098206	0.15856598	0.3782206	-0.77813584	0.42654115	-0.55499315	0.47757196	0.7398696	0.34917983	0.25152403	0.9328231	0.17241967	-0.80314475	0.45359528	-0.032555237	-0.08374822	-0.8867918	-0.81578875	0.2661472	0.42286307	0.058629572	-0.08419099	-0.47866395	1.0104437	0.673721	0.47509667	0.54233694	-0.58773303	-0.42415872	-0.13672687	-0.0010150814	-0.89789194	0.45447996	0.1335499	0.282771	0.26345074	0.23520568	0.41118205	0.79555196	0.42884606	0.23050034	-0.32052287	-0.30136883	-0.22139788	0.0
GSM6249364	-0.027378313	-1.1627061	0.28539193	-0.091351524	0.6872033	0.621925	1.0928662	-0.02222134	0.4710409	1.3993497	0.4935212	0.18580696	-0.008226511	-0.94533974	-0.42721063	0.4170558	-0.18648346	0.29072288	0.22407275	-0.40126052	-0.558418	-0.975828	0.8174194	-0.09899121	-0.23340616	-0.2510286	0.05728053	-0.917999	0.4610024	0.70924604	-0.114706896	-0.21541354	-0.40546802	-0.06187215	0.286795	-0.5338517	1.4192789	-0.027937902	0.34733355	0.513117	0.20848906	-0.7536141	0.84592813	0.21223536	-0.68070155	0.15650992	-0.5564326	-0.6645956	0.8853461	0.7322782	-0.1626434	-0.5251337	0.3939618	-0.21474549	0.20872779	0.28894785	0.14127354	-0.48514265	-0.10743838	0.2579456	-0.08189158	0.29720303	0.60696876	0.12452316	-0.41111535	0.42505425	0.191998	-0.6496061	-0.34395176	-0.69374204	0.21890508	0.34300238	0.24315761	-0.26374	0.37359506	0.81475806	-0.6998138	0.42243695	-0.089954205	0.053879444	0.36171567	-0.5474863	-0.22598803	-0.062425222	0.6827177	0.3225137	-0.07896652	0.38103563	0.20637769	0.45650235	0.19575438	-0.6554086	0.848428	-0.2859298	-0.2493026	-0.34268954	-1.0066142	0.6534901	-1.0275317	-0.49415395	0.0
GSM6249366	-0.014177903	-0.26427105	-0.22709756	0.33264324	0.4093847	-0.58897275	-0.37689883	-0.19036382	-0.30351502	-0.08147669	0.4725725	-0.17583725	0.062984265	-0.39192528	-0.86680084	-0.23108226	0.29141295	-0.048227713	-0.3524521	0.14711165	0.5710111	0.18873769	0.5568973	0.026873453	0.66401076	-0.0414216	-0.20822643	-0.43839014	-0.01729106	0.11651822	0.010737731	0.013839638	0.64966977	0.021599377	-0.17733303	0.36289185	0.79919666	0.068139195	0.17079939	0.0055218404	0.19959445	-0.5647187	0.6509719	0.5410173	-0.08712013	-0.31935146	0.0038822882	0.22084065	0.3821118	0.18505941	0.40732333	-0.3155698	-0.011991052	-0.29457167	0.20098397	0.5579279	0.15807813	-0.10823187	-1.0571404	-0.049028106	-0.039881155	-0.728575	-0.40349692	0.03932668	0.20603575	0.23760444	-0.33638227	-1.0925995	-0.79512686	-1.5273474	0.20321506	-0.2731172	-0.13111928	0.07879748	-0.08769546	-0.41485864	0.64361316	-0.1953478	0.59116846	0.14865088	0.052112784	0.11759338	0.35795122	0.2139363	0.0015268368	-0.1513478	-8.3293125e-05	-0.6512542	-0.18097116	0.66818666	0.24207631	-0.9903426	0.14671248	-0.35059676	0.0115377745	0.050203435	-0.33532366	0.21978009	-0.4837081	-0.061385572	0.0
GSM6249368	0.5105085	0.06455102	0.6707062	-0.30736095	-0.36520514	0.17195776	-0.2847675	-0.2604043	0.69250745	-0.34080926	0.37712643	-0.8461569	0.086872466	0.65278643	-0.5204737	-0.5496112	-0.14134483	-0.37525985	0.9167481	0.8423654	0.6030528	-0.28515413	0.09024425	0.21646443	1.0438329	0.47815597	-0.7267355	0.5777413	0.21877702	0.54028404	0.13502008	0.5183317	-0.61019945	0.4274883	0.8426976	0.17444418	-0.59905034	-0.47770438	-0.06856725	-0.31437516	0.42985678	-0.8064851	0.03763103	0.11439393	0.39070854	-0.90626335	-0.13986842	0.15576325	0.7891385	-0.20168704	0.22227608	0.36867136	0.103868105	0.11638588	0.20376875	-0.19030389	0.008791649	0.73105264	-0.16703552	0.4598745	0.17550437	-0.21344844	-0.15008278	-0.20846567	0.28500286	0.8305273	0.7229088	0.20585679	0.73245335	-0.14053336	0.05771669	-0.18834417	-0.27736005	0.37335867	0.5453215	-0.18377586	-0.31165418	0.24004197	-0.4025805	0.38066217	-0.36945665	0.031486116	-0.19478805	-0.71430176	0.28089288	-0.55270255	0.47100282	0.14866842	-0.46350664	-0.24788296	0.6119483	0.7148462	-0.36947602	0.17654617	0.5001549	0.24467053	0.6609255	-0.39090368	0.67018855	0.6872607	0.0
GSM6249369	0.3632828	-0.32954654	-0.55489093	-0.48901027	0.40696228	-0.05524078	-0.109365426	-1.268418	0.8224423	-0.29013136	0.03160317	0.2794693	0.80377686	0.30956587	0.04397216	0.052564766	-1.5922052	0.07148102	0.6190166	-0.39647788	-0.4647908	0.6115655	-0.61286306	0.5370791	0.032491732	-1.0500621	-0.7658527	0.62228185	-0.7908558	0.38531205	0.21598779	0.078788064	0.111215934	-0.12760563	-0.06157184	-0.07945557	0.26488394	-0.50529724	-0.12893693	-0.13935733	-0.4764811	0.23808408	-0.16359848	0.21844307	0.21431391	-0.60188496	-0.026712783	-0.33378598	-0.1818062	-0.13945086	-0.48431104	-0.017637426	-0.5712945	0.40872514	-0.5857554	-0.68109703	0.20927016	-0.40122005	0.007726253	-0.12057461	0.81734014	0.15914641	-0.9423027	0.11267344	0.2554806	-1.1302357	0.6817428	0.3695752	0.35592318	0.064017184	0.29544523	-0.19951202	0.5165115	-0.59939355	0.2576509	-0.05708686	-0.17985949	0.16406636	0.46107545	0.020245994	-0.13433212	-0.00020839178	-0.16369617	0.95783395	-0.04536279	-0.5472339	0.36842483	-1.0739224	-0.059884306	-0.061036542	-0.9746761	-0.38674673	-0.5260564	0.1538816	-0.27875718	0.25859255	0.28428498	0.005140169	-0.14785004	-0.47326398	0.0
GSM6249370	0.48038277	-0.40001813	-0.7287445	0.3380988	-0.3679855	-0.28653052	-1.04634	-1.2316914	-0.25950465	0.48454097	0.36670777	0.47871196	0.65485054	0.50939	0.34119007	0.1898425	-0.0036492182	0.1363524	-0.3865013	0.34301683	0.22536968	0.9226873	0.3830868	-1.0718054	0.28993776	0.17401023	0.661903	-0.5893943	0.58071196	-0.36343685	0.07592468	0.4789811	0.15116483	0.12177483	0.25971952	-0.17060931	0.15699978	-0.21947807	0.545485	-0.021420166	-0.04298516	0.70956	0.48664233	-0.47348708	-1.334451	0.40320727	-0.05316387	-0.37343168	0.51418173	-0.7647578	-0.6176455	-0.321453	0.24163029	-0.3995011	0.68362147	-0.5905764	0.91983694	-0.34915262	-0.14475395	0.23439644	-0.07904424	0.7118825	0.7552321	0.029219322	0.086213574	0.7980554	0.12803073	-0.45974475	-0.005700929	-0.996235	-0.7157899	-0.20861389	0.06507446	0.33838302	0.26984826	1.0338111	0.003986636	0.9813716	0.37655458	0.9328098	-1.3381548	-0.8004077	0.05974397	-0.26595944	-0.80221236	-0.15675855	-0.11054277	-0.052482285	-0.22712944	0.39727256	-0.39722204	0.14362827	0.41455096	-0.00029418702	-0.86847323	-0.16136988	-0.038065325	-0.6334061	-0.19061726	-0.0076496117	0.0
GSM6249371	-0.11217848	0.17634162	-0.38429904	-0.2576047	-0.007624015	0.13270892	-0.35015792	0.5708376	-0.14292124	0.045853414	-0.14812368	0.13480528	-0.31189382	-0.5539607	-0.22669058	-0.023115793	-0.6544627	0.47383162	0.12050847	-0.10674391	0.19300123	0.42133167	-0.15481251	-0.34721172	-0.19961575	-0.04397776	-0.48165426	0.08811404	0.50772274	-0.08896738	-0.33308834	-0.06335351	0.3132761	0.0075004986	-0.045380384	-0.047874846	-0.5129505	-0.3294008	0.3848337	0.898791	0.3194205	0.34732378	-0.042113785	0.8335407	-0.09584136	-0.009891485	-0.31313613	-0.075263344	-0.15017639	-0.675772	-0.3827579	0.28710595	0.11698795	0.32311	0.28121433	0.114488766	0.13699411	0.44128528	-0.31599405	-0.42354223	-0.23631364	0.6121552	0.09791521	0.24878305	0.6392863	-0.6363268	-0.45836028	-0.29068336	-0.56751233	-0.6249277	0.05888968	0.032706257	-0.19258653	-0.19737777	-0.095215455	0.77191657	-0.103756785	-0.35746837	0.51701576	0.57629377	-0.23625283	-0.73721796	0.015731703	-0.008632568	0.12583883	0.52644336	-0.0027983827	0.56912565	-0.06187266	0.048545618	-0.24634893	0.18782681	-0.5034668	-0.08843431	-0.25836957	-0.1470186	-0.051009096	0.4639694	0.1049145	0.47105128	0.0
GSM6249372	0.19886471	0.785945	0.0073271133	-0.9435906	-0.79890126	0.33976835	0.30450675	0.34869432	0.28496486	0.37409538	-0.17632076	0.01593159	-1.2267531	0.36211276	-0.48796818	-0.33970296	0.103953585	0.08769699	-0.3309993	-0.4172857	-0.094654	0.4394979	0.25867754	0.34972003	0.5204654	-0.54805905	0.39801347	-0.57788485	-0.20984548	0.35013133	-0.33974758	0.099062055	0.34122133	-0.12039548	-0.42471543	0.028981041	0.042354587	-0.50461113	-0.13848512	0.52912664	-0.19004355	-0.31657904	-0.17771834	-0.40663472	-0.8839746	0.6717867	0.74508053	0.17920907	-0.16938323	-0.03784347	-0.7018934	0.38049635	-0.045859527	0.5105732	0.05647106	0.7739735	-0.9512449	0.64346564	0.415455	-0.4230302	0.05058334	0.143428	-0.041676704	-0.427249	-0.05164248	-0.6780198	-0.49596557	0.43396863	0.34990314	0.787734	-0.11681083	0.010484675	0.24980035	0.22800712	0.289278	0.23644552	-0.79744893	-0.20735137	0.8851823	0.106345475	-0.23221536	0.45450756	-0.5790515	-0.23733808	-0.8301051	0.20372128	-0.10337608	-0.45600018	-0.3077881	-1.1741076	-0.47259605	0.051016778	-0.7266047	-0.31507167	-0.654824	0.41479045	-0.104148105	-0.5759748	-0.38114938	-0.08772125	1.0
GSM6249373	-0.26753926	-0.60525274	-0.270981	-0.21807596	0.71577734	-1.0137053	-0.33713076	-0.09195813	0.5239	0.8699797	-0.98850673	-0.10589275	0.5368223	-0.41645944	-0.7426306	-0.3792528	0.5396766	-0.5602108	-0.31014803	-0.110370636	0.61117077	-1.1925565	0.46946883	-0.81138927	0.2649047	0.48648304	0.8975243	-0.75428677	0.6427486	-0.5576785	-0.04643916	0.26046214	0.006677486	0.27777222	-0.89613295	0.07669252	0.9267138	0.7918185	0.42080358	-0.5558544	0.1819569	-0.1155337	0.042066786	0.7391021	0.024845136	-0.08783665	-0.13186562	0.03333298	-0.06961258	0.3412417	-0.65010816	-0.0998891	-0.9559476	-0.3131265	-0.2534568	-0.33887076	-0.2021804	0.22290535	1.0969785	-0.14753963	0.67235786	-1.1448994	-0.06687337	0.46878436	-0.41702136	1.5419108	0.60351527	-0.14617363	-0.9516031	-0.6767978	0.47178927	-0.12326608	-0.097787395	0.54643893	0.33620536	-0.061868135	1.2914479	-0.4841107	-0.2883817	-0.3959469	-0.4660348	-0.4529313	0.51719266	-0.23509121	-0.78790057	0.6627542	-0.22142264	-0.06596817	-0.70320946	0.54363656	0.90653324	-0.029313052	0.5336251	0.21767934	-0.45842177	-0.2536332	0.06295473	0.029004771	0.05595056	0.38270783	0.0
GSM6249374	0.36582664	1.1706991	-0.52328885	0.36528006	0.37324372	-0.16208774	0.33182615	0.2466699	-0.20318441	0.76142824	1.2175463	-0.70440507	-0.25674903	-0.1712071	0.7061483	-0.053169586	1.663104	-0.85198855	-0.066725604	0.1992749	-0.4483107	-0.4014357	0.24012238	0.52771807	-0.5231593	0.14543824	0.6750212	-0.12515375	-0.049418565	1.0169226	-0.29685554	0.13924855	0.11472191	-0.2158193	-0.3047508	0.3923252	-0.40469807	-0.56606996	0.07338516	0.3003544	-0.92731416	-0.039948627	-0.23212898	-0.47724354	-0.16576903	0.6522312	-0.927309	-0.047515664	1.2320123	-0.5025146	-0.0031961107	0.8675516	0.7087158	-0.06314419	0.032647382	-0.30995953	0.21658215	-0.53618556	0.22076757	-0.29733476	-0.080177285	0.113721445	0.8328681	-0.3104069	-0.56675094	0.48202515	-0.07964948	0.082722254	-0.36026397	1.210733	0.007385995	1.5221618	0.543272	0.5785379	0.84700394	0.26299167	-0.43221933	-0.098544724	0.40528277	0.17746791	-0.058500327	0.16621637	0.37501273	0.024994364	-0.17066957	-0.6463082	-0.5280859	0.75408894	-1.2922763	-0.20435394	0.37303814	-0.20054927	-1.3326633	-0.30628094	0.19631237	0.5677447	-0.23356311	-0.26217026	0.29580054	-0.09370033	0.0
GSM6249375	0.37141412	0.047117542	-0.43620998	0.20567876	-0.37729096	1.011187	-0.5293571	-0.047062907	-0.03463581	0.36626703	-0.32332477	0.30214828	0.11064475	0.63416016	-0.104268156	-0.026091488	0.7078178	0.57136023	-0.33225012	-0.46230143	-0.19952327	-0.9056604	0.41527396	-0.32466838	-0.22682138	0.1452964	-0.32920608	-0.36639675	-0.5515471	0.81811833	0.010625308	0.71738464	0.823468	-0.65447366	-0.63619095	0.4202597	0.47717145	1.6044742	0.6575689	0.08792363	-0.09348385	-0.40594232	0.99065423	0.3137633	-1.003148	-0.0055679004	-0.8735748	0.4400499	0.7457238	-0.38724464	0.77301383	-0.72599596	-0.97251135	0.5796578	0.31301785	-0.6892876	0.007130543	-0.6058331	0.30426526	-0.114929266	-0.33394054	-0.8847049	-0.14575751	-0.43963817	-0.22537898	0.98263466	0.2203505	-0.043203376	0.43105146	-0.10822989	-0.93652	-0.50527847	0.11284753	0.5324419	0.47011843	0.22946118	-0.5094995	-0.19835015	-0.3574752	0.23907363	-0.86771697	-0.6788467	-0.24077162	-1.1916978	0.44201952	0.17931218	-0.010176437	0.2649784	-0.04564128	-0.12436659	0.46232876	0.6948531	-0.06993171	0.5739617	-0.34989008	0.4671444	-0.29112732	-0.5877324	-0.42977342	-0.2989754	0.0
GSM6249376	0.8928155	-0.5287094	-0.21986407	0.23514466	-0.18255371	-0.07801749	-1.0196918	0.28408936	-0.1402528	0.41668478	0.23974876	0.64713746	0.038602594	-1.2148067	0.37814775	-0.19917957	-0.17820871	-0.53106976	0.3149272	0.6449886	0.20836133	-0.459373	-0.16974618	-1.0316923	0.06287889	0.8764373	-0.12307675	-0.26499617	-0.17194451	0.4438041	0.026956951	0.2003554	-0.35161316	0.8989014	-0.3041663	0.78170925	-0.5630428	0.2731203	0.52280426	0.48426986	0.15194719	0.25481454	0.9997224	0.031722505	-0.3451243	0.70639604	0.2033952	0.5036728	0.22021905	-0.35297894	-0.050718006	0.22986399	0.54149896	-0.67298174	0.2940692	-0.7956616	0.13857578	-1.093346	-0.12907568	-0.12333627	-0.26596066	-0.12021845	-0.08810923	-1.1584195	0.22024181	1.0874282	0.45488772	0.2567847	0.40497854	0.13798071	0.4160743	-1.0907662	-0.47657457	-0.18189867	0.56346095	0.2833902	-0.73037547	-0.07877196	0.24575076	-0.19270577	-0.618648	0.11670365	-0.09920254	-0.94967973	0.02087787	-0.15630093	0.11861587	-0.019907381	-1.3487583	0.07177832	0.40622604	0.6575517	-0.1832041	0.5205868	-0.22838022	-0.49043217	1.5913754	-0.36405137	-0.1755277	-0.07505446	0.0
GSM6249378	0.8079555	0.4527035	-0.19900443	0.03545814	-0.03729613	0.31253794	0.020255582	0.25110307	0.018981617	-0.10791213	-0.8025748	-0.2837426	0.43429548	0.15086351	0.47602946	0.26394826	-0.685606	0.19980115	-0.36623463	-0.13024047	0.596995	0.46411794	0.0046573244	-0.3730378	-0.046469823	0.06704277	-0.17909986	-0.04224419	0.82364416	0.2921317	-0.16373467	-0.3562209	0.17964803	0.23696627	0.3151296	-0.11968556	-0.13978513	-0.26523435	-0.48146242	0.2571608	0.15383035	0.19938836	-0.49205816	-0.1459877	-0.13088372	0.55040497	0.038995378	-0.03507989	-0.49454364	-0.23245028	-0.23964034	-0.10296639	-0.23444355	-0.41685542	-0.16245793	0.4275949	0.51393753	-0.1923473	-0.425331	-0.3739351	-0.09405826	0.15728325	-0.2026128	0.25531143	-0.11167065	0.24135426	0.16093093	-0.44585973	-0.48305333	-0.05385928	0.08440388	0.08833687	-0.20383112	0.09044325	0.3594453	0.86599773	-0.8883277	-0.06349894	0.290228	-0.20785347	-0.20936927	-0.44740984	-0.116114706	0.2014931	-0.2883933	0.67218876	0.075844154	-0.37594593	-0.060535125	-0.40333122	0.00950194	-0.07169075	0.1623628	0.47527158	-0.19685248	0.08908207	0.12772097	0.5832302	-0.20907225	-0.24163911	0.0
GSM6249379	0.4039073	0.059646443	-0.15274477	0.20445795	0.10321727	0.4131411	0.1275999	-0.35139054	0.0009175083	-0.23058338	-0.22574718	0.1851839	-0.7506574	0.052083742	-0.3786743	0.49267092	0.061992794	-0.62562984	-0.6819145	-0.14644839	0.49765354	0.21970953	0.06662985	-0.070559114	1.0022025	-0.21381609	0.19941826	0.3354794	-0.2789012	-0.119252436	0.45119783	0.5682233	0.20822528	-0.45898116	0.521341	-0.7147225	-0.32309818	0.51292944	-0.3535937	0.33626643	-0.09768859	0.63939387	-0.27033457	0.22854309	-0.24469332	0.12275131	-0.32113117	-0.578412	-0.25834623	-0.19358146	-0.14084367	0.18825287	-0.18238406	0.2930062	-0.35337856	0.3972935	0.07476262	-0.15615506	0.04298336	-0.2542857	0.08904129	-0.5789982	-0.27452073	-0.6769571	-0.104323834	-0.5044498	-0.42578492	0.040682323	-0.47437552	0.021255001	0.008574226	-0.14453574	-0.06749732	0.03702673	0.15372062	0.68225324	0.96048516	0.061488885	-0.4884533	-0.30989715	0.7321987	-0.13431452	0.6756901	0.123078845	0.54570264	0.5705859	0.14311591	0.04627886	0.31446263	-0.44496047	-0.4821685	-0.781016	-0.021830859	-0.05504911	-0.17142405	-0.5380897	0.68343943	0.23983167	-0.3245267	0.15596858	0.0
GSM6249382	0.2730108	-0.48730087	0.44558212	0.12112969	0.41045442	0.25432488	0.053187262	0.13320139	-0.67473453	0.44159997	-0.10524152	-0.11452583	-0.32920492	-0.08677232	0.39510483	0.0031803972	0.13095544	-0.6016643	-0.19621052	-0.5249698	-0.7116265	-1.09141	-0.047581952	0.26207593	0.25862366	0.1850299	0.058496807	0.04844338	-0.14770934	0.13713396	-0.39862925	-0.18135037	-0.02661459	-0.52294374	-0.048462573	0.11043276	0.42682818	0.8515551	0.35754576	0.40125188	-0.017851477	-0.86697686	0.7992297	-0.57881975	0.150718	0.35490108	0.038278397	-0.8986678	0.42845494	0.25634018	0.24256283	-0.7424865	0.015952129	-0.049219575	0.2993418	0.19402924	-0.13119091	0.26803157	-0.3316605	0.0756147	0.19792905	0.7175728	0.21479483	-0.6962567	-0.40021938	1.2386374	0.08669833	0.34359884	0.13824101	0.37116697	0.8374397	0.28858867	0.22572303	0.41181523	-0.633609	-0.35463372	-1.1911652	-0.2220535	-0.13310592	-0.28887108	0.49821553	0.19009535	-0.8793173	0.48279256	0.6534656	-1.1583433	-0.8182921	0.48701012	-0.5133992	-0.7166865	0.45381683	-0.2836643	0.020807695	0.25075495	0.045906074	0.25954372	0.13151741	-0.50848496	0.72536504	-0.34748623	0.0
GSM6249383	0.016933743	0.023860037	-0.071536824	-1.0259855	0.591581	0.45535532	-0.22982652	0.5218158	0.8103676	0.23691604	-0.098575026	0.2840445	-0.5563918	-0.30254072	0.01327125	0.042379525	-0.10791989	-0.6029085	0.20214014	0.14277191	-0.091387026	-0.32487696	0.15576476	-0.6703165	0.9471405	-0.4074008	0.6843603	-0.19178164	0.5295591	0.38631645	0.7251145	-0.030673234	-0.1523329	0.2821176	-0.54534006	-0.8127614	-0.24154226	0.823797	0.9498294	0.3610705	-0.5292569	-0.28323177	0.9095066	-0.32195657	-0.002154235	0.97787416	0.9184975	-0.48862576	1.43573	0.29801747	-1.0079471	-0.2321916	-0.5365969	-0.4055992	0.41383415	0.66265917	1.235286	0.24454376	-0.2657467	0.9185303	0.01384634	0.2541685	-0.6818117	0.42738357	0.7233694	0.5817052	-0.76822466	0.46271887	-0.6433491	0.484909	-1.2030793	-0.21549334	0.47619513	-0.10907161	0.4866723	0.3622868	0.12431194	-1.2777033	-1.0300913	0.44653946	0.160408	-0.38889942	-0.9946346	-0.34487924	0.286034	0.22962883	0.5582018	0.14801483	-0.27570534	-0.39594296	0.48735467	0.40519089	-0.25620398	-0.032673284	0.76705235	0.10517485	0.1373243	0.028184237	0.84850836	-0.002364028	0.0
GSM6249385	0.5160883	0.6236099	-0.13607946	0.455211	0.1504762	-0.15399489	-0.2490637	-0.012467144	0.27351025	-0.14709827	0.7101378	-0.3681005	0.23322359	-0.71054274	-0.9077372	-0.06914468	0.2334254	0.48667303	0.6773957	0.32247025	-0.23738003	-0.5893152	0.29704246	0.8156076	0.326927	-0.123367526	0.4797444	-0.97201383	-0.23952518	0.29845133	-0.01607421	-0.5091074	0.009437253	0.6144935	-0.21132165	-0.4311086	-0.074042805	0.1771601	0.9505049	-0.09119395	-1.6908412	-0.45201996	-0.24833938	0.9202179	-0.13497932	-0.5920329	1.1533237	1.0091124	0.7654337	0.7705618	-0.336578	1.045111	0.06812256	0.82570875	0.5771821	0.23299457	0.9690559	-0.43561605	0.058572672	-0.2184447	0.08484406	-0.46285307	0.1119133	0.16548403	0.13819164	1.3960124	-1.0690966	-0.72270465	0.20111923	-0.93920183	-0.24899395	0.6407382	-0.073095284	0.87124693	-0.26894167	-0.21449119	0.21025114	0.1871167	0.042327285	0.7393921	0.009416048	-0.1829207	0.37043756	0.63181883	0.7638017	-0.2794592	0.18225558	-0.4871223	1.0370488	0.39021984	0.24595279	0.37950787	-0.50290066	-0.45202777	0.18742648	0.39115757	-0.28349704	0.22079156	-1.0845703	-0.021414917	1.0
GSM6249386	-0.56344706	-0.2257514	0.030399326	-0.47143924	0.47455552	0.28624153	0.85799503	0.16740344	0.66684157	0.13694876	-0.27103162	0.42886695	0.44961384	-0.31651774	0.28144228	0.11200245	-0.30263114	-0.22122759	-0.20777658	0.2749429	0.06022868	-0.085228056	-0.12829632	-0.26122138	0.29118696	-0.7457655	0.031893663	-0.27036425	-0.25500694	-0.2686342	1.1852604	0.35367233	-0.69328046	-0.09845059	0.5036066	-0.299375	-0.26978257	0.39036933	-0.43154564	-0.60969704	0.14862671	-0.39392117	0.12193272	-0.3524563	0.50524306	-0.44588935	0.4941952	0.7618657	-0.022052556	-0.22849993	0.4289308	0.27659142	-0.52106726	-0.086529516	1.0946081	-0.61939436	-0.13917564	-0.544295	-0.15272358	-0.24634008	-0.24039699	0.19710708	-0.2631346	0.037017405	-0.20816977	-0.48773274	0.09791311	0.18848535	0.68387175	0.8248121	0.06931336	0.28671807	-0.11258597	0.32323492	-0.652379	-0.40496314	0.46818605	0.520958	-0.0031659007	0.1899412	0.15515547	-0.2591679	-0.520206	-0.6367397	0.5884454	-0.6505759	-0.29339483	-0.47854123	-0.24187969	0.45096982	0.089728944	0.9080029	-0.25151306	0.221639	0.21098696	-0.27638057	0.4184922	0.3777058	-0.30817398	0.027892837	0.0
GSM6249389	0.28192773	0.43997484	-0.42655098	-0.013980037	0.2689862	0.49830946	0.3450849	0.5243628	-0.40148464	0.35601622	0.04256192	-0.6808837	1.0742074	0.15257649	0.44620582	0.043420497	0.31745893	-0.29894403	-1.1449674	-0.93882143	-0.83047897	-0.09529406	-0.5877628	0.5258525	0.046271782	0.21955518	-0.529193	-0.95855606	0.21812549	-0.019147405	0.08308656	-0.8469577	0.58289737	-0.43647352	-0.37268245	0.96544355	1.0146967	0.22894104	0.5123474	0.895062	-0.29387003	-0.26792628	-0.08430226	0.4318676	-0.23252518	-0.70593476	0.44636515	0.40557733	0.5476125	0.09039309	-0.93089837	0.27705747	-0.23397277	0.8392298	-0.006525153	-0.33885628	0.3523134	0.15459993	-0.025826385	-0.83974564	0.6844093	0.45427993	0.52012086	-0.2685833	-1.2687622	0.39283717	-0.043692674	-0.053072125	-0.5632822	0.12236499	0.48851633	-0.4958219	-0.04950966	-0.20582828	-0.52714914	0.25820023	-1.2145158	0.0488695	0.74087495	-0.35790923	-0.48713803	-0.43683293	0.95141083	0.06788011	0.9212246	-0.16080733	-0.6915306	-0.13711289	0.35030502	0.24271677	-0.096206434	0.45019397	-0.28156498	-0.06435014	0.11543158	-0.62530565	-0.14903224	-0.005869765	-0.42007872	0.22028416	0.0
GSM6249390	0.13297677	-0.049486127	-0.053309783	-1.1901774	0.3032941	0.057570662	-0.14623319	0.40525922	-1.0949985	1.1932446	0.29996464	-0.7736783	-0.03133728	0.6182144	0.044151288	0.25056618	0.2150115	0.4599694	-0.2040863	0.42053446	0.37979838	-0.11478412	-0.1820326	-0.39182937	-0.21177712	0.42233935	-0.07011774	-0.67526263	-0.050941743	0.73313385	-0.5374619	0.59235686	-0.19784093	0.87018913	-0.21219438	0.5549727	-0.6908332	0.006578901	-0.23993032	-0.1894917	-0.12945154	-0.06331621	0.40647316	0.5041667	0.2691013	0.34101304	0.52347195	0.10885402	-0.30409566	0.8126007	0.72092086	-0.28322372	-0.34169653	0.68150926	0.23360512	0.3714678	0.6681389	0.2802786	-0.044448845	-0.17002746	-0.80717796	-0.11900089	-0.08277781	-1.3447096	-0.49789855	1.2263527	-0.67661047	0.20907417	-0.7566865	0.30061233	0.55828637	0.8285325	-0.35607386	-0.04755536	-0.10142331	0.027659403	0.0014579205	-0.45952234	0.10579077	0.25664228	-0.06265429	-0.49612284	-0.2067532	0.20249245	0.33506408	0.39826882	-0.9650374	-0.5662839	0.42617616	-1.362978	1.1446824	-0.5637817	-0.16188033	-0.41526532	0.643501	-0.10531561	-0.88548005	0.50733775	-0.37712324	0.27842858	1.0
GSM6249391	-0.6871165	-0.12258121	-0.3340596	0.079402916	0.54908514	0.03773661	-0.519369	0.20038302	-1.132509	-0.007993041	0.8671182	0.13826062	0.92298996	0.0029310656	-0.3172053	-0.19469528	0.39467928	-0.24666998	-0.08307099	-0.6339	0.007582478	-0.46387962	0.10264395	0.41955984	0.786786	1.0024989	-0.54677546	-1.0487676	-0.6617193	-1.3964611	-0.4174762	-0.55992377	0.085837565	0.33972982	-0.40137118	0.22036865	0.13595645	0.13071099	1.0681196	-0.037822865	-0.1727328	0.4715569	0.14567506	-0.32497424	0.15624797	0.47541985	-0.34519678	-0.048329927	0.36632824	-0.6434696	-0.043681413	0.08393232	0.56417996	-0.625654	-0.62889063	0.85499537	-0.050140597	-0.57857627	-0.30423388	0.55559945	0.4949948	-0.043537166	-0.84939337	-0.16239224	0.48024186	0.27896872	0.20761523	0.08226364	-0.78889114	-0.43751946	0.118027076	0.046763398	-0.007165674	-0.53036356	-0.03478845	0.055343803	-0.14296223	-0.13555256	-0.32422838	0.06079795	-0.03634515	-1.0227307	-0.5421383	-0.6017121	-0.06077688	0.7627523	-0.32182395	0.34944773	0.5769599	-0.20415305	-0.027942266	-0.06172752	-0.8319401	0.64881194	-0.064002	0.39559552	-0.3265744	-1.1513075	0.025632672	-0.07420731	0.0
GSM6249392	0.6352572	-0.17509656	0.4736991	-0.06805038	-0.010845811	0.6148958	-0.38246268	-0.95026916	-0.23621286	0.8018278	-0.75670385	0.6818172	-0.24497284	-0.8331422	-0.16166095	0.7353137	-0.15994619	-0.7404035	-0.28897	-0.5700242	0.2930008	-0.09338155	-0.15085015	-0.73590565	0.20161772	0.032956302	0.27421567	0.7792927	-0.12677911	-0.64715135	0.3579948	-0.16963783	0.033485763	0.22265324	0.25896183	-0.96113235	-0.027347831	-0.2715618	0.33007085	-0.29058093	0.07469772	0.15873855	0.44295263	0.37269503	0.21920043	0.3679865	0.2585303	-1.0598893	-0.51962477	0.29755244	-0.9616987	0.07440294	-1.2419376	0.30072808	0.2801283	0.7471789	1.3234336	0.55338	-0.8452298	-0.6460433	-0.13779536	0.1525306	-0.08253413	-1.0210012	-0.14176492	0.8024758	0.35290644	-0.058586713	-0.78494185	-0.6939674	0.94451416	0.3373012	0.9821961	0.17118414	-0.7692377	0.08590963	-0.41078064	-1.1662648	-0.14044859	-0.009274031	-0.9363996	-0.07356097	0.77967626	-0.5179353	0.37322047	0.49340978	-0.2029702	0.25866672	-0.5733888	1.0408015	-0.364193	0.3160198	-0.38263267	0.5794479	-1.2522044	0.098994955	0.39555588	0.2555641	-0.6334251	-0.68363756	1.0
GSM6249393	0.53947157	-0.6852464	-0.17385367	0.8082547	0.1679333	1.0626308	-0.31841204	-0.10960401	-0.3326421	0.0884849	0.1278816	0.022625053	-0.7921705	0.77792233	-0.769547	0.27013516	-0.5856991	0.030221332	0.20928136	0.8906557	0.3896444	-1.213227	-0.2956318	0.6129046	0.13980192	-0.40260193	-0.15956251	-0.65062785	-0.09973944	0.37728596	-0.8161356	-0.03936919	0.20067777	-0.464271	0.18346588	0.24502385	-0.046780832	1.1074859	-0.21934305	0.12925893	-0.6621923	-0.2958009	0.4057383	0.91392875	-0.31243405	0.5160561	0.088290356	-0.33532655	0.31500044	0.30467027	-0.37249577	1.2742234	-0.295324	-0.45046467	-0.49569008	0.14478701	0.48889706	0.35868087	0.508943	0.63266504	0.69647217	-0.0024730947	-0.569064	0.18216667	-0.38252842	1.2409263	-0.77197903	-0.4107971	-0.19750382	-0.5376207	-0.4040859	0.21027781	0.7662974	1.017592	-1.2134434	-0.092380434	-0.57314086	-0.4006976	0.37045705	-0.1053363	0.5403877	-0.8373322	-0.46507302	0.45208988	-0.43907073	-0.22038841	-0.60161334	1.2007399	0.2359356	-0.80383754	0.80911624	-0.15458103	0.4671167	0.90868425	-0.28641507	0.6874729	-0.14284684	-0.0369454	0.10711497	0.4780493	0.0
GSM6249395	-0.26391163	0.11092699	0.33792725	-0.78654677	-0.36644718	-0.045409516	-0.0292543	-0.17030938	0.48256963	-0.9228353	0.4343277	-0.20131308	-0.08141861	0.31463248	-0.44559532	-0.52069014	-1.1050881	-0.33200654	0.32160103	0.14656958	-0.250336	0.24911551	-0.34767726	-0.06856639	0.2333774	-0.4236846	-0.046114393	0.2430189	-0.050030224	-0.3906533	0.50573653	0.6017798	0.62954605	0.20852406	0.6183432	-0.64718777	0.54394895	0.43939534	-0.57519066	0.44048664	0.25725725	1.0039245	-0.22757792	-0.18776329	0.0844465	0.45949253	-0.30351657	-0.3763226	0.61310244	-0.80914474	0.22695084	0.43208367	-1.1266713	-0.8107434	0.41828197	0.61552685	0.49740124	-0.561546	0.5383333	0.77081287	-0.008986165	-0.6572469	-0.57952976	-0.15166786	0.103659205	-0.08732544	-0.197471	0.30565754	0.03967056	0.27367064	0.07443241	0.027121728	0.18797417	0.938924	0.015569789	-0.0034381435	0.17761454	-0.13506448	0.26944712	-0.20716344	0.0007929173	-0.20240414	-0.28444594	0.43711302	-0.17818855	-0.46379426	0.108752154	0.2710092	-0.6189167	-0.54379714	0.52253723	0.5019612	0.7010563	1.1141171	0.5311161	-0.018238286	-0.0081233075	-0.36676782	0.5620938	0.7569448	0.0
GSM6249396	-0.46695334	-0.3582746	-0.8421826	-0.098397076	-0.110655725	-0.36308065	-0.5436788	-0.23152871	-0.6199012	-0.11130998	0.16011332	0.26009026	0.036713913	-0.18793602	-0.02010928	-0.5263654	0.30293563	-0.27229714	-0.6871813	0.104167685	-0.9247774	-0.5526837	-0.53924155	0.1271685	0.13930131	-0.30694392	-0.80390584	-0.6822464	-0.34017232	0.91186446	0.15824622	0.5519151	-0.48125032	-0.4946012	0.30794048	0.102893464	-0.072238535	-0.2422704	-0.04296185	0.06993929	-0.09050621	0.31632578	-0.27946305	0.68926144	-0.24643879	0.12565011	0.46360245	-0.19700862	-0.1877831	-0.16477126	-0.8360255	-0.21732415	0.41277215	-0.17614959	-0.27926555	0.6154031	-0.24740036	-0.37163493	-0.61179626	-0.3055564	0.43709204	-0.83224237	0.33511436	0.67814344	0.2150155	-1.1915241	-0.23376815	-0.07348627	-0.35005	-1.2832893	-0.448987	-0.12871902	-0.30471766	-0.32755262	0.21566181	0.22316715	0.34681594	-0.44009998	-0.41370678	-0.40598017	0.38429505	0.44676837	0.7323768	0.66880214	0.1956675	-0.08198221	-0.17233221	0.2869056	0.32436728	0.4370905	0.13076496	0.10203394	0.16061045	-0.18046296	0.039156884	0.44572395	0.06884688	0.04007668	-0.005989185	-0.1112048	0.0
GSM6249397	0.0015359488	-0.33858925	-0.278568	-0.06132296	0.4231756	0.31445366	0.007699392	0.67301184	0.6933819	0.7397787	-0.064371035	-0.26547262	-0.6456541	-0.9830989	-1.1198745	0.18263434	-0.31914955	0.48598108	-0.16293599	-0.10019974	-0.5157485	-0.6524532	-0.89718163	0.73814636	-0.13152397	-0.61520916	-0.45992434	0.6036266	-0.2275576	0.76999414	0.4495245	-0.58443445	0.37528044	-0.20599888	0.11238097	-0.040547367	0.38330534	0.5178009	0.11117204	0.11239524	0.24929164	-0.120674565	-0.56590295	0.5828948	-0.15630883	0.70984125	-0.12960297	0.2715587	0.012641806	0.1096463	-0.75975126	-0.1408136	-0.35063896	0.6425562	-0.57434464	-0.41581634	0.07426925	-0.91550994	0.01745694	-0.4912275	0.43428013	0.041452155	-0.26079088	0.00639721	-0.6034133	0.26393384	-0.39339775	-0.4828058	0.18395995	-0.33097303	0.05121962	-0.5952792	0.2049777	-0.24728219	-0.36578038	-0.29282242	-0.17967914	-0.69073725	1.0658566	-0.30580485	-0.19351386	-0.56230474	0.6238638	0.8118861	-1.5497472	1.0449948	-0.7599828	-0.18139137	-0.18032128	-0.114727594	-0.2111429	-0.22358738	0.6119429	0.061630134	-0.2343467	0.6238642	-0.19753607	-1.0430034	-1.0494417	0.48473835	0.0
GSM6249399	-0.39004236	-0.4638043	-1.0423307	-0.19897692	0.36093825	-0.01002586	-0.76049143	-0.49705526	0.80255204	-0.12935634	-0.14928372	0.91743004	-0.35589725	-0.5027778	0.7199139	-0.23469575	0.22019883	-0.49206504	0.10471375	0.14261016	0.490695	-0.57747376	0.038261823	0.017314807	-1.251608	-0.18024233	0.044161387	-0.73555356	0.5476278	0.33316895	-0.36565873	0.46242592	0.02148492	-0.65255535	0.10554035	0.47708482	-0.5580052	0.3469108	-0.088097945	0.13642207	-0.09291154	-0.66969544	-0.18734612	0.25156978	0.349406	0.22636342	-0.1535168	-0.583306	0.7518294	-0.23335257	-0.526389	0.6397855	0.858524	0.15002385	-0.066501044	1.1871228	0.048856407	-0.022247063	0.009253352	-0.2265919	1.0424807	-0.22428878	0.26562586	-0.19985387	0.32313675	0.044069853	0.16004515	0.1144821	-0.8807648	-0.11894653	0.13486649	-0.39818963	-0.3177456	-0.08899238	-0.046816405	0.3374183	0.91234076	-0.049953382	0.02901486	0.40745533	-0.7134309	-0.3230027	0.3697391	-0.67084783	-0.075086355	-0.15411405	-1.021522	-0.037314415	-0.019321697	-0.2404351	-1.0430733	-0.17520954	-0.59664917	-0.8524086	0.14981076	-0.29553688	-0.3469722	-0.04646545	0.5552191	-0.19308525	0.0
GSM6249400	-0.7550412	-0.7199444	0.28791508	-0.7351941	0.86272264	-0.027097372	-1.0270708	0.3447102	-0.6342467	0.7393302	-0.17125015	-0.3388913	0.057314098	-0.40583542	-0.8061756	0.26794124	0.13776252	-0.6420249	-0.55169934	-0.31965995	0.10484095	-0.7157639	-0.06370932	-0.34684935	-0.28236446	0.54161495	-0.04286421	-1.1017498	-0.69581634	-0.328781	0.86732984	-0.027998658	-0.42135894	0.39240107	1.2520064	0.27978694	0.3459436	0.25479743	0.55077106	-0.22105029	0.52220315	-0.121502124	1.164877	0.32421717	0.42957476	-0.16242726	-0.60241234	0.10643183	0.23412094	-0.18304193	-0.5343922	0.13681984	-0.28922543	-0.5620126	-0.8150638	0.46221584	-0.27870747	0.13274288	-0.36897993	0.14958331	-0.056803904	0.36178672	-0.2552174	0.3797638	-0.37334517	0.74112874	-0.25826845	-0.49407393	0.28196847	-0.7490335	-0.43832374	0.64381063	0.45648545	0.09505874	1.098081	-0.06273858	0.5109953	-0.16408676	-0.79785883	-0.60721314	-0.32488695	0.03371778	-0.51411575	-0.37152332	0.17122307	-0.587411	0.7092653	-0.141325	-0.011743897	0.004053077	0.92741835	0.44747946	-0.817527	0.36303478	0.39014494	0.8236493	-0.19198486	0.06939144	0.15036958	0.1820404	0.0
GSM6249401	1.0108082	0.47592673	-0.23820883	-1.1683854	0.4548634	-0.1610492	0.34953794	-0.076854244	0.05623255	-0.87905633	0.45379686	-0.92238325	0.32806385	0.28030434	-0.36779556	-0.6645942	0.012250421	0.18943395	-0.23223116	0.08474288	-0.6465828	0.72999096	-0.006350887	0.15233749	-0.3551476	0.6482798	-0.7844478	0.43134713	-0.0351599	-0.6796493	-0.31620726	-0.2612097	0.7484696	-0.44649297	-0.27213833	-1.0163231	-0.24345739	-0.32049784	0.23133454	-0.29882634	-0.17477223	0.16454463	-0.70683813	0.06867971	-0.83752257	-0.8998985	0.15683092	-0.43473804	0.4472491	0.22610183	0.7965718	0.24430652	-0.32134953	0.19692843	0.7025904	-0.20549123	0.010619872	0.9131358	0.23205325	-0.75145966	0.61463046	-0.78885627	-1.0250024	0.2629961	-0.17894931	-0.4015688	1.0611278	-0.34265256	0.63057023	0.19963469	0.27460694	0.043970566	-0.03560919	0.08031036	0.006218432	-0.7130225	-0.063954614	0.2743227	0.120879844	-1.030999	-0.5618483	-0.0768999	-0.032884803	0.181713	-0.17963976	-0.26288638	0.27552626	-0.4260163	-0.42607462	-0.26682454	-0.2672835	-0.1120624	-0.26495993	0.02479095	-0.24044938	0.18465519	0.3017128	-0.1795873	0.05145897	0.036416933	0.0
GSM6249402	0.3295718	0.3127292	0.11460929	-0.30516765	-0.16952278	0.71818376	0.0804173	-0.36505407	1.1980854	0.08740973	-0.30825824	1.004349	-0.14504352	0.9655853	1.2491757	-0.19677916	-1.0326047	0.38246506	0.26742163	0.40752053	0.7596423	1.1502223	-0.061431795	0.5511344	-0.021087004	-0.4680298	-0.56257147	0.13907425	-0.64204717	-0.16606984	-0.32903597	-0.120646365	0.50502366	-0.34286243	-0.21535367	-0.24676928	-0.5294868	-0.89295334	-0.5979277	0.056101773	1.0050057	-0.25957245	-0.1964635	-0.5343477	0.20482801	-0.13686979	-0.36128664	0.8925436	-0.5119716	0.95130605	0.8991046	0.8235467	-0.50797725	0.24253115	-0.59838563	-0.239102	-0.027162109	-0.35982665	0.6783907	-0.12660055	-0.07060877	0.40171173	0.7960227	0.36924207	-0.2053788	-0.81030947	-0.0051435716	0.513213	-0.27277482	0.48230657	0.3544972	-0.095086314	0.39886707	-0.42819273	-0.060205724	-0.26900238	-0.121146776	0.5209454	0.006569416	-0.59388864	0.09982069	-0.25410935	-0.37508723	0.6998667	0.17939657	-0.23988454	0.5463677	0.42917156	-0.22934195	-0.433293	-0.3734723	-0.05920346	0.13523002	-0.44528285	-0.10434619	-0.044541616	-0.5371433	0.5363471	0.07563573	0.22419707	0.0
